1.427155485793214253e-02,1.800902541670441198e-02,-1.259745675900849488e-02,-5.881694665340778116e-02,1.050003327830947963e+00,4.189044060617930221e-06,-3.098502611042372457e-03,2.150797911781993088e-04
2.224188669108341163e-02,1.102048511142875442e-01,8.546382479799538578e-04,1.338953100898399896e-02,-1.228290819350903451e-01,4.147165263688979905e-05,-1.969734447344483400e-02,-2.981440715369482642e-04
-8.819242390423417954e-02,1.907397897063744241e-01,-1.124888498376277676e-02,-2.314947984096606213e-03,-2.036811656437381435e-01,-1.234526454155197937e-03,1.016944287430841670e-01,1.840084291405576222e-02
3.430595760067651351e-02,8.466576383598660438e-02,-1.224388716295783837e-02,3.788744892842268140e-03,-1.080106598908550375e-01,-5.691641714922970538e-03,1.044057272180833572e-03,1.234516589268209140e-02
-3.050771767698874995e-02,1.569972264338668766e-01,1.556821088242096862e-01,4.842862177299127498e-03,-8.503392055057402976e-02,-6.797088847987917126e-02,-1.007692725859039851e-01,7.827261544718527517e-03
3.388985439325598037e-02,7.793101962163698215e-02,-3.871977423154007031e-02,3.421954746062850442e-03,-1.250494773023500539e-01,1.625689002304572459e-02,2.300154353444704841e-02,-1.998207365665099697e-02
-3.165589994005107988e-01,2.501663288000272045e-01,-2.827228173925132662e-02,3.647637246850253361e-03,5.937032171962310784e-02,1.914295079570777370e-03,-1.234856537553766145e-03,3.242693582605581017e-03
-4.592068259841175504e-02,6.184229769496416701e-02,1.237831732095681370e-01,1.744717334057512784e-03,-7.223841378921515288e-02,1.032523887288043681e-02,2.481951201095167897e-02,-9.344400220128740858e-03
-5.550538262205276935e-02,2.086219325499349131e-01,2.574234592673770305e-01,1.355113109059079279e-02,-4.370631597236832033e-02,-1.088696169965967797e-01,-1.284151747591675760e-02,1.366591973838949745e-02
-4.084358665983731443e-03,-1.074540912323215455e-02,1.662805857880786942e-01,-2.874391183292778623e-02,-1.313372549450606041e-03,2.058249626247117547e-02,-2.337519131408188205e-02,-1.635090106662520290e-02
-4.996307353255509398e-02,8.220374834668613129e-02,1.097391115892627916e-01,3.254452253926605563e-03,-5.055509375106698178e-02,9.017262080428283672e-03,2.174189533074857156e-02,-1.451667828721032137e-02
-3.495120205280536599e-04,1.065561717101632180e-02,-6.067440338021268253e-02,-1.493475986030427197e-03,-1.995298594499970643e-02,-7.723504462439081779e-03,2.267109610213566967e-03,-1.303438489862019083e-03
-1.374575232218462617e-02,1.703757160843050525e-02,-3.359135098502154249e-02,-1.451400742563704882e-02,-2.446490878116227251e-03,-1.522068624937667793e-02,-8.290938716076525199e-04,1.773993741091006021e-02
3.315894020480390173e-03,7.091315902023997975e-03,-5.869933125355573933e-02,-8.131078114274887646e-04,-1.962893757947790918e-02,-5.673804534046682051e-03,3.583261638613957634e-03,-3.496186926215496312e-03
1.710346126440690298e-02,-1.174944836504374784e-02,-5.417551932405627324e-02,-2.188053282692902293e-02,-1.001041558115319322e-02,-3.422836899931625161e-03,1.785358360000690106e-02,-3.628180103291908827e-03
-1.240481461513255057e-01,1.400299508412513050e-01,-1.935244441115075570e-02,7.849506322046732399e-04,-2.559692344149962911e-02,-7.404471191405470609e-03,9.342845108363228776e-03,-6.686204196591075729e-04
-1.407030310274008135e-02,2.078821889935389064e-02,-5.502636398678591167e-02,3.235895302706064819e-02,9.375555374331918934e-02,1.316293305409239021e-02,-2.959443233191854511e-02,-1.455600384755631992e-02
9.974771177584149107e-03,1.854991318960288321e-02,-6.246134757173189833e-02,-2.484138665912149525e-03,1.724702250791272862e-05,-9.142320103386881308e-03,-1.282198785434457769e-02,9.123862017265191174e-04
4.672324098978395193e-03,-2.556466306366134839e-02,1.255102322874679099e-01,1.030434005092364675e-03,9.908478279982953565e-03,-6.187517909465119550e-03,-1.301996032411864568e-01,1.286528648708888320e-02
-1.104517447384069720e-02,-2.743721899835125863e-02,1.230164109703049818e-01,4.663244127525330014e-04,1.579071635350907986e-03,1.357912409479350990e-01,-1.113234427711256858e-01,-1.296844196794150472e-01
1.733903576241245179e-02,-2.172349410263458430e-02,1.337293936408130712e-01,-2.731752714288574520e-03,7.370805010581034551e-03,-3.273499544389302761e-03,-1.457603061941692146e-01,1.178698553691897785e-02
4.663383616096414969e-02,-1.366777192911881600e-01,-7.412873030570257642e-03,-1.439996256010883657e-02,-2.049415351119961703e-01,4.882869218016408497e-03,3.100141835505117460e-01,-4.327468880891780639e-03
1.755952878724444848e-03,4.073378861585217996e-04,-4.859824778593275357e-03,4.841664968396623692e-02,-1.139429148993107710e-01,-5.071619349833182688e-03,8.197917401686935501e-02,-7.358785703217703318e-03
-1.272325826684163276e-04,-6.859522010602868425e-02,1.449013837582290021e-02,9.251667113214370741e-02,-1.282691621790997272e-01,6.905927368913170050e-03,6.809537747206878544e-02,1.634058942705175722e-03
-7.960099826042392468e-03,1.020301510538916025e-02,-5.497894674366339378e-03,-7.937183618162794172e-04,6.379788191279681282e-03,1.831659004901713822e-03,-4.106874057367301822e-03,-1.778781289590377181e-03
-1.733912126976355772e-01,2.073361298817184006e-01,-1.488818378347003812e-02,-7.219935701026726493e-03,-1.804486069650865915e-02,-1.876259693443336346e-02,-9.901073503976068162e-04,1.463584079030682064e-02
-1.219680805926642853e-01,1.311266001616202548e-01,2.474384618213081033e-02,1.392834989152952341e-02,1.843055343903164667e-02,8.173257703568904270e-03,-2.862319374666861399e-02,-6.376238004795760361e-03
-1.447562041145594169e-01,1.405125201847650940e-01,3.668654736722817833e-02,-1.630621435327774980e-03,1.021937553760458601e-03,3.073804470624665562e-05,3.400653354789120834e-03,2.284118638093871978e-04
-2.858216872839276432e-02,2.121745701416190288e-02,1.635113500780449938e-02,3.666155444565318060e-05,9.968808810084177699e-03,-9.834991703967703100e-03,-1.483989575532200164e-02,2.230350541178503093e-02
6.630508665798526269e-02,-1.522055515347006394e-01,-5.913359452413025422e-03,4.193796997140773395e-05,-5.031925580703612566e-02,-2.256203267254619504e-03,1.381141168228619542e-01,2.291560789046299864e-03
9.645907112317984866e-02,-7.425870022577068900e-03,4.842626951291740091e-04,-8.066338021166585132e-03,-2.792973635995874004e-02,1.016718742855231283e-02,6.270664872175690796e-02,-1.352697067066669090e-01
1.058321514951456876e-01,-8.631277111192034446e-03,-3.248060775963116124e-04,-1.090524702052417597e-02,-1.898829041088460554e-02,-3.529035968554873485e-04,-7.564882330816859179e-02,9.171592056415885097e-03
1.058321514951456876e-01,-8.631277111192034446e-03,-3.248060775963116124e-04,-1.090524702052417597e-02,-1.898829041088460554e-02,-3.529035968554873485e-04,-7.564882330816859179e-02,9.171592056415885097e-03
1.058321514951456876e-01,-8.631277111192034446e-03,-3.248060775963116124e-04,-1.090524702052417597e-02,-1.898829041088460554e-02,-3.529035968554873485e-04,-7.564882330816859179e-02,9.171592056415885097e-03
1.141939393475280146e-01,-1.899215245888563955e-02,-1.719253434436025102e-02,-1.641849333099750646e-02,-2.115258811889947702e-02,-2.624484186772000054e-03,-4.597413041749244533e-02,1.057012170870174489e-02
1.058321514951456876e-01,-8.631277111192034446e-03,-3.248060775963116124e-04,-1.090524702052417597e-02,-1.898829041088460554e-02,-3.529035968554873485e-04,-7.564882330816859179e-02,9.171592056415885097e-03
9.188076223840094259e-02,-8.765465211115739536e-03,3.130870483097307065e-04,-9.270522489716302023e-03,-1.665119195954515435e-02,-9.595974581469787421e-03,-6.764207433965929717e-02,2.032292180623963482e-02
7.579030159667374256e-02,-1.645291303121511894e-01,-6.827777463385253931e-03,1.631053059562653229e-01,-4.079782240990881444e-03,1.153769008574914538e-02,-7.510244320004523522e-02,-4.150249007530115372e-03
8.379178816857542345e-02,-7.079542920194463896e-04,7.756149400539332980e-03,-1.487692998448521611e-02,-3.288697439297569997e-02,8.483118705697185579e-04,-5.879322704000727873e-02,6.819825642769961234e-03
-5.168945267194276910e-02,-3.643210302952779207e-03,-1.091448039376648768e-04,-4.110353369998772689e-03,2.640652843884743611e-03,1.419299930911587238e-01,-5.407519575363621545e-02,-1.910414474483836805e-02
-5.900623204714018633e-02,-1.585831499192760091e-02,-9.821723069176088554e-04,-7.785398969763455696e-05,-2.690159953952053870e-04,1.416772549284973925e-01,-4.170852716857141596e-02,-1.917090516636487524e-02
-5.021642603721102743e-02,-1.576957328707972658e-02,-9.107678608601862394e-04,-3.654667954423412163e-03,-9.895302490571715112e-03,-2.370714983652232738e-02,-4.112009732173090015e-02,1.456941478028507819e-01
-3.689377184655508179e-02,-4.285053778709953937e-02,-1.964846626502718754e-03,1.272374394157792243e-01,-4.687901329878358531e-02,1.079989594627255578e-01,-1.374096102219938831e-01,1.038878624061744362e-03
-1.897432155313059574e-02,1.206134827030140161e-01,1.209585861258982015e-01,1.100980785443003013e-02,9.775357382726973521e-03,-1.101233606560355627e-01,-1.187004656892744724e-02,9.691671441189101538e-03
-1.897432155313059574e-02,1.206134827030140161e-01,1.209585861258982015e-01,1.100980785443003013e-02,9.775357382726973521e-03,-1.101233606560355627e-01,-1.187004656892744724e-02,9.691671441189101538e-03
-8.135457087256905279e-03,3.684444550079436775e-02,3.656663378104972606e-02,4.210259356087717522e-03,-1.486545188019598208e-02,-3.657686139628071181e-02,-1.873480783630262093e-03,3.810187905036169741e-03
-1.343817406533253864e-02,2.848822459261484731e-03,-2.113496059384172791e-03,6.043548919594382562e-03,-2.409014455277239813e-02,7.214501291348482566e-03,1.066114767268132660e-02,-2.036027641908409042e-02
9.559437640375898632e-03,-1.437242422524031074e-02,9.548321096363309932e-03,-1.829748995725365840e-02,9.567696170676716350e-03,1.325664539405398221e-03,5.451555739298427454e-03,-1.686473524899487989e-03
-7.142262804862449174e-03,6.569771470765137233e-03,1.671349489918774051e-02,-6.237497461158313626e-03,4.650315644224253288e-03,-2.885052773696852174e-03,-2.441972602513835244e-02,1.499394779316501683e-02
-2.660370932737021743e-02,3.698976585134984563e-02,1.157130296819377513e-01,2.096526562852819506e-03,4.583121854601869202e-03,-2.428371064932936980e-03,-9.906452098271916265e-03,5.017836198807181430e-05
-6.495174461749382913e-03,1.203790300113979569e-02,9.257542498094047459e-03,1.009979890509419068e-02,-2.455709934695208749e-03,-2.888160740187010501e-03,-1.266154793838706639e-02,-2.489868245406136500e-03
2.506693018552853206e-03,1.827848034352003853e-02,-3.564916570328331875e-03,-1.916058343797923461e-02,1.800490378286668993e-03,-1.883183303076468081e-03,-6.374756953525320853e-03,6.750779502952448941e-03
6.375220256137255348e-02,-6.073530763060584758e-02,-7.644389712950314109e-02,4.587996105165459242e-03,-6.949844328219455247e-03,-4.753252363608528180e-03,1.036600508453918990e-01,4.582267121695062992e-03
4.788252291375655161e-03,-4.019430365367482327e-02,5.132043737589930821e-02,1.918711497344397637e-02,-2.764086075303713932e-02,6.351029920151022440e-04,-9.604644669257105319e-03,-1.485601150605541298e-03
9.840206253921301299e-03,-3.314670678899671319e-02,-3.559167979852445596e-02,1.400873281053451047e-02,-1.527637767413275813e-03,8.562367728295949137e-03,5.261214478892340882e-03,1.318036620606580743e-03
3.600334995396035735e-03,1.865819135148853378e-03,4.204985519545969240e-03,-1.705691494026230215e-01,1.281201521679199229e-03,-8.924603462087847073e-04,1.746188389823736808e-01,3.286550547369260005e-04
1.739675665382393877e-02,-1.431134470293386231e-02,1.086503380152997571e-02,7.833351873021462963e-02,-1.040284376348612760e-01,-8.830687705287885644e-03,2.018282917066131082e-02,5.551602202578181759e-03
-1.441321396633936380e-01,1.470000617786161590e-01,3.178471263006182879e-02,-7.564120838246937706e-03,9.196598314709893834e-03,-4.520357051978732103e-03,3.204214371666744298e-04,3.877506588287307938e-04
3.863738224641801496e-03,-2.368576337358789183e-02,-3.446586393904881029e-02,-2.103556896098714851e-02,1.553583598929960397e-01,1.226174852569159382e-02,5.889397043140585063e-03,-7.968538059997308173e-03
5.402342604218860790e-03,1.204731949447875872e-01,-3.621560742263873339e-02,5.564899059510888509e-04,-4.996627996428945444e-03,8.970599389324252632e-03,1.719634058645945485e-02,6.503230788255650674e-04
-3.388468222344388769e-02,6.052203350110326591e-02,2.710782103665283424e-02,-8.363848392122797890e-03,-5.054659410506913420e-02,8.693468935356963093e-03,4.180380192984536891e-02,-1.261536421530884411e-02
1.118124445680899678e-02,1.213073100422775059e-02,3.276850123965367734e-02,-9.367163239848324760e-03,5.267213154920862353e-03,-7.376951701853352861e-03,-9.484449566806982257e-03,2.549682525224993869e-04
6.465469563944037379e-02,-6.055951332666022202e-02,1.633863135480954215e-02,6.868893734161585218e-02,3.140346610071532985e-02,-6.994198498651920618e-04,-6.881270092503245783e-02,-6.491029688856933891e-03
-1.159940241796613260e-03,3.092921683407560615e-02,1.349495542151287961e-02,-3.127532644600739681e-03,8.071406004981103791e-03,-4.384063212850048026e-03,-2.739568867234518958e-03,-1.020449902381409708e-02
-1.351067715997134322e-01,1.469412590125803442e-01,1.864528310448862122e-02,1.015246274341392689e-02,-7.973782761950079859e-03,-2.822823821518133597e-04,2.192839529635172771e-03,-1.608647062381252015e-03
4.575914753114122824e-02,8.470974444194912661e-03,4.436377699886563664e-02,-1.297441131845416054e-02,-5.983751510846641031e-02,5.944363334697461837e-03,2.020226408400485965e-02,-5.570452854652661184e-03
-8.421070163992627321e-04,-2.300368201674882207e-02,-1.805392190066585495e-02,-4.199973989592240800e-04,3.536686731798907753e-03,8.259818613687991418e-03,1.792963160274873777e-02,-8.462065363771028442e-03
-2.749055349918575614e-02,1.525013078128678312e-01,1.957585967121765885e-02,-5.911671724855667963e-03,4.462000522014061246e-04,5.841129929394710089e-04,1.510630471865405736e-02,-5.160634799206701350e-04
1.267828486365470131e-01,1.263307042461281615e-01,4.325025389720242759e-03,-7.280441354713015597e-04,-7.674021438575698295e-02,8.792227491701335579e-03,-4.257126937565126890e-02,-9.260352816333788234e-03
1.725274465907113077e-04,-9.167781930390510314e-02,-8.450221712683503306e-03,1.995968860657077598e-02,-1.848458362621146767e-01,-1.564281304322533983e-01,1.224757914550591298e-01,1.571988107091240594e-01
3.722013074276078748e-02,-1.210476916697903887e-01,-4.454267092949880033e-03,-2.123243406970353603e-03,-1.411853513533864179e-01,1.519501829698200780e-02,1.418761632973322973e-01,-1.557525398461053444e-02
3.385417682744503581e-02,-9.529884419372156024e-02,-1.018139675844449005e-02,3.643766482902667612e-03,-1.164092568314597231e-01,6.184143790983387748e-03,1.033414034313836910e-01,-1.818546962728627078e-02
4.136625154363885067e-03,-2.350761066960854739e-02,2.121891537310810743e-03,1.061798380532968239e-01,-2.847483600492330819e-02,1.112932083826389251e-01,-8.538503484086157336e-02,-1.091176974724307885e-01
1.184062923146174569e-02,-2.672458317202271519e-02,-8.225769388746000197e-04,1.322234741666946933e-01,-3.698956117113956499e-02,-4.570798029364423615e-02,-9.626856836731181866e-02,3.266150176414768513e-02
-9.664809788023812770e-03,-1.646452813548964292e-02,-8.854090167720382945e-03,1.263527542966917383e-01,-4.300635240403634200e-03,-1.972056077943527136e-02,-8.333773500706467829e-02,1.581689337621284414e-02
-1.465996578905290684e-02,6.927921538458715791e-05,7.459070539646971143e-03,2.127179667367587457e-02,-3.156479614083757164e-04,6.096969524904705465e-03,-3.058200489971680744e-02,2.635745933113717038e-03
-1.261323911119079447e-02,-2.304921874989625252e-02,-3.143874571415686693e-05,2.709944162249911664e-02,2.266676480362450358e-03,4.986176556534363882e-03,-1.133223174146037390e-02,3.860236092465023881e-03
1.176097649037352033e-01,-1.798147442782820765e-02,-9.380827002618465776e-03,8.763268940912040394e-03,-8.692975884935316699e-02,1.148030667983158948e-01,-2.771348411113625995e-02,-1.078274824590105263e-01
-1.645318973467323198e-02,-6.833561167744664662e-03,6.827600494576026476e-03,1.452156063830153075e-02,3.534807425716441319e-03,5.612702586324808812e-03,-1.708054803373655617e-02,4.212747529150341792e-03
-1.406107422663000275e-02,-8.043434791706143266e-04,6.224412267131850841e-03,1.166017367042296166e-01,-1.076128864588484363e-01,-7.249713629440719675e-03,-1.239601677163305014e-02,4.251320342423071941e-03
-2.981764418187250396e-02,-3.435972254224148922e-03,6.329833593009805311e-03,1.945968609657792447e-01,-7.994177423430207444e-03,1.233589857350186197e-02,-1.830228030890473367e-01,-3.214807727263554148e-03
1.136399820200838934e-02,2.206257038103040351e-03,-6.696492342678815948e-03,1.272920651127799618e-01,-1.097469230313316418e-01,2.966393056306906948e-03,-2.447637063480775574e-02,-1.200791736034566640e-02
-2.337910590785029566e-02,2.706816993474228661e-02,-8.479459423386620856e-03,2.456974520247416291e-02,3.740275809378420559e-03,1.494853199847989179e-02,-2.892029530516895125e-02,-1.105368660990065782e-02
-2.976024962845971213e-03,1.562607937700207783e-01,-1.072521012101590454e-03,-1.408663916396288296e-01,1.442591332610307087e-01,1.101950609529819174e-03,-1.385407451052262555e-03,-1.414840646069888668e-03
-3.609108660417366388e-03,1.411429849988707075e-01,-5.130587849191654099e-04,-1.292094527351994870e-01,1.216891068832623990e-01,-1.722444562270294661e-06,-5.176091171308844566e-04,-5.013867585185559491e-04
3.847975820318225160e-02,1.389382620630834342e-01,-2.644481977296295715e-03,-1.283535075977022266e-01,1.210007409674268841e-01,9.132252090717880248e-04,-2.593836816307903970e-02,-2.657627651937433371e-03
1.167855966323547989e-01,-2.387867431625225259e-03,1.846508515754167329e-02,-2.356765457397835134e-02,1.879842773319309601e-02,-9.649766603462967256e-04,-1.349818524829599631e-01,2.176289307252871237e-03
3.845383166862140212e-02,-4.593179479583957975e-02,2.498488978901642135e-02,-7.235765893935534876e-03,6.340646188620352106e-03,2.670151018021885148e-03,2.202456335881854653e-03,-7.662847494552510463e-03
-1.414770540494826936e-02,-1.805161931686744686e-02,1.253103073985419556e-02,5.924133151729281399e-02,-4.984755442241488310e-02,9.975831243254822209e-04,2.327642987738371555e-03,-1.173979480329754178e-03
5.896849887677875490e-02,-6.567525797351909944e-02,4.570437651685617039e-03,7.138793856043383797e-03,-1.418894576703317624e-02,6.151207672164637000e-03,8.306128070576125969e-03,-7.428838409732241299e-03
6.265988329770932463e-04,-2.308369858892413973e-01,1.374708434780256283e-01,8.282724265420274290e-02,-1.457380934851517096e-01,-2.582775399111180998e-04,5.911261931277164879e-03,-1.071515123356966233e-03
2.371832804528800284e-02,-1.405739555802632546e-01,1.281332136588447246e-01,-1.836215575951009090e-03,-1.422681789785961715e-01,-3.061384974793749519e-03,-1.696017465224790993e-02,-4.836896651560900970e-03
-5.972412812696454264e-03,2.981092652963718975e-02,-2.471984757295678931e-02,4.294641513612313354e-03,-1.306484124388433421e-01,-2.497659987058595613e-03,1.406086297171597055e-01,-4.593877884583661211e-03
-4.326920155566944251e-04,7.494304779661736457e-03,-3.236519243454921008e-02,5.788746569767270686e-03,1.252327212783192756e-02,-2.171228095605078848e-03,-6.133072594931172905e-02,6.103401765260536849e-02
5.038356513260877287e-03,-3.933115627021704572e-03,-3.048786733895319373e-02,2.929038402455321800e-03,1.824965637615937053e-04,1.270231512837268970e-02,3.731655419890483882e-02,-1.981536171397578830e-02
1.408515194279875461e-02,-2.574770447305322479e-02,8.257827818817042517e-03,-6.175322507504480730e-03,-2.445619906542005964e-02,8.558116754076236510e-04,1.353301015351230860e-02,6.249068240985796406e-03
1.202780504848944242e-02,-2.811263614819717316e-02,1.387486961624651537e-02,-3.213188158118995830e-03,-3.559631706196565715e-02,1.050660205834323246e-03,4.987707635059642972e-03,4.863615069789438937e-03
1.066286792665327027e-01,8.389968801373015941e-03,-9.793470139663389140e-02,-1.898761748075273315e-01,1.597797717028020537e-01,-1.973389630451813370e-02,2.710182010773012212e-02,1.898976880421645100e-02
1.287188961592593828e-01,-1.411800215666285776e-03,-1.246551283176431379e-01,1.021793602843644282e-02,-2.360583647190116902e-02,2.730171041252478308e-04,1.809800294821482802e-02,-1.124156722015239767e-03
1.287188961592593828e-01,-1.411800215666285776e-03,-1.246551283176431379e-01,1.021793602843644282e-02,-2.360583647190116902e-02,2.730171041252478308e-04,1.809800294821482802e-02,-1.124156722015239767e-03
1.075777397227524884e-01,1.213078404548563125e-02,-9.858742128241865244e-02,1.658284359715002376e-02,-2.203844835942481498e-02,2.843413435755874023e-03,-1.487097206240388901e-02,-1.253237162831768829e-03
1.208945574433137604e-01,6.525824273965974420e-03,-1.007116516656469951e-01,6.043714714409963856e-03,-1.630466749245122748e-02,1.848601328604153283e-03,-2.736759183766384468e-02,1.399858873200943675e-02
1.216528398955662310e-02,8.499172665709645025e-02,-6.166790918132416394e-02,-2.420093317712099582e-02,-3.360905718091783487e-03,1.703352910586270613e-02,-2.093665520720727063e-02,-1.563123147513178698e-02
1.236025797821565242e-01,-1.080627822323734638e-01,8.044278048923228508e-03,-6.999615643592672909e-03,-1.661857291505936668e-02,1.731362515281745836e-03,1.731225882632953308e-02,-1.322654801951144527e-03
-2.193947765840138786e-02,3.103246764715060155e-02,-5.242826885627070027e-02,8.825092320894351028e-02,3.358032382781504788e-02,6.956663645061986548e-03,-8.830299630841778602e-02,7.510091887528361557e-03
4.573480395781846786e-02,-2.959202350326070857e-03,-6.163515807024332049e-02,-1.354249423680301510e-02,6.983845685143638682e-03,-1.151691827498918606e-03,2.459565548159990678e-02,3.671604837593304797e-03
6.445710727471691548e-02,-2.369302949240679676e-02,-2.715380819957248851e-02,-1.189193406496695873e-02,9.451260974225394323e-03,-2.278116957720260037e-03,-6.834380615400871897e-03,1.128210633081129684e-02
6.445710727471691548e-02,-2.369302949240679676e-02,-2.715380819957248851e-02,-1.189193406496695873e-02,9.451260974225394323e-03,-2.278116957720260037e-03,-6.834380615400871897e-03,1.128210633081129684e-02
3.737301610543612707e-02,7.401672997367533813e-03,-4.476742980347938466e-02,-8.029247926329681137e-03,9.148143393158513631e-03,1.119888762417594209e-03,-5.079037409076217133e-03,2.273075185307444138e-03
4.451260807927500535e-02,-9.967673931559974804e-03,-2.233552785226352796e-02,-1.542258667297040711e-02,1.806522929848936379e-02,-1.565267280619498085e-03,-2.115512361370325278e-02,1.202693632935851117e-02
3.330031584904219466e-02,-9.855360462045315711e-03,-2.150713643644482781e-02,-1.345522577937085726e-02,-2.156789588227505522e-02,7.764922858363177034e-03,1.178555440422877354e-01,-1.165906168645575863e-01
3.737301610543612707e-02,7.401672997367533813e-03,-4.476742980347938466e-02,-8.029247926329681137e-03,9.148143393158513631e-03,1.119888762417594209e-03,-5.079037409076217133e-03,2.273075185307444138e-03
3.737301610543612707e-02,7.401672997367533813e-03,-4.476742980347938466e-02,-8.029247926329681137e-03,9.148143393158513631e-03,1.119888762417594209e-03,-5.079037409076217133e-03,2.273075185307444138e-03
1.028996072311685606e-01,-7.890342105483197366e-02,5.638460497546364872e-03,4.753261262128243535e-03,-1.165008235698425376e-02,6.995831594201562184e-03,-5.617553364774129261e-03,-1.318065173057360318e-02
5.354158078201842752e-02,1.757626136852811355e-02,-1.871767769084150060e-02,-2.445182018932570960e-03,1.984945456482111251e-02,-5.120343550834792999e-03,-6.368221094679546446e-02,-3.112838682354674650e-03
3.454617214510133372e-02,-1.677706862378889165e-03,-4.662594940176905886e-03,-1.247333360190754927e-04,1.922415662346294019e-02,-1.055248934501914603e-03,-1.663364603899423338e-02,-1.049010171398645670e-03
3.454617214510133372e-02,-1.677706862378889165e-03,-4.662594940176905886e-03,-1.247333360190754927e-04,1.922415662346294019e-02,-1.055248934501914603e-03,-1.663364603899423338e-02,-1.049010171398645670e-03
3.454617214510133372e-02,-1.677706862378889165e-03,-4.662594940176905886e-03,-1.247333360190754927e-04,1.922415662346294019e-02,-1.055248934501914603e-03,-1.663364603899423338e-02,-1.049010171398645670e-03
6.448997725897964717e-03,-3.902822104300737120e-03,-1.285461220168009414e-02,-3.503912828796930477e-03,1.688885332192758063e-02,-2.277291656371736422e-05,-1.418316455739840679e-02,-4.212966388393519016e-04
-2.556222273655915991e-02,1.389853643786865579e-02,9.596275177385946240e-04,-8.605700292110676964e-06,4.361264905756608024e-02,3.065291153180525708e-04,-3.059888479954092633e-02,-2.559691832782911864e-04
9.840937073536616675e-02,1.158392175381622174e-02,2.339389791330064397e-04,1.155148637961126747e-02,-6.371950706942640374e-02,-5.323556443123723166e-04,-6.386136096136496576e-02,-8.740543014169776170e-04
8.644900835442391462e-02,1.301674721988019777e-02,-8.489275808643460689e-04,4.081973424168106046e-03,-7.569449805137734577e-02,-9.579856335031285142e-03,-1.799777514674882201e-02,9.379955620592584850e-03
-1.681615912181224914e-01,1.562379726869297381e-01,-1.255710845214962068e-02,-7.907927360523564486e-03,-1.128266243697330362e-02,8.162128397330494292e-03,2.875200784797455472e-02,-4.620794044137788159e-03
-6.355227134471722050e-02,8.848479512040577366e-02,-3.582337075566913078e-04,5.542056438358607291e-03,-3.724713869093908281e-02,-8.790844912449316973e-04,1.094164803449348619e-02,-1.500402218505498923e-03
-8.285897718986268146e-02,9.508380259077468810e-02,6.610668605127332891e-03,-9.252399508775899575e-03,-2.733249143272327777e-02,-1.851434382792651202e-03,4.513284434169352599e-03,1.516273579029268556e-02
3.184436560347473494e-02,-1.948534358437860965e-04,2.444692653558229803e-02,-1.051301217395428410e-03,-4.692363791120281874e-02,2.847505087843215082e-03,7.941752265025310564e-03,-4.079723770254856802e-03
-1.297250148486871479e-01,9.916639242975945623e-02,-5.548346909062209197e-03,2.741552278602454439e-03,-3.010808316749622598e-02,-3.721003575145329870e-03,6.018904992748737304e-02,1.099420106499201730e-02
-4.390513317474856875e-02,1.732528371958247729e-02,-1.858952412194040532e-02,6.752805635981983835e-04,1.241912620387215956e-02,-3.351030961324363931e-03,6.920996122617853810e-03,5.179168680204118344e-03
-2.583484666374768340e-02,1.953798825906901543e-02,6.497333839425935113e-03,1.432493870224137936e-03,1.052791150982425750e-03,1.326427344906255801e-01,1.439612164322171808e-03,-1.331365233227834732e-01
-4.861793220729225540e-02,2.231757465497683640e-02,8.254942524487988986e-03,4.746765842824652096e-03,2.460553199571582222e-02,-1.348338265572752472e-02,1.105913252514830747e-01,-9.579124113898222770e-02
8.718049404594222992e-03,1.425170486914549171e-03,-5.072838467473554311e-03,2.902718320458473264e-02,-2.191840026617664777e-02,-4.183335152541982349e-03,-9.097105202333057722e-03,3.334174089742517749e-03
1.004276100865542434e-02,-5.386253821331255312e-03,-5.786233801488359189e-03,-4.665587587635388819e-03,-2.772879027271887668e-03,-4.521651170445314884e-04,1.045539347330919772e-02,1.076790173904217411e-03
5.112985223288664394e-02,-1.972355055070331570e-02,-6.954543017833332563e-03,-5.839013138159856488e-03,-2.193291444773407678e-02,9.719759577864575326e-03,-1.916549977933237198e-02,-9.735911929617171306e-03
-3.226678816983436643e-02,4.377578536453833637e-03,-1.102614800696609040e-02,-7.515123147391697227e-03,1.851638210790153283e-02,9.036585655448670790e-03,1.256832983837733418e-02,-3.031508742721521470e-03
-9.792076398665236492e-02,8.278576139320169280e-02,-2.877243427392827541e-03,-1.326704024445948902e-04,2.419836332132025911e-02,2.511570647612799620e-03,-1.187592530824663727e-02,-2.469871909598226820e-03
-5.150522449850258866e-02,6.815911472745697641e-02,-3.136643217732523574e-03,1.482402976012907716e-03,-2.559414658677986940e-02,1.212145828136748605e-03,7.419872856144179955e-03,1.400949462648527636e-03
6.740805884411065971e-03,-1.486180126034885272e-02,3.575123063907897220e-02,-3.895720892016572129e-04,1.108012410329517559e-03,-2.890382996767430247e-03,1.648771117110274520e-02,2.271485317206950114e-03
8.407299733866741703e-03,-9.210685860473926193e-03,3.825201925841142936e-02,-7.917756234693251998e-04,1.167670791474865674e-03,-1.356163317430326021e-03,1.783310395734557076e-03,8.610758544218818705e-04
4.991375927254436580e-03,-4.683507487932218882e-03,-9.992775981804519203e-02,-7.152405636709949872e-04,1.965568146408528153e-04,-7.797740793572984072e-04,4.970132573141426832e-04,6.077820291724171566e-04
4.991375927254436580e-03,-4.683507487932218882e-03,-9.992775981804519203e-02,-7.152405636709949872e-04,1.965568146408528153e-04,-7.797740793572984072e-04,4.970132573141426832e-04,6.077820291724171566e-04
4.991375927254436580e-03,-4.683507487932218882e-03,-9.992775981804519203e-02,-7.152405636709949872e-04,1.965568146408528153e-04,-7.797740793572984072e-04,4.970132573141426832e-04,6.077820291724171566e-04
4.991375927254436580e-03,-4.683507487932218882e-03,-9.992775981804519203e-02,-7.152405636709949872e-04,1.965568146408528153e-04,-7.797740793572984072e-04,4.970132573141426832e-04,6.077820291724171566e-04
1.031267127722341678e-02,-2.047114897863582667e-02,-3.243199733029452497e-02,-1.043387870249336616e-02,-1.954956830414059012e-03,1.460469060304292466e-01,1.345415497322838792e-02,-1.396021065461611477e-01
1.219243692253169954e-02,-1.271275628090571229e-02,-4.567883295256668086e-02,3.837706112637359916e-04,8.712320188124606998e-03,-1.154356035057474243e-02,-5.070277164435412973e-03,1.163746809574578434e-02
-2.581738212136093155e-02,-6.761690939717261706e-02,-1.791280520048923325e-02,1.217643555531165572e-01,7.786721491511374924e-03,-3.084022281315695630e-03,-3.232886533720523425e-03,4.786856605463245219e-04
-2.613378049640996403e-02,-4.891594671229244906e-02,-1.685100120541267732e-02,1.502515027961973115e-01,-6.316485501388376111e-02,-1.269200263278355903e-02,7.129873961360768883e-03,1.426889974636887234e-03
5.955537313398974637e-03,-5.782521093439557669e-02,-1.158081769423952023e-02,6.810057775258976376e-02,-9.375954935425470649e-02,1.103989361333181929e-01,-4.704619370370190408e-03,-1.119992405073449299e-01
-1.586689591247338743e-02,-6.253072160938108470e-02,-1.900072869416737087e-02,6.621557627328267248e-02,2.925982114659116812e-02,9.688252241611217206e-04,1.971609577028896401e-02,5.159971742653752039e-03
-3.169232422414154648e-02,-3.906941146294454908e-02,-1.064271662166689850e-02,7.328736455951853634e-02,4.180086062255783386e-02,3.056525620375143007e-04,-2.454272162274337074e-02,1.224936971965212736e-02
-4.732077314265402401e-02,-5.145634629942628241e-02,-6.606010021019360565e-03,7.795408589432560598e-02,2.397405118393840587e-02,5.527458664375697970e-04,2.316055714030114399e-02,6.539803630001684784e-03
7.390532730985872531e-03,-1.630446803469967620e-02,6.819361655947227870e-04,4.457475552298094390e-02,-2.115077497009754809e-02,2.311747185859955311e-03,-4.270897217351923847e-03,2.635086480015980982e-03
2.961273892255681609e-03,-1.906146021547164976e-02,2.485822520040779915e-03,2.369014065374144482e-02,-3.072296393808417875e-02,1.876563292417617393e-03,5.249050507112282618e-03,-1.046645197669889265e-03
1.127858958523494937e-02,-1.580595489686838911e-02,4.974876746028372362e-03,3.623253729288357372e-02,9.091426334643520901e-02,-5.340464199963429991e-03,-2.979697836189497320e-03,4.411191473603854989e-03
9.323502934548651144e-03,-2.075762512336847693e-02,6.521763624271493739e-03,7.220498972102246463e-03,-1.738903411733936505e-02,8.936914977970437718e-04,-1.431569283903741906e-02,1.459778103404353947e-02
4.526339080252364533e-03,-7.282593853594096847e-03,-1.162362897338100297e-02,6.731480982388929508e-03,5.408935506836074977e-03,-5.854278691044743053e-05,-2.748833577862238426e-04,1.688831501111957931e-03
-6.124361885712048884e-03,1.809738039649867996e-03,4.027900076417598001e-03,-7.075951540852845612e-03,-5.169620698125386264e-03,-1.318142950303155189e-02,1.238601803604405874e-02,1.523764753701208931e-02
4.526339080252364533e-03,-7.282593853594096847e-03,-1.162362897338100297e-02,6.731480982388929508e-03,5.408935506836074977e-03,-5.854278691044743053e-05,-2.748833577862238426e-04,1.688831501111957931e-03
-2.722404046450065899e-03,2.112649121068582107e-03,2.975672283098454354e-03,-1.193957137305099933e-02,1.569495836820256618e-01,5.089995104529168243e-03,2.423883562615075128e-03,-2.930545913462999363e-03
6.005798557476784566e-02,-1.949310411484251725e-03,3.595675408300775568e-03,-1.902638557040767578e-03,8.848203165451115279e-03,-7.826356610655131954e-03,-6.665325019542076013e-02,8.223477468579027880e-03
9.691499064165265669e-04,-2.507699334099736804e-02,-1.264222198338213476e-02,5.198389320023822854e-03,-1.343218383755069578e-02,9.533061524301104928e-03,2.511541902899116357e-02,-8.579972875823765888e-03
-6.540246821987606880e-03,5.541956103420694489e-05,3.382053013139090826e-03,4.982304264640271402e-03,-7.537821140550990222e-03,-6.869782455118802296e-04,5.899216253153018175e-03,-7.500828664558054657e-05
-5.375898549940962695e-02,1.025358701662874503e-02,5.527047526834786076e-03,-1.464603965106779301e-02,7.851257783591965994e-03,6.827192082769009684e-03,1.529251219965039321e-01,-1.194598869956498416e-01
5.498862080851309132e-04,6.850355630401303020e-03,8.517839326157223764e-03,1.150724897727884583e-01,1.298178871174079062e-02,-4.855532210976942591e-03,-1.417927333322946751e-02,7.616632232551075535e-03
2.102769867291896713e-03,6.234578624663244910e-03,8.970862056121745726e-03,5.838171008150970856e-03,1.195445953776514032e-02,-4.273073565586543265e-04,-2.640307769341153701e-02,1.297687001092354131e-02
8.415262732216025401e-03,-6.507820970154909630e-03,-1.143750482721628530e-03,1.551050376660102759e-02,-1.351421856574592552e-02,4.339449537161270756e-03,1.985547969940448451e-02,-1.211441591911197393e-02
-5.358087747165837973e-03,-3.075254955680447027e-03,2.489148499948467663e-03,1.555092211764654876e-02,2.923951524658556771e-03,2.797230520656714733e-03,1.687565744720385605e-02,-1.970030869642279414e-02
-9.731553370448571549e-03,-3.038263550747173809e-03,5.397976081981952987e-03,9.665592410596775957e-03,-1.379842839098844275e-02,-2.948856108637943826e-02,1.790400460691043971e-02,2.251098437643138730e-02
1.334425596655145277e-02,3.427212537737783782e-03,-5.250696877754839958e-04,-1.379241251902087748e-03,3.818111444811169569e-03,-2.338536001293424482e-02,-4.591991828257470550e-03,2.013274675338833780e-02
1.332629227468823396e-03,-4.008791381203885345e-04,-5.090620714591704080e-05,1.927633789847885137e-02,3.308647072360176291e-04,1.338888288921183303e-03,-7.479103368050678442e-06,-1.897277444096529030e-03
-1.797634784512948045e-02,-5.223213036513865704e-03,-2.524670765359962599e-03,-4.451553741050241590e-03,-1.098806789079820670e-02,9.723266085756156890e-03,4.054089001086599170e-02,-2.019135469807892269e-02
-5.600769941596926748e-04,-9.849436023179776716e-04,-3.405460406201835425e-04,-3.112988487162574591e-01,1.486085873061244178e-01,3.360613087717392221e-05,-2.460626605026583350e-04,4.862645474641343339e-04
3.552669742305782866e-04,-1.382810324085510106e-03,6.090536390800321918e-05,-1.331221842147083390e-01,1.495150553214568134e-01,-6.866207952450966443e-04,1.941654666654815242e-03,1.620511042025620766e-04
-6.451471146671759228e-04,2.930455041678475770e-04,-1.203590188563340765e-03,-4.674933984613864613e-02,2.681109439186691451e-02,4.553928340167327305e-04,2.400224766661986726e-04,6.514092964851028907e-03
-5.169916584580440139e-04,4.023143037140238659e-03,1.627306944600647939e-03,-4.396919519109833245e-03,1.156671541756949459e-02,5.464066565360870160e-03,-7.919637955071425471e-05,-5.457206913361599930e-03
8.874620923774549641e-03,-2.290057689638719252e-03,-8.156995490567258908e-04,2.853857585108480685e-02,2.198447547722799482e-03,3.965647291034071070e-03,-6.321815389541724992e-03,3.070881198922769881e-03
-8.408324980706043117e-02,2.422972077768360561e-03,-6.633443358341789987e-04,2.375071785480049186e-02,9.282866100235145912e-02,-1.276523574910270672e-02,-4.184720488330959283e-03,1.187020284917213002e-02
-1.425022386849114642e-02,-3.584783358085830759e-03,-1.215701641658107094e-03,1.281079514513008832e-02,-4.580388406285435324e-03,3.698195876133203441e-02,-1.651808626720805556e-02,-1.325537703352674609e-02
-1.263621046396214056e-03,-8.814654122307469600e-03,8.476077629088963478e-03,-1.447004158173503807e-03,1.313610844119647569e-02,-1.041171115093539462e-01,-1.503986664909003068e-02,1.176262953503224296e-01
6.901984206338046546e-02,6.738405587121637161e-03,1.663054194090570620e-03,-2.596520634655171550e-02,-4.989850239944955065e-03,-1.052561967705973808e-02,-5.437948271848395965e-02,1.118135422582385193e-02
-8.926373202011290975e-03,1.779580023795972795e-03,4.846517236687561099e-04,-8.772567069619180424e-03,1.036518320675756250e-01,5.461321957105158553e-02,9.723712730998267800e-03,-5.151854752505592716e-02
-7.068172262821812227e-03,-1.696597232001000434e-03,4.724174611099757858e-03,1.441327690743139656e-02,7.855347898447374161e-03,9.388232235173026713e-03,-1.545337955343562865e-02,1.110892037573322968e-03
-7.038200606763399605e-03,1.989242344437035237e-02,1.770164954357710332e-02,-2.958191064868560165e-04,3.318044942735978720e-03,-4.651811942445219575e-03,-2.231320189756957201e-02,5.318454741830987934e-04
-4.498830192696154709e-03,9.136199870653585482e-04,3.885238279519959755e-03,1.091611417121669259e-01,-1.375303015613824065e-02,1.302741460196485054e-02,-6.903439844707745521e-02,5.385349143074145972e-02
-4.766527759752750733e-04,8.689119941382144469e-04,4.785555629608354749e-05,1.711985016750151856e-01,4.603962699367347635e-04,-6.014520060092123747e-04,3.237921930309645667e-03,-1.372011435720709533e-03
1.307290583435564198e-03,-3.939686569048966337e-03,-3.364382174543423080e-03,1.383991570943877147e-01,-2.566757937189669860e-03,2.397457889228293143e-02,2.462766568857669433e-04,-3.208236768504824782e-02
1.207955520257719640e-03,1.218278392516785723e-03,1.330907082079186860e-03,2.491326258840107638e-02,2.864484966634244477e-03,3.308628932646329179e-03,-8.916470919422238989e-03,4.216818806171371628e-03
-1.161079416795626415e-02,5.329225210536081558e-03,-1.494430753796299185e-03,4.012743772098577300e-02,1.390106601673961328e-02,2.343092189007937951e-03,-2.512898689584069228e-02,4.677915194024768845e-03
2.625823640456934668e-03,-3.046824370338412774e-03,-5.342265127332495797e-04,3.042765259964584981e-02,1.149238953928307001e-02,-1.927668393203125444e-03,-1.840981636675312946e-03,2.043293379148230886e-03
1.189547223031760161e-03,-1.586487304311744563e-03,-5.658401246488743881e-03,-3.459420567553534494e-03,-1.148805550817659851e-02,6.618091994742089472e-03,-1.295260169960675859e-03,-2.337936918971135827e-03
1.247297736086671466e-02,2.183694892407509348e-03,-9.966493953465012552e-04,1.014456847124451007e-02,-8.222554808263268789e-03,-1.759369093450884047e-02,-2.488655763726887562e-05,1.481276629267333847e-02
1.172060173491715727e-02,-2.327863308880390452e-04,-1.007441452269655272e-04,7.419899079321011330e-03,-2.010379150860925473e-02,9.190270782716419840e-04,7.844099973931906254e-04,-1.582087931724250303e-03
2.248521618657461918e-03,5.514090995896392400e-03,-5.599866879304503994e-04,9.054460918037737782e-02,-9.890113659907880106e-02,-1.202877546694412075e-02,4.442194040996716442e-03,3.571769418585915633e-05
1.144384307567168461e-02,-3.598371924878059937e-03,1.209671817711291310e-03,1.753011591281280340e-02,-4.314056604614861790e-02,-8.379064585865750314e-03,-4.464786107376548727e-03,1.018034227014344428e-02
-1.352853784333981624e-01,1.443435282405958198e-02,3.726392747194838908e-04,6.593285845569422585e-03,1.308105411330145462e-01,1.896975423105274087e-03,-3.858918869238521683e-03,-2.694509346443818391e-03
1.275975012449602833e-02,1.121036856927192307e-02,1.510250298898695599e-03,4.526589940795507083e-02,-7.590783198348177718e-02,2.224348655456985860e-02,-1.601196212421598930e-02,-2.382837033866467419e-02
8.108714646393119525e-04,7.469414987343439387e-03,-6.093621579635513218e-04,-1.663406301993354455e-03,-2.211069400032544124e-02,3.698853136475667132e-04,1.103001465149655580e-02,1.020461200233996335e-03
-1.024769558261760111e-02,1.151076210512866696e-02,-8.259670622736301968e-04,-1.551108821795690353e-02,6.809327722080647446e-03,-9.209197820535553261e-03,1.114380825651978442e-02,9.701016280215515528e-03
8.006310798216110169e-04,-3.277427595465589563e-04,2.961864943475426507e-03,3.932851063365089609e-05,1.210466491312510127e-05,-1.017581385141233183e-04,-5.232573382295096749e-04,-5.280217246059514858e-05
-5.200986405760972455e-04,-3.002572005909421942e-04,8.152159671022427695e-03,-2.191275793233137936e-03,-2.329665651276305750e-03,1.315321249717649188e-02,2.403925899842459558e-03,4.766864773724538320e-04
-2.149385714671088444e-04,2.857145939302131472e-03,-8.476230514170863400e-03,8.576370513975159135e-03,-3.295150904527506443e-03,1.337593773171230366e-03,5.977113639099265741e-03,-6.497996886221707805e-03
-5.894499100601278702e-04,-1.409017689981665114e-02,5.251788416533514567e-04,1.082980428150384644e-02,-2.096303071649244579e-02,-1.054232225838838298e-03,8.253293206402284241e-04,8.748327712381247711e-04
1.290622337973144906e-01,-5.719265832915505299e-04,2.632664639872395358e-03,-1.656842090814173579e-02,1.350393502051488136e-02,-2.022297824938979697e-03,-1.310584916694228774e-01,2.285860439175534282e-03
1.688392514586906437e-03,6.327449743160301274e-03,6.056037262373630209e-04,6.476538433402774173e-03,-3.658928312029275341e-03,4.598797159507520861e-04,-1.264619749292123993e-02,-1.494268891378842685e-03
1.069879345101930031e-03,-1.518226203366285524e-03,-2.949330408906665046e-03,-3.670618056177135050e-04,-1.130708552759246768e-02,7.268293787802336710e-03,-4.146490382774749468e-03,-2.046478883586868615e-03
9.654388686422736218e-03,-1.122119729047323794e-03,9.064403212245868624e-05,1.505697680213042289e-01,-1.634929018763182640e-01,1.482046542872841616e-03,2.381146394494751861e-04,-1.424503615359623207e-03
-6.754867403964805520e-04,5.217291321996674373e-05,-4.206746348193845065e-06,1.672262245814289394e-01,-1.663901033430982557e-01,-7.655565431630434600e-05,-7.601710591907186666e-07,7.478570909248371504e-05
-5.728631810023411064e-04,-1.470721058473149247e-02,5.344356076832289205e-04,1.015859738506073341e-02,-1.913678355526182012e-02,-1.712730580860769621e-03,6.505443358002540016e-04,1.493800480876799090e-03
-2.924958482155508950e-04,7.831074778507531378e-03,-2.710678514302904195e-04,9.984443224552760898e-03,-2.544990401370724603e-02,9.579582955072669936e-03,3.227528693520340022e-03,-8.698997031591607781e-03
6.308245015937871117e-04,8.579552968955730594e-03,-3.002482073189782037e-04,-1.649854361359084920e-02,4.321921610179149664e-03,9.238322444946320874e-04,-3.702734129310104676e-04,-7.785606837470459337e-04
-4.651025788195847083e-02,2.894174153259475996e-02,5.008280398839673464e-03,-1.053196668192353698e-02,-4.744166331131411535e-03,6.608219871746641915e-04,2.263209690809109623e-02,1.534976021666707236e-03
-6.493040841566664716e-03,2.057350028775478332e-02,1.565619455327577070e-02,-1.202602051667154073e-02,-7.205327126440594192e-03,-2.894562245599139813e-03,-1.715738945325020375e-03,-3.654797323155774269e-03
-4.778590864477938113e-03,2.524806914673531025e-03,1.532522595432156192e-03,1.101712718615116722e-02,-1.001126571029530704e-03,-2.002156964771623429e-03,-9.095405398306997610e-03,1.606468435582221769e-03
-4.778590864477938113e-03,2.524806914673531025e-03,1.532522595432156192e-03,1.101712718615116722e-02,-1.001126571029530704e-03,-2.002156964771623429e-03,-9.095405398306997610e-03,1.606468435582221769e-03
-8.835631235529042490e-03,-1.217843769446378495e-03,7.884817157957678749e-03,-6.848558625142222960e-03,-3.804574677639063589e-03,9.824094659970191573e-03,1.225645701347229666e-01,-1.279200236567722693e-01
-9.563456113459871996e-05,-1.754105962921142028e-02,7.635210612414619798e-03,1.969471279929539600e-03,-1.743315510633324655e-02,-1.799669419529696624e-03,-1.492310356128116744e-02,1.743472899386187130e-02
1.123666682015881171e-02,-8.985183618425651719e-03,-1.567044444332660325e-02,9.942030564804808096e-03,-1.510021224476556546e-02,3.924370102638791505e-03,2.168410289186147033e-02,-4.927582008404894631e-03
-5.819966277468186650e-03,4.513967053726012160e-03,1.100030698609686525e-02,-1.053923212515117322e-02,1.401741153347873733e-02,-1.002593896152260966e-02,-7.091873856616604313e-03,3.638891179256128171e-03
-1.184054378130054361e-02,1.855884198515822883e-02,7.326711935856643557e-03,1.076450149994692962e-01,-9.988450822841206389e-02,-1.020467257181296127e-02,-2.954862694917289104e-02,-1.922652736587440736e-03
-2.694463387344095840e-03,1.019470090547416538e-02,-5.319664091228078033e-03,2.016529780257817102e-03,-1.151499816999409717e-02,5.353536264799316040e-03,2.736532691781548999e-03,-7.966727101442349149e-03
-2.207473077818388179e-03,5.017156156592755302e-03,-1.252047132470650651e-02,3.462659081137441086e-02,9.983483539040834132e-02,1.447313101024792770e-02,-1.718160777043723289e-02,-1.731830909479502301e-02
-8.892829439289566193e-03,1.255372572480672154e-02,-2.007447805355463272e-02,7.888923996423201704e-03,-1.530810559123979911e-02,1.112051470712598859e-03,4.856770870550628817e-03,-2.788203706976228810e-03
3.008942386143538886e-02,-6.198361719836593432e-03,-5.371020575175757504e-03,1.301377635981513722e-02,-2.290030433131608895e-02,2.184287409561474005e-02,-1.719090459567894358e-02,-1.183606390656713817e-02
1.351051787400448477e-02,-8.842645324030168688e-03,-6.460744892482238322e-03,-5.226348077517961252e-04,-5.854674400584453098e-02,-1.514083804126254429e-01,4.258668108020140231e-02,1.504215195418287798e-01
-1.476866567552044193e-02,2.109876852951086609e-02,-4.771793215860938367e-03,-1.350323392885515198e-03,-2.144713949845703307e-02,6.174845871818691878e-03,5.674714733241600223e-03,-7.963013328973112329e-03
1.676858392260164310e-01,-4.352873073053022124e-03,-2.347236861582593405e-03,-5.660750957136760457e-03,-9.333108323438113474e-02,-1.797233284868308967e-02,-5.136650559930715232e-02,1.699496065870633593e-02
2.946158142584157091e-02,3.358718777539133893e-03,-2.055592204918421255e-05,-7.114629148940836145e-03,1.867047634245964927e-02,-5.050699278203070464e-03,-4.237172743718350260e-02,4.340901396900532713e-03
1.011157872535693170e-01,-1.008840881910746598e-02,-6.333502348264648859e-04,-3.660977718720676011e-03,-5.696626289334081467e-02,-4.114863525105276823e-03,-2.897261016680206455e-02,3.434969202358299778e-03
2.262338297820810223e-02,2.932715396737652080e-03,4.316303032014263269e-04,-6.110310716334774357e-03,1.038228747359591468e-02,-5.196760237255898876e-03,-3.348412761130196286e-02,4.835285255214573363e-03
-1.686700709654612509e-02,5.018057758462519599e-03,-5.103823051006532718e-03,-4.808144986062296358e-03,2.103175587912176070e-02,-7.616264835993355464e-03,-2.486863839068047862e-03,1.669364177791040141e-02
1.438488871805551350e-01,5.158649132106959663e-04,2.752198776959188797e-03,-1.870029679361246214e-02,1.624927193013920440e-02,-2.082847942031693187e-03,-1.460749551465151397e-01,2.379328907894465335e-03
-5.676455702430645983e-02,1.430223136334537459e-01,8.393682845389471500e-03,-7.267395291477999134e-03,-6.841150649764896237e-03,6.431401682785768681e-03,-7.056471661401750306e-02,-4.273968998055851023e-03
-4.254872068073628499e-02,-1.780137194491899708e-02,1.185821090051602557e-04,1.649457753944401275e-03,1.422886416999101233e-01,2.544152362861956240e-03,-9.806069277737207435e-02,-2.806765353344928098e-03
1.797691954453235763e-01,-1.392559237202842031e-03,-7.067743392219942100e-04,-6.991422522388911383e-03,-1.111723347337637280e-01,-3.828716711038582417e-03,-5.658727745308641394e-02,4.681032378636956759e-03
5.592492926591454555e-02,-7.627406339377558464e-02,-1.137387119323066652e-02,-6.034050366766341694e-04,1.296664878048494913e-03,-2.125068508620454703e-03,2.605035797807873574e-02,1.020526331930966639e-02
5.592492926591454555e-02,-7.627406339377558464e-02,-1.137387119323066652e-02,-6.034050366766341694e-04,1.296664878048494913e-03,-2.125068508620454703e-03,2.605035797807873574e-02,1.020526331930966639e-02
1.022535177883022312e-01,-7.793340237469897902e-02,-6.290604064273318426e-03,-2.909889199555176342e-03,-1.064614658613614352e-03,4.404970491698308394e-04,-1.383450562003673591e-02,-2.147477061700198402e-03
-1.814440845667246449e-01,3.199194282706017967e-02,4.472873025959054824e-03,-2.033728548929539248e-02,-9.823175624360777625e-02,1.008304581560293955e-01,1.561345258855607043e-01,-9.333910504953260578e-02
1.305622310080598036e-02,2.432042106568632536e-03,-8.185499130466822185e-04,3.946901003925184668e-04,2.791596627690577388e-03,-2.070359062829155855e-02,-6.121989840112689041e-03,1.946446127419267091e-02
-5.265555034642136270e-03,-6.105810568259458296e-03,-5.830494445738169766e-03,6.622181651485845944e-04,2.590766406686407716e-02,1.874631772195380530e-04,1.404448049006589393e-02,5.320264035046953733e-04
-8.852298297362328969e-03,-4.175290891451947754e-03,-3.605478569005195026e-03,-1.372728667251925513e-03,-1.575117029378481914e-01,1.267972495780888761e-02,4.001281001599714046e-03,-1.171842208759401281e-02
-8.844504739089414230e-03,-1.052710518907394241e-02,5.428217404042287413e-03,-1.751339651540168713e-02,-8.118544704762453712e-02,-5.499495549458686093e-03,1.908186277364191594e-02,1.944012918744196169e-02
-3.294583168972838125e-03,1.171487714968008631e-02,1.906420290107282360e-04,1.232528620766030038e-03,2.645113876775824144e-02,-1.514425203119709219e-03,4.553974798629342909e-03,-6.109331264729818758e-03
7.288512583954158061e-03,-1.091731398845071158e-02,5.499010801856557204e-03,1.468444492982062897e-03,6.785668956821463114e-04,-2.051328201678815841e-03,-3.211253439162230303e-03,1.928911609228200607e-03
-1.465612487286130534e-03,9.428329072621371098e-05,-3.376652022949698517e-04,6.322895418181773098e-04,7.577314688855000743e-03,-1.142328828385765491e-04,-7.584257552491325757e-03,4.722252795258561692e-05
-2.791452469531146858e-03,3.365623397639033558e-03,1.530528765495918139e-02,1.102216269282599026e-01,-3.518253605459643191e-03,-8.764042415840918657e-03,-1.033870601979277604e-01,7.351607750524747839e-03
8.894092560736742772e-03,-1.596556197261629183e-03,3.452014681761960031e-03,-2.072994399537445541e-03,1.073324773127072237e-02,-1.006664202115794236e-02,-4.848882071490992485e-04,1.253686814419450492e-02
1.633748313299173902e-02,-1.006986029287111964e-02,-1.132185859528913631e-02,-1.354970831870766501e-01,-5.924395455447378431e-03,8.476657880809637322e-03,1.278348425727678372e-01,-8.324795226275501225e-03
2.278812352189513862e-02,-9.385920023144790625e-03,-1.194270118509737147e-02,1.555897132685729600e-02,1.740861588527118850e-02,8.142519658862657980e-03,-3.202384710145773222e-02,-6.604649868605148508e-03
2.273389746902980749e-02,-1.000989894748560531e-02,-1.048768116529742375e-02,1.369807245774021763e-02,7.661641888287287760e-03,-6.758092912468820386e-03,-2.950840652990813218e-02,-5.396232060570891123e-03
-5.958543078483304230e-03,-1.427853810677930796e-03,6.913586559942423151e-04,-1.334341263754323659e-01,-2.177131590909551356e-02,9.998470474432310899e-04,1.434238247033728653e-01,-2.403060250406172191e-03
-1.791680132819004762e-02,1.014093408168420182e-02,1.859511888778632557e-04,-1.531215148554702088e-01,-2.160790268618218574e-02,1.025599688537413368e-03,1.624903464776020212e-01,-2.480748440869165895e-03
-4.699872455565760367e-03,1.150110380048984839e-02,-9.271645396300740721e-03,-1.268162567019739118e-01,1.331035317340105995e-01,1.161656209660843174e-02,1.373083874923430314e-01,-1.406542519762615795e-02
-1.256213676954143557e-02,4.044539415310048278e-03,-3.031704529689818999e-03,1.681531382190769655e-02,1.032896833358545007e-02,-2.013179398035468983e-04,-1.703421836749590898e-02,7.595588433861365577e-04
6.873247130732873522e-02,1.953704545504014387e-02,-2.396931093229070445e-03,1.731672198284888234e-02,-7.287667451961535314e-02,-8.591706996703534762e-04,-2.722364683034109861e-02,1.432449615702437954e-03
-2.648443354080546458e-02,-7.362919347506910288e-03,-4.976421056409180248e-03,7.413472485513236329e-03,-2.416496450118632219e-03,-2.289212031680174213e-03,3.052232530323705645e-02,1.221087747852222030e-02
-1.249917235444015715e-02,1.371441266799047634e-03,-1.555027545705711905e-04,1.521720751094871905e-03,1.779115998868274762e-02,1.681481601908743628e-01,6.781563230926150165e-04,-1.683685418723870897e-01
-2.871641369958127365e-03,1.016445046295337898e-02,1.920645188969335743e-03,-1.527426817186396391e-01,1.417592790497081978e-01,1.811560272114907943e-02,3.386542120261991536e-03,-1.850747293014997491e-02
3.866511557890533243e-03,1.387312250356116292e-04,2.087729659058370785e-03,-1.658471723521975569e-02,3.186980623743668976e-03,-6.919352685018036360e-03,6.711125380086407737e-03,5.608355609848254125e-06
-1.408864726555613322e-03,1.307177735876138835e-02,-2.770484375403173966e-03,-2.188741874524072900e-02,2.120326660432114013e-02,6.683971287523860980e-03,4.699149695616871084e-03,-1.193068225514078498e-02
-6.847434552160101828e-03,4.584263361946264506e-03,3.723284510769422732e-03,1.520092444685021069e-02,-1.657771659998823199e-02,-1.036690028976398753e-01,-1.083761761748663205e-03,1.024614173190320637e-01
-3.974915073054484426e-04,1.032836866451474628e-02,-1.172432222019852664e-02,2.074313257312924638e-02,1.335024593138353644e-01,2.868009049608970934e-02,-2.310929663048096744e-02,-2.431390320586184622e-02
-9.123776735848753566e-03,-1.692358410019838212e-04,-2.790166584240541970e-04,2.967766133740789105e-04,1.166423852040689851e-02,9.758435031103837587e-03,2.359747190554289969e-05,-9.710020724533058312e-03
-8.876843588727012166e-03,1.301337427469739360e-03,9.179428180580003968e-04,3.737306716752770118e-03,-8.403328473552563321e-03,-1.006652709508071026e-03,1.106382378689887008e-01,-1.062049779564414181e-01
9.573226134075034279e-04,2.021881309831773305e-04,-4.694042511440227946e-05,2.487800113866410197e-05,3.449764851234583167e-04,-1.625275013599740501e-03,-5.638820215752229784e-04,1.541224678500198843e-03
9.736182047683759194e-03,4.433858573740965051e-03,-1.006167999016786656e-02,2.253634457371016253e-02,1.425235460509116647e-01,1.102510728804361947e-02,-2.064021122702600075e-02,-1.265394283724794768e-02
1.843188840512896276e-01,1.187726841115159179e-02,-2.056832562292771564e-03,2.071269695020172639e-03,-1.944501087825306895e-01,-1.050926016801737722e-02,1.035107059726352897e-02,1.027303395245327162e-02
1.654153225145902351e-01,6.299397900329540287e-04,3.608653472568255222e-03,-2.271935273805443696e-03,-1.505432899861030016e-01,8.022914196473154499e-03,-2.248081305010130732e-02,-7.393832844132650420e-03
-6.574782982307898760e-02,1.435887707472049859e-04,3.289982215169627664e-03,-3.542420874078419570e-03,8.643063932445552155e-02,1.092225720118830852e-02,-1.852199644637896048e-02,-1.019815117432721838e-02
7.210405171830455706e-02,5.776841862031090180e-03,-1.501455129697653993e-04,7.936208061514387485e-03,-8.390120271306270028e-02,1.171840237920048801e-02,-8.426884196909994323e-03,-1.189347482443049026e-02
3.441497858299451956e-02,-1.698648642511726634e-02,1.605717810973570844e-03,1.048762778477541589e-02,-4.222879276990302438e-02,-1.070893840916942912e-03,-3.322897059101586476e-02,1.387535243101358298e-02
-1.242708329229768871e-01,4.314124167626611286e-03,8.049924051159175822e-03,1.606420916670498844e-04,6.214665386995858395e-03,-9.284657790250746764e-03,1.128174547220655438e-01,8.771241439358904227e-03
-1.242708329229768871e-01,4.314124167626611286e-03,8.049924051159175822e-03,1.606420916670498844e-04,6.214665386995858395e-03,-9.284657790250746764e-03,1.128174547220655438e-01,8.771241439358904227e-03
-1.242708329229768871e-01,4.314124167626611286e-03,8.049924051159175822e-03,1.606420916670498844e-04,6.214665386995858395e-03,-9.284657790250746764e-03,1.128174547220655438e-01,8.771241439358904227e-03
-1.468154127994245328e-01,1.801489491605685195e-02,8.661933054185963141e-03,4.408514804039394622e-03,2.378847434542540051e-02,-1.154815590289210055e-02,1.100010396835931353e-01,1.239090403199877115e-02
6.821636749212075905e-03,-6.988699844242649006e-03,-4.852082479330909782e-03,1.173153709691352907e-03,-1.554526649368385754e-03,3.314208237927106638e-04,1.127042834851977888e-03,-8.567995197370614335e-04
-1.335070278483765915e-02,-5.770057826658439928e-03,-1.191588683465746607e-03,1.010657946004875352e-02,9.644522996523965941e-02,5.378126763688465678e-02,1.194263485702749990e-02,-5.227459937948204793e-02
-3.523946618641608883e-03,-2.086967005103365549e-04,4.601012082292779823e-04,-4.169121014370642288e-04,1.340891450626028811e-02,2.153801719073730140e-03,2.561345207357343563e-03,-2.714051045589476515e-03
5.632975125895983010e-03,7.592166859496003468e-04,1.949949916514539042e-03,-1.677031394361782127e-02,8.747371747439390208e-03,2.024045294560547752e-03,-8.916388127691805832e-02,7.348415679531647426e-02
-5.998057605705297548e-04,-1.798346776077215008e-03,-2.938844243527941220e-03,8.770227710032335675e-04,4.927970908603169359e-02,-1.672739200116568070e-01,7.049560423167660489e-04,-9.255393729500200044e-04
-4.910408732270299739e-03,-1.804058095961202576e-02,1.407651840918531854e-03,9.219802314286890815e-03,4.632062452644911403e-04,8.251079749258980953e-04,2.213185814171716049e-03,-1.044679161886350642e-03
-1.854574132738118566e-03,-1.030383365935147585e-03,1.677776867041044827e-03,-5.581011040744341583e-04,-1.075934395411932629e-02,9.097123845616906992e-05,3.530588089111640787e-04,7.522402044872478211e-04
1.148467413039696433e-02,-9.982305947606739949e-04,-8.468532707103482507e-03,9.245368129690751963e-04,-2.746184260635928459e-04,1.675277812871824729e-03,3.451141672259755151e-04,-1.699131462602141264e-03
-8.963073562672154316e-04,9.250598720108440393e-03,-1.925331674585829920e-04,-1.120137776040022216e-02,1.337853194515041533e-02,-1.320610894169545538e-02,4.222716525788095627e-04,1.259490355537334037e-02
-1.192283432300137412e-02,-1.668889228334250602e-03,8.006212586456739472e-03,4.300059743490113398e-03,1.033087735613388153e-03,-2.296492509826398784e-03,6.197811477470166822e-03,3.314418545317498153e-03
3.424181880059629004e-03,1.332675099695765364e-02,2.783827973411731431e-03,-2.300971663900694755e-02,1.404885717156612555e-02,6.294099159455778924e-04,-5.934721876687349892e-03,6.233063865660194193e-03
1.212569923024681487e-02,2.602879441641536493e-03,-1.867876572128859131e-03,-6.631364087771117466e-03,-1.097891640203312036e-01,1.085165655278501617e-01,-1.684552046125079028e-02,-9.862311048054442364e-02
-3.590633755545391011e-05,8.577372366196910080e-05,-2.508669331754351064e-06,1.516574441547444141e-02,-1.631596261255212343e-02,3.911286025225472628e-05,-9.497025113121396233e-05,-1.437315711546372032e-05
-4.631409044534949039e-03,4.363348516085944345e-03,1.228537783652879382e-03,5.282490430501785190e-03,-7.132150920227261007e-03,-1.161515215123850968e-02,-3.576773481855776847e-04,1.355375157134202854e-02
1.154214162749868725e-02,-6.400474860621587631e-04,-2.757027874122032571e-03,-1.108503102611824035e-03,-2.224937807847883714e-04,-3.748398911802618767e-04,1.086215837371216604e-03,-3.092859801819503257e-04
-1.853968892120632511e-02,1.678914811104966973e-02,9.094463483259616898e-03,-2.713858899184671582e-03,1.188487497469779483e-02,1.412084960087381640e-03,2.012810253487488672e-03,-6.534976807908265961e-03
2.216852552983134689e-02,-3.504728637606111061e-03,-3.801666927806464672e-04,4.584475348902909697e-02,-1.574190062888205233e-01,1.113474174128822741e-01,-1.862270616368065859e-02,-1.053187491825232219e-01
1.655139716198522973e-02,6.051240945033823163e-03,8.015705584756199547e-04,-1.071215624251141765e-02,-1.332249674969219755e-01,1.349034624418517514e-01,-1.440338651618384459e-02,-1.367904777903998781e-01
-2.042629011180441788e-03,-1.495309068390180372e-02,2.098988546847642346e-04,2.129371404008597105e-02,-1.105422941480042019e-02,9.282440982522198458e-03,8.585410408472991459e-03,-1.075951797436982757e-02
-1.645982916527696446e-02,-8.128012733024592845e-03,-1.434684835316004867e-02,7.276969201569975874e-04,-7.927045292382950067e-03,1.407106446746710093e-01,3.409863836634822315e-02,-1.418720253985155666e-01
-2.976137570926231431e-03,-7.825260011295281232e-03,8.442415231309861878e-03,-4.966182029004364423e-03,-1.175455031760638258e-01,4.812977860594694866e-03,1.786799295170708735e-02,-5.517109636646309531e-03
-1.231018349445680681e-03,6.421006110858886243e-03,6.623500999342598955e-04,3.121490117949189333e-02,-1.786415082597249751e-02,-3.560474524226574147e-03,-1.808664157080571572e-02,2.138907984975597833e-03
1.067403903982024624e-03,1.284064199681984875e-02,1.102071065706299762e-04,1.357729468581481969e-01,-1.302932151234696134e-01,-1.659358625126298309e-02,-1.486796741353875462e-02,2.295956729111030270e-03
7.144349898820635467e-03,-5.861547009143082063e-03,-7.484971891558908879e-05,2.749547002916040775e-02,-2.382612720048722307e-02,-6.894742604200712610e-03,-1.848068643171072844e-03,1.193920683425209878e-03
7.613832359414055007e-03,-4.884338433985876970e-03,4.666515890399069999e-03,3.201449197541038350e-02,-4.069323991778518723e-02,-8.558823138779257308e-03,4.019404287820793099e-03,-3.867321207804023941e-03
-3.191179107208479224e-03,6.332763886594715763e-04,1.116765571643275255e-04,9.738004128901044110e-03,1.477530357517078605e-02,-1.176086181511098658e-02,-7.926018880193739027e-03,2.001593910429841361e-02
2.029675227194169176e-03,-1.912921843761430886e-03,-2.975187104584609867e-03,2.094014026148278799e-03,-2.327439212957847087e-02,1.870462837091096259e-02,-5.202870153310752178e-03,-1.127782195018011205e-02
3.657176509602104810e-04,2.414777118394893611e-03,-1.756623015079605225e-03,-1.722942154733077963e-02,-8.131176962996384400e-03,2.360506898056875108e-02,-1.075763802917875656e-02,-2.153969077033316207e-02
-1.663957576233958315e-03,4.327698962156324713e-03,1.218564089505004642e-03,-1.932343557347906277e-02,1.514321516658207953e-02,4.900440609657792830e-03,-5.554767875868002643e-03,-1.026186882015304655e-02
-1.119882019295901678e-02,-1.387879698407041250e-03,7.272000260618206521e-03,1.202576120595011226e-02,-9.361661059971475990e-03,2.007753915394770543e-03,1.297025845135079715e-02,-2.564085278533431798e-03
-1.119882019295901678e-02,-1.387879698407041250e-03,7.272000260618206521e-03,1.202576120595011226e-02,-9.361661059971475990e-03,2.007753915394770543e-03,1.297025845135079715e-02,-2.564085278533431798e-03
2.865454267744574259e-03,2.550505129362867773e-02,-4.800434448642574496e-04,-2.542152864503873302e-02,1.480936298641134276e-02,1.434946688352633452e-03,8.703576001797306422e-03,-8.657560214318695945e-04
1.330608357027579514e-02,-6.601381145004326170e-03,-2.706897389352915136e-03,1.687049597978213661e-02,2.882204745011589068e-03,-7.699301041125324475e-04,-2.221320010060708408e-02,1.851644068514550099e-03
1.330608357027579514e-02,-6.601381145004326170e-03,-2.706897389352915136e-03,1.687049597978213661e-02,2.882204745011589068e-03,-7.699301041125324475e-04,-2.221320010060708408e-02,1.851644068514550099e-03
-1.146616093928664974e-02,1.082487435141052737e-02,-4.348914009303741536e-04,-2.065460341536216275e-03,1.725108654536384230e-03,6.914614665904342435e-04,2.631656803376443508e-03,-7.606030831988137191e-04
-1.146616093928664974e-02,1.082487435141052737e-02,-4.348914009303741536e-04,-2.065460341536216275e-03,1.725108654536384230e-03,6.914614665904342435e-04,2.631656803376443508e-03,-7.606030831988137191e-04
-2.271959747388616405e-02,9.752433635786546262e-03,7.020660584365280739e-03,-1.160303394778195276e-03,5.730709274426743979e-03,-8.473647210362252741e-04,8.802065202457977008e-03,1.879954232479304991e-03
-4.885056735785984691e-04,1.223719848342254106e-02,-4.436314963541172535e-04,-8.669737992887385433e-03,2.117550521193690971e-02,1.581638219469995357e-03,-2.008248894213141705e-03,-5.638669189504036177e-04
