0.000000000000000000e+00,0.000000000000000000e+00,0.000000000000000000e+00,0.000000000000000000e+00,0.000000000000000000e+00,0.000000000000000000e+00,0.000000000000000000e+00,1.000000000000000000e+00
8.510253306310039401e-02,1.319989832354299675e-01,-2.605008339122508957e-03,2.634762512035833046e-02,-8.308492852089083974e-03,1.064933954117113814e-02,-5.241871149949260678e-02,-1.845959360665826443e-01
-4.723593976513089376e-02,2.493222496529180765e-01,-1.442314383999764547e-02,-2.015117672069967336e-02,-2.282599222753506629e-01,-6.281858312192677499e-03,1.367073626203315073e-01,-5.789957497012625243e-02
8.255410177740646338e-02,1.061186887892514585e-01,-1.808205527917438812e-02,-2.199271524785481255e-02,7.695895686302120509e-02,-7.419406152199428672e-02,4.818145660958646562e-03,-1.385306868947316361e-01
4.057431261631584685e-02,8.214144694561988091e-02,1.509558368927578498e-01,9.854209221368093186e-03,-6.825257965512507297e-02,-1.948987347584686669e-02,-1.312899233493507456e-01,-5.213236328452343360e-02
6.826048618418809055e-02,8.905491269801869836e-02,-7.601364449988390337e-02,8.008644144732280723e-04,-1.540909207302362458e-02,3.549029330568867491e-02,5.229505444323882118e-02,-2.111451402579742620e-01
-4.350158580893547233e-01,2.600699054275799615e-01,-5.785924771196147148e-02,-3.874957206914080433e-04,2.157559457532642055e-01,-3.448027583888019741e-03,6.040630935321012439e-03,-2.017704999929617604e-02
-9.173874015375219071e-02,1.155102737536537749e-01,1.713099799418847935e-01,8.268670108677213595e-03,-9.434398408823663207e-02,2.440950990933408310e-02,6.222118929096230600e-02,-9.574278050498166714e-02
-7.512329045409092687e-02,3.438810422281362578e-01,3.720666976511399771e-01,3.695294404086876122e-02,-2.172957757029576192e-02,-1.369746265999849943e-01,-4.604550310497265708e-02,-6.589497721545314879e-02
1.272427502747315586e-02,5.416281319821444201e-02,1.780825316457972374e-01,-9.118821642728490440e-02,1.397511240837384372e-01,3.636957262513959566e-02,-5.709279363416747133e-02,-1.190012577076579869e-01
-1.063865522310470102e-01,1.688744891080826149e-01,1.423232417692707197e-01,9.573755330542051828e-03,-3.251700360638152404e-02,1.579132725732067602e-02,5.303815952203976003e-02,-1.068184032982882892e-01
-2.128478485728732550e-02,5.710454057184764787e-02,-4.671309839078635617e-02,-1.533228541899247024e-03,-2.908837861667904617e-02,-1.698274844593489902e-02,8.461561429814893134e-03,-4.262490022457805783e-02
-1.591075538740251843e-02,5.861673685211558210e-02,1.193107605421791367e-02,-4.522059665806187068e-02,-3.979105612757523466e-04,-2.631687613534241382e-02,9.868549937495098810e-04,1.201748433050807072e-02
-4.890415984009397789e-03,3.938530721086595798e-02,-3.950979704966088579e-02,4.487476702790731652e-03,-2.713199314533683987e-02,-4.465148770149925117e-03,9.372346102828077799e-03,-5.144013142977067743e-02
2.963624796431511485e-02,-2.267412785593461363e-02,-2.948234106267114824e-02,-5.556833940327941812e-02,-6.099654526247020279e-03,3.605237342655173184e-03,5.284755332918526088e-02,-4.912435529068666373e-02
-1.692704133419513091e-01,2.483682222564099484e-01,4.466678733888584246e-02,2.915532419003256763e-03,-5.327506101085270618e-02,-1.304233309100015850e-02,1.549391937315537648e-02,-5.192953834426715376e-02
-2.095367309637916411e-02,3.390081238814482423e-02,-2.649273300644475887e-02,5.042854297882465309e-02,1.314331531064090453e-01,2.642177842323872872e-02,-3.674441750403092954e-02,-7.752255439679353599e-02
3.151090981558339610e-02,8.102801161949960140e-02,-1.029341476905601543e-01,-3.691396142007372094e-02,5.139015117472446603e-02,-2.223387750564391821e-02,-2.832785562854939210e-02,-1.282918668421173178e-02
-1.227695947566107004e-02,-3.556956818042313756e-02,1.905755181696029699e-01,1.430234299698695567e-02,1.171484376981075590e-02,-3.247551152293984972e-02,-2.036466240518318982e-01,5.347048770756528124e-02
-3.197132714173523543e-02,-3.812617017616294623e-02,1.821322202946854818e-01,8.976713312763827737e-03,-3.522389110175186411e-02,1.889391245209753878e-01,-1.500559301310223637e-01,-1.709769282996735640e-01
3.572689156348328454e-02,-3.404121681834955393e-02,2.126621928847589049e-01,-4.795841240282103235e-02,5.100318248966954904e-02,-2.641642680374055654e-02,-2.267361629495445730e-01,4.393983394747642823e-02
-1.322111598995557094e-02,2.454058035026168358e-02,-1.213335248637636976e-02,-8.721232348491135891e-03,1.136251943056371984e-02,7.406355298332230330e-03,-5.805537525382205126e-03,-3.938837387937416286e-03
-2.738808646260392221e-01,3.317478551510599227e-01,-7.087399892014535630e-02,-1.340407907606109075e-02,1.810451805398313740e-02,-5.298494188567910712e-02,-1.158133776307279476e-02,9.380304168116606472e-03
-1.906585575001252530e-01,2.024327605496683558e-01,4.967697349640019105e-02,3.551491432225382158e-03,7.349467994186983932e-02,1.927606797150607440e-02,-5.796222640675071508e-02,-1.502686263598258798e-02
-2.383303137677874051e-01,2.260017366872653088e-01,7.389674752519484469e-02,-7.355558195533897989e-03,-1.136818452918299249e-02,4.163842281237553275e-03,2.073022808240863879e-02,-2.072262895464548928e-03
-4.510382670950419809e-02,3.789189003863807637e-02,2.975345754201074236e-02,9.477521750907369957e-04,-7.872602996682104282e-03,-2.475455315870158171e-02,-3.779344010401515519e-02,8.316859316219624154e-02
3.516150806625815972e-02,-1.996565142499708290e-01,1.176266096167940395e-02,-3.253285608938875223e-02,-3.132187634343177041e-01,5.240836757543982857e-03,4.636252167849282957e-01,1.225595298043626567e-02
2.814137221988903190e-02,-2.599498969572288654e-01,-7.524105822789083076e-03,-2.864511033202186583e-04,2.117639501393102711e-02,-8.108839139512033500e-03,2.273372269427061387e-01,4.550660687562225679e-03
1.226087905453122906e-01,-1.739754387526890392e-02,5.459203945051858096e-03,-1.956268576205944312e-02,-4.846857371139485365e-02,1.483869883551133806e-02,1.385426170365343379e-01,-2.178744529880894398e-01
1.348031288650331505e-01,-1.902288704309885309e-02,5.361907874797247620e-03,-3.844046618344522381e-02,-2.678027374808434821e-02,-3.048547233005440438e-03,-7.303639023313016065e-02,2.653161454358003019e-02
1.348031288650331505e-01,-1.902288704309885309e-02,5.361907874797247620e-03,-3.844046618344522381e-02,-2.678027374808434821e-02,-3.048547233005440438e-03,-7.303639023313016065e-02,2.653161454358003019e-02
1.348031288650331505e-01,-1.902288704309885309e-02,5.361907874797247620e-03,-3.844046618344522381e-02,-2.678027374808434821e-02,-3.048547233005440438e-03,-7.303639023313016065e-02,2.653161454358003019e-02
1.340562124383298248e-01,-2.608544612393882273e-02,-2.165223956890441684e-02,-1.779337383463807515e-02,-5.434186405864682712e-02,-9.228391766195800233e-03,-1.984367244828295559e-02,2.513246145932582221e-02
1.348031288650331505e-01,-1.902288704309885309e-02,5.361907874797247620e-03,-3.844046618344522381e-02,-2.678027374808434821e-02,-3.048547233005440438e-03,-7.303639023313016065e-02,2.653161454358003019e-02
9.051158535900973023e-02,-2.206913003749006938e-02,7.618562877693570330e-03,-2.678505205752404472e-02,-1.657260846835921161e-02,-1.929194788556961096e-02,-6.174938891150551917e-02,5.525635818243693903e-02
4.302635368292041795e-02,-2.900141650751767441e-01,-5.066196014328142733e-02,2.891375796053469727e-01,3.766125984199083371e-02,3.675072849066073760e-02,-6.724740401953881175e-02,-3.001293118905062202e-02
9.216737467760033331e-02,-6.326137210421763253e-03,6.938476367541611574e-03,2.935567847594870196e-03,-1.138215701710383748e-01,5.405022736869047328e-04,-4.704726751147882829e-02,2.238463571054475493e-02
-2.753640365031344989e-02,-2.227304619102520380e-02,-6.858557972627910221e-04,-1.379170944409872576e-02,7.883406617317644405e-04,2.316050501216381508e-01,-9.257771993882923933e-02,-4.925258441460887704e-02
-3.404139097619284654e-02,-5.479529770409370670e-02,-5.006059928920466792e-03,6.545131712763122001e-03,-8.083140130243565008e-03,2.329518384080765114e-01,-5.723350472674439138e-02,-5.528966845661575924e-02
-1.933933449009296590e-02,-5.460371980062082159e-02,-3.395827725358521645e-03,-2.024526053122026673e-02,-3.035645419237529424e-02,-7.279755502337095785e-02,-5.112170209987031144e-02,2.493038381701661310e-01
2.064083715100387476e-02,-1.091748882218399191e-01,-9.571134077497990902e-03,1.770519196714297749e-01,-1.517276698190684892e-01,1.353881184618961897e-01,-1.465683432700500555e-01,2.497597809878295341e-03
-2.311203023901703055e-02,1.566049400284428850e-01,1.732042894912875497e-01,2.884982992676406871e-02,-1.547908005165454792e-02,-1.406853900073824215e-01,-4.329503308439382192e-02,6.117627173314902495e-02
-2.311203023901703055e-02,1.566049400284428850e-01,1.732042894912875497e-01,2.884982992676406871e-02,-1.547908005165454792e-02,-1.406853900073824215e-01,-4.329503308439382192e-02,6.117627173314902495e-02
-3.075067350179396322e-02,1.229598742064733630e-01,1.517362957704556647e-01,2.853970064207376686e-02,-6.172607777974668808e-02,-1.167726742980411264e-01,-2.278396803500507689e-02,1.948068993803159232e-02
-1.678603675560690761e-02,-7.192643454225060859e-04,-6.209845171685325106e-03,6.422225387933062912e-02,-1.060340533837264010e-01,1.727049056552621125e-03,7.306310240604592561e-03,-3.342050807787115552e-02
3.723369712552500321e-02,-6.478958541407957294e-02,1.271819980841770725e-02,-5.408353786865881252e-02,2.416972803384052904e-02,-8.315430573853814034e-04,2.205115950259380758e-02,5.095938609003326444e-03
-2.643700248563841254e-02,2.554926312683469813e-02,4.887677330310451901e-02,-1.524541279501282279e-02,1.538292032155532882e-02,-1.498155812420025323e-02,-4.903516575813078593e-02,4.300909780187215509e-02
-8.898303027409230903e-02,1.064932778485176285e-01,1.952593686935003015e-01,2.437869398270034460e-02,1.319311775935957725e-03,-9.101024567960379341e-03,-1.038724230569982275e-02,-5.745400753922795187e-03
2.263856534987092241e-03,4.066882432213315274e-02,1.435070339630631700e-02,1.537226880753813328e-02,1.671173637640407938e-02,-1.406948948948647318e-02,-3.549130595518397435e-02,-1.924659107108218914e-02
1.783281787272864710e-02,2.725520802234261339e-02,-2.907875948773098150e-03,-3.975212329031928282e-02,-9.661110599228502419e-03,-6.734235749728980161e-03,-1.265585490113175539e-02,1.068073782342987901e-02
3.991337167973853933e-02,-3.616854812908902594e-02,-8.059775272781651012e-02,2.826415755402304081e-02,-1.102854819372566008e-03,-2.285140192339748903e-03,1.211943692089197250e-01,-3.441090878177983925e-02
6.800070701022883912e-03,-1.001133873349504266e-01,1.815581082599924123e-01,6.013205855624777219e-02,-8.584741667037341928e-02,-1.957829553808348479e-03,-6.017262069054215429e-02,-2.997690520861193142e-02
4.883236070283189859e-03,-6.864237896437849762e-02,-8.607985730840453376e-02,6.782271487860466741e-02,-3.730810613551659161e-02,1.166310383172453405e-02,-6.464956055435164273e-03,2.848440439811301614e-02
-2.714876059589790315e-03,3.788198347006507122e-02,1.752996804168956840e-02,-3.215873747569399921e-01,1.192039278560846731e-02,-7.373313571288574002e-03,3.259244308558242875e-01,-7.065841344339312061e-03
4.358246146552489930e-02,-5.577140942714644417e-02,2.050307534814069937e-02,1.110133388785796704e-01,-1.601504339816622602e-01,-2.103159737850254785e-02,6.207447176713858095e-02,6.598584248562957763e-03
-1.685450515933189786e-01,1.619790354434406110e-01,4.521685449935799322e-02,-2.647523924612312646e-02,-1.465191667091732611e-02,4.780590618569250869e-03,2.074375993581607010e-03,3.951393591737677180e-02
5.319450002776426531e-03,-5.637279184395861675e-02,-8.041580840674020236e-02,-7.198585098461329768e-02,2.368399017282910024e-01,3.131136124608017296e-02,2.217075808715529561e-02,4.254423199999972545e-03
-2.673006715742880929e-02,1.668344012381191566e-01,-8.984218420564918373e-02,1.482531291535046057e-02,-4.014574262146605038e-02,2.489170931613723242e-02,6.267506558834105845e-02,3.215532932923266529e-02
-6.206167166741547586e-02,9.921260995875259836e-02,5.957711977885432608e-02,-2.131511605356025546e-02,-7.302586670496982735e-02,4.782688868089259721e-02,1.128896469854786949e-01,-8.896852632959210971e-02
4.460352062125040595e-02,-1.693041478844028395e-03,7.791554915797400949e-02,-1.918875379581375107e-02,2.962790194797324667e-02,-1.348398626921933421e-02,-2.983160592249616341e-02,-2.016022896256289797e-03
1.360778277713747819e-01,-6.022101649548056157e-02,1.542424776942228661e-02,4.477937619407592468e-02,9.100004021817648114e-02,4.772026017350647462e-04,-1.167373847011054788e-01,-1.859632626937938321e-02
5.389391092450394188e-02,2.605317556341286284e-02,2.006168266464868847e-03,-2.017055526170001903e-02,2.860005117719946477e-02,3.834163918131115213e-03,-2.131790925909674613e-03,-1.798697916768875887e-02
-1.659816470467960769e-01,2.428949877338532626e-01,2.997988831706691754e-02,1.596316550775137011e-02,-2.944001461547986372e-03,4.303034101062487224e-03,-6.542953064083356467e-03,-3.163064360441408124e-02
3.490030109511278733e-02,1.269876027537207054e-02,6.988369281882469974e-02,1.817092320885745418e-02,-7.083296355300953973e-02,2.495113515192739356e-02,6.615284810273121090e-03,-1.615994234529201726e-02
-8.439113312823339971e-03,-3.426864890907518890e-02,-4.285086205002140713e-02,-1.050457862576519540e-02,-1.054046941085720612e-02,5.539181218679781887e-02,3.755527053915067026e-02,-7.871224092476763676e-03
-9.655139329749740096e-02,2.583521976715527080e-01,4.656106595666816006e-02,-2.194095037919098490e-02,4.182833186995797703e-02,9.263274918477282238e-03,5.345845231528265767e-02,-2.111494707033300181e-02
3.251539582386258065e-01,1.755148522850620285e-01,1.513688680467279238e-02,-1.510515539122847008e-02,-1.650632923259156837e-01,1.787642129319812895e-02,-1.223296873690361553e-01,-1.229599930406560966e-02
-1.966636304039099357e-03,-9.347920843725800177e-02,-1.617601495988903182e-02,4.515663751095806699e-02,-3.722535330192847658e-01,-2.776246151587230537e-01,1.921499481250757424e-01,2.777776444924115462e-01
9.742583014430789001e-02,-1.521678034279663749e-01,-3.460712920585634622e-02,-1.714465055294020143e-02,-2.374101250027101651e-01,6.901366313637008476e-02,2.535013027430838561e-01,-6.916372342855055255e-02
7.221306777393494969e-02,-9.362068694562701576e-02,-8.888778012125732667e-03,-1.836661387115662986e-02,-1.352367820905982232e-01,1.079545327644547241e-02,1.411722811647415088e-01,-4.212748341372986316e-02
1.271212883983799044e-02,-3.762234572897545093e-02,1.144701435992554785e-02,1.005676733455182215e-01,-4.890554208284349919e-02,1.498563599232375088e-01,-8.218787125092429091e-02,-1.428435016523550982e-01
2.842568464107476586e-02,-5.076334749429077531e-02,-3.610566173773100025e-03,2.016819708734478578e-01,-1.210997991869040141e-01,-1.306792326156786532e-01,-8.591404648995315529e-02,8.483091624766253558e-02
2.631196525611133319e-03,-4.324809850433687652e-02,-2.823179991415068410e-02,2.134020192017150597e-01,-3.166812811259736571e-02,-4.047367690399594070e-02,-8.582120283050183318e-02,2.562161288309139362e-02
-4.282723772382120500e-03,-2.237592790976892371e-02,1.545860874500048186e-02,6.502607926844958253e-02,-3.715777547069941400e-02,4.446179294796660797e-03,-7.478667006336138512e-02,1.754571195599060815e-02
-2.676489739012074404e-02,-4.737080680146420891e-02,-1.274982444807644909e-02,5.511414322986944031e-02,-1.049736024385886091e-02,1.871706496020444878e-03,4.689034607287577774e-03,1.738106293811724282e-02
1.086064530687577828e-01,-4.546373964475181051e-02,-3.366608646272763877e-02,6.080969150651849807e-03,-1.249800609428536741e-01,1.352745569209204968e-01,4.672609188865302354e-02,-1.270055778222524689e-01
-9.666473562781354584e-03,-3.265245179093453215e-02,9.487298943627259576e-03,1.931112240795520435e-02,-1.254267946826448724e-02,3.463688712823370566e-03,-2.711683539555452896e-02,2.517250337688657288e-02
-3.703727256170579515e-03,-2.091412359162968942e-02,9.498790264562493452e-03,1.373892650890612133e-01,-1.440717414416222419e-01,-3.813095748545193564e-02,-3.339462252977050405e-03,2.352111767523253766e-02
-5.235867371263610431e-02,-1.201714060635945130e-02,7.584409386763797493e-03,3.876605027774145951e-01,-5.842668027045135742e-02,6.772521756266830506e-03,-3.346436309129640629e-01,1.328990257371608606e-02
2.204625982875018861e-02,-2.279319049477486134e-02,-8.138549484707737619e-03,2.323701211835619007e-01,-1.456375736197888515e-01,6.195430418874713595e-03,-7.586240099512366053e-02,-3.299978673698834852e-02
-8.244799478796502323e-02,4.523202154025650346e-02,-2.032583172981568612e-02,1.036774261535438474e-01,3.072587021762874376e-02,3.913201839071996091e-02,-9.397874171683134881e-02,-3.923336911332264004e-02
-2.485672052903063409e-02,2.715887451276966513e-01,-3.994819586323942670e-03,-2.088457015040577347e-01,2.452944195779203640e-01,8.722355542688742247e-03,-1.855795114102266538e-02,-6.626991457843360925e-03
-2.316225643850747251e-02,2.277453858918300766e-01,-3.474168980464169190e-03,-1.818404882803594524e-01,1.999660009365037960e-01,-8.395125384764046822e-04,7.370288409549285991e-03,-3.320502631572701258e-02
1.048587358411623149e-01,2.154082537546435638e-01,-1.136151025532482553e-02,-1.723131947544344622e-01,1.547008825226911521e-01,-9.963068701923187814e-04,-6.449803692496981766e-02,-1.413867004983344021e-02
1.416276650723360953e-01,-9.376522399360771864e-03,4.031839890085073264e-02,-7.518003908093066900e-02,7.347115086932090589e-02,-2.826157348544199727e-03,-1.765168835077076115e-01,-1.321244865833651541e-02
4.066296735513625499e-02,-3.779746827766511386e-02,5.055325898098707305e-02,-1.360014549167231322e-02,2.060347072616919989e-03,1.115623522448601877e-02,-2.316970901343126318e-02,-1.328528231828153897e-02
-2.787957527669785926e-02,-3.446377465633478077e-02,1.838405777998036728e-02,1.286198934707634411e-01,-1.190432119176578762e-01,-1.139927701548185644e-02,-1.735628162955240444e-02,2.253126404541863984e-02
4.888736623915231061e-02,-3.674887686045236884e-02,1.847244245652933815e-03,-1.778446626001103231e-02,1.630036969364035554e-02,1.832308036812744373e-02,3.157064993905658173e-02,-4.887117061355557290e-02
-5.921228622995950569e-03,-3.362773524505165978e-01,2.386761538612794664e-01,8.303589749664652686e-02,-2.861413761797183541e-01,1.347504599218617887e-03,2.343004921571225502e-02,5.425210623162367816e-03
4.540110303875881381e-02,-2.448860080954779195e-01,2.439758744710388005e-01,1.298934671373406548e-02,-2.535909605130560740e-01,-1.804341681611923431e-02,-7.050808406207806356e-02,1.654648468092284261e-02
-1.966828519867273167e-02,7.677770715928373957e-02,-4.913786930496932825e-02,2.254265979249599205e-02,-2.071831038251052970e-01,-1.577538285561310566e-02,2.147810652553754918e-01,1.326580628209662188e-03
-2.547487543705312385e-02,2.404817374748435127e-02,-4.650081461609332362e-02,2.875253635382910011e-02,-2.578524088477967061e-02,2.209994543990610738e-02,-5.675820443900760071e-02,6.262265995751532810e-02
1.352024288547080087e-02,-3.431487504021937807e-02,-6.908767904897826495e-02,1.926176552398675343e-02,-8.539425824238033522e-03,4.035980088975352209e-02,9.147474091533461249e-02,-3.794337966100078813e-02
6.272424130371753725e-02,-7.201987858189647096e-02,4.222438567862566230e-03,-1.814943478211350492e-02,-5.355458928937638363e-02,8.396931365893429977e-03,4.704545953331074754e-02,7.927632749726000461e-03
2.768034902924757998e-02,-6.086242868652384785e-02,2.871711859274383993e-02,-2.065350615884286450e-02,-1.052462638459350092e-01,5.603948097394508346e-03,2.067718316582032104e-02,9.350377243936057112e-03
6.549977177551732921e-02,6.631536417818256930e-03,-5.932443382419134992e-02,-4.688852732063986117e-01,4.475901208916523433e-01,-2.949067136653159976e-02,7.681163704771123979e-02,7.117942555286628677e-03
1.825309694772083713e-01,6.757643050277253524e-03,-1.688473918366846238e-01,8.934411340908060550e-02,-1.294277375257349427e-01,6.085601764171827757e-03,2.453376062071165736e-02,-1.529606597048499030e-02
1.825309694772083713e-01,6.757643050277253524e-03,-1.688473918366846238e-01,8.934411340908060550e-02,-1.294277375257349427e-01,6.085601764171827757e-03,2.453376062071165736e-02,-1.529606597048499030e-02
1.637401097445493892e-01,8.254717618874980734e-03,-1.198112135694123365e-01,6.618890907202126805e-02,-9.600898289080653236e-02,8.430447544664076628e-03,-3.855242966244745023e-02,-6.053933827521959868e-03
1.793251065127663968e-01,7.501306536257114355e-03,-1.274823709250971493e-01,3.965324953173665623e-02,-8.081895333416502791e-02,1.307595812680770186e-02,-5.896534778559568007e-02,2.824073633294201663e-02
3.505544968605011497e-02,8.362522366503027937e-02,-1.038312060901378509e-01,-3.421277320524342136e-02,-4.158511973649126753e-02,2.232981377185871280e-02,5.056940810012598448e-04,1.332279016956233741e-02
1.377779616344119717e-01,-1.208006701512682468e-01,2.478199660981376951e-02,9.911847068373556488e-03,-6.609629521404982236e-03,8.181765436197406885e-03,3.452111273252411044e-02,-6.464573529541756125e-02
1.720276827759334437e-02,1.535987336577452136e-02,-8.148230218884341958e-02,7.086445932929096025e-02,5.692760958315251640e-02,8.512842792503447914e-03,-7.520081687865218245e-02,9.913012151924079779e-03
1.043887457988506018e-01,-3.432768845840696633e-03,-1.386694284627402463e-01,-2.643305543321352105e-02,-1.283735672738025050e-03,-7.020612882787015223e-03,6.546901177674460670e-02,9.888089609949204939e-03
9.456929627752438949e-02,-4.550912587103758677e-02,-1.158777471969384999e-02,-1.921665631185854109e-02,2.449845120070915858e-02,-1.604653282681286347e-02,-8.940832660565232190e-04,-3.918020226187755514e-03
9.456929627752438949e-02,-4.550912587103758677e-02,-1.158777471969384999e-02,-1.921665631185854109e-02,2.449845120070915858e-02,-1.604653282681286347e-02,-8.940832660565232190e-04,-3.918020226187755514e-03
1.051356622255539275e-01,3.629790234999254357e-03,-1.116552810190385714e-01,-4.708014778202066625e-02,2.627785463782445624e-02,-8.407683495966515250e-04,1.227629399189737909e-02,1.128724269420340945e-02
7.096132009011736630e-02,-1.760655025108135568e-02,-2.483216158197152496e-02,-4.435624657416224054e-02,5.706754737430842772e-02,-1.644731643166136639e-02,-3.760108282162606674e-02,2.472904817783632900e-02
4.338716984330642790e-02,-9.630037942892272218e-03,-2.694093566614240085e-02,-3.108450358281614201e-02,-7.546140780856863683e-02,9.888783383014991546e-02,1.639568511980259991e-01,-1.670768483626383083e-01
1.051356622255539275e-01,3.629790234999254357e-03,-1.116552810190385714e-01,-4.708014778202066625e-02,2.627785463782445624e-02,-8.407683495966515250e-04,1.227629399189737909e-02,1.128724269420340945e-02
1.051356622255539275e-01,3.629790234999254357e-03,-1.116552810190385714e-01,-4.708014778202066625e-02,2.627785463782445624e-02,-8.407683495966515250e-04,1.227629399189737909e-02,1.128724269420340945e-02
1.478152683643687570e-01,-8.599189402817156158e-02,-2.411323683799371231e-02,-1.171704674631985493e-02,1.992411001838370263e-02,3.167976015673821394e-02,9.028209944263379874e-03,-7.921753848259580066e-02
6.450706893297816769e-02,3.539557114020994155e-02,-6.924476191996782604e-02,-2.478874773430404105e-02,4.714279815053050438e-02,-1.034243824048398973e-03,-4.702554415598252102e-02,-4.410782460145581604e-03
8.424142919007901464e-02,7.020272689146527315e-03,-3.986727966115764105e-02,-9.338638131491333247e-03,6.542289080388799527e-02,-1.375416468817669980e-03,-3.494921220905960330e-02,-1.859435949733486554e-02
8.424142919007901464e-02,7.020272689146527315e-03,-3.986727966115764105e-02,-9.338638131491333247e-03,6.542289080388799527e-02,-1.375416468817669980e-03,-3.494921220905960330e-02,-1.859435949733486554e-02
8.424142919007901464e-02,7.020272689146527315e-03,-3.986727966115764105e-02,-9.338638131491333247e-03,6.542289080388799527e-02,-1.375416468817669980e-03,-3.494921220905960330e-02,-1.859435949733486554e-02
6.145661024164782160e-02,3.529877247100702588e-03,-5.616262404810518083e-02,-1.753959802760507447e-02,8.134700639371020281e-02,7.523699562649909314e-03,-3.942837146066929116e-02,-2.940670557360370446e-02
-7.712835082396038433e-02,4.106736060163222735e-02,1.354004940000557984e-04,-1.350565910414239625e-03,1.262816566612600666e-01,3.529026571920901908e-03,-8.092125398141680748e-02,-4.200047269745575858e-03
1.322898989939222392e-01,3.761658997512655478e-02,-1.864652544197845053e-03,2.761314279911902814e-02,-4.668731702889940272e-02,-6.502745443238212505e-03,-1.507333407736353992e-01,-1.240965509409185791e-02
8.496123166442479113e-02,3.941645362694134319e-02,-9.871745873070336317e-05,1.591719868426729259e-02,-4.588498324308976084e-02,-1.971558185253398029e-02,-7.441004726291917948e-02,1.668542835236417124e-02
-1.601727939590428529e-01,1.864897775448272621e-01,-2.773277503581026912e-02,-1.998411453743457328e-02,-6.966797580845313087e-02,1.204182805245530841e-02,4.464583095293726822e-02,1.861369526121193704e-02
-2.379660083942648427e-02,1.098949769460367126e-01,-3.508752144634801062e-03,2.676341522001016854e-02,-7.338582795048081975e-02,-1.482843141152256948e-03,-2.154924391329334984e-02,-9.644801742143729439e-04
-8.017460069618606577e-02,1.235556126430840396e-01,1.231396263777498681e-02,-2.724672391897147578e-02,-5.785574576312225992e-02,-3.630732252190855235e-03,-3.924565825929702753e-03,4.526299015642874790e-02
6.230305675607446941e-02,1.613639716751574110e-02,4.975923322340471133e-02,-8.938197670868307243e-03,-5.795097885497224599e-02,9.920365887751400602e-03,7.710219743207314194e-03,-6.012124127390744421e-02
-1.901299867874400029e-01,1.249776528932687869e-01,-7.730001591399566704e-03,1.578756482412526502e-02,-6.968776795809110414e-02,-1.647897839110787355e-02,1.191768168437427333e-01,3.800238268961043941e-02
-1.118647801750850823e-01,3.596864927001049150e-02,-4.156959777768453462e-02,2.745656934698233274e-03,-4.136130042809083029e-02,-2.014955359294870463e-02,1.210172825706269835e-02,1.120096780845135642e-01
-3.696448826615057748e-02,3.346708658907496942e-02,9.552102248929380396e-03,9.500586420675402599e-03,-4.801438831970439303e-02,2.003462701805752422e-01,2.230383214508279907e-02,-1.932472854048393751e-01
-8.638839013592394811e-02,4.629277530024267923e-02,1.141263147562430677e-02,3.005236542379895529e-02,4.040694061833413619e-02,-5.423105224904248983e-02,1.293167705855904070e-01,-7.863777674999784806e-02
4.795849172708532143e-02,3.644821948938372670e-03,-2.372272998705721170e-02,4.795810175229166250e-02,-2.610023247067968372e-02,-2.655322785139962311e-02,-7.872786317980832310e-03,9.018022278139945641e-03
4.807642922642275940e-02,-1.865566322746762748e-02,-2.476429960475154055e-02,-1.684434956024866842e-02,8.272391192478727867e-03,-2.212512861199911164e-04,3.786242976438818769e-02,-3.147990043580679680e-03
1.715880676218948797e-01,-6.370494664207584923e-02,-2.234788243270508304e-02,-5.101448785209848624e-02,-2.983430285903663701e-02,1.524058819642631901e-02,-5.283483401589066097e-02,-3.291357575583874623e-02
4.778303810322584444e-02,-6.489212070862336590e-02,-1.803047743256234320e-02,-2.272877732723959862e-02,6.898104538305804834e-03,1.554421532146111826e-02,3.012197261066461990e-02,6.721464678358571483e-03
-8.754025111146644667e-02,7.274748928483283639e-02,-2.435110957821568639e-02,-4.619861280524052705e-02,3.269183711000662323e-02,7.854195696841799121e-03,-1.205723244877319154e-02,4.960099189415885512e-02
-1.267656545637615984e-01,1.654622687406953618e-01,-1.047533131897359845e-02,-2.306531127796358684e-03,5.190669938607208635e-03,4.381009193724662125e-03,7.778266925299530399e-03,-4.621534686809770920e-02
7.861204162638061113e-03,-3.216757045679020932e-02,6.539363123472169415e-02,-4.311712276367596006e-03,1.341991053862556273e-02,-1.006625680633750110e-02,5.706030366624439271e-02,-1.099376197331539129e-02
2.038256507620122768e-02,-1.785721094191684150e-02,7.923931512886804585e-02,-5.770232558652252201e-03,1.039293752903257262e-02,-4.789751202884580741e-03,8.883285597568058717e-03,-6.431369772320452531e-03
1.849733700751846847e-03,2.807534904011758231e-03,-1.401222474754446612e-01,-2.498632622543690406e-03,1.176863841469603629e-03,-2.807726330812862752e-03,3.818117876859762096e-03,-3.883970256495295099e-03
1.849733700751846847e-03,2.807534904011758231e-03,-1.401222474754446612e-01,-2.498632622543690406e-03,1.176863841469603629e-03,-2.807726330812862752e-03,3.818117876859762096e-03,-3.883970256495295099e-03
1.849733700751846847e-03,2.807534904011758231e-03,-1.401222474754446612e-01,-2.498632622543690406e-03,1.176863841469603629e-03,-2.807726330812862752e-03,3.818117876859762096e-03,-3.883970256495295099e-03
1.849733700751846847e-03,2.807534904011758231e-03,-1.401222474754446612e-01,-2.498632622543690406e-03,1.176863841469603629e-03,-2.807726330812862752e-03,3.818117876859762096e-03,-3.883970256495295099e-03
4.129459015439158887e-02,-6.194781652243232239e-02,-7.885870769508529499e-02,-2.175118783710113315e-02,-1.769341877209278102e-02,2.442586946657645530e-01,2.215521322979417326e-02,-2.147501835927914660e-01
5.584125425798941444e-02,-5.162727939544407146e-02,-1.318195549797522848e-01,-3.605629772529732845e-03,1.415041032152171419e-02,-4.247811333807129108e-02,-7.440822466246698949e-03,4.686415969565885936e-02
-5.802048855071708505e-02,-3.884911691575335807e-02,-6.548273198089707425e-02,1.539305987493896910e-01,3.238197343749163459e-02,-2.351112001657557071e-02,4.734672128080609152e-03,3.838515168197428017e-03
-6.919904500759914423e-02,-1.246470227806751457e-02,-5.013215887015372990e-02,1.167731248467832605e-01,1.669816209877030650e-03,-4.325066354196595297e-02,9.570225314639760339e-03,1.106923377300053808e-02
1.827233792501414128e-02,-3.129653339231479314e-02,-3.491603103350955639e-02,6.113584724686180888e-02,-1.202295338718288586e-01,1.418703226757989655e-01,-3.628515701372080765e-03,-1.527081770333908461e-01
-3.039110490624373842e-02,-4.764261604552132157e-02,-5.733903243967895108e-02,4.307648236594859015e-02,6.117828843033921993e-02,1.246411425333591484e-02,6.513154221462200133e-02,-9.015161072016121199e-03
-5.841163735876116203e-02,1.383237032698183839e-03,-4.100191241877565451e-02,9.272699624575223010e-02,9.899398381262555779e-02,3.730421786467721934e-03,-8.356878474470740004e-02,2.738695543273184096e-02
-7.615001988601600991e-02,-3.865017416832870756e-02,-5.666416482343555883e-02,1.272626198693185273e-01,-9.877398938616817857e-04,1.185281648248787470e-02,5.062172294604953826e-02,8.258597581701736592e-03
-1.056321011842013477e-02,-1.504502256726987786e-01,3.313581256854811197e-02,1.977119447097423488e-01,-2.030983455772256419e-01,7.039429159598681318e-03,4.928446647304660783e-02,2.017454351417046626e-02
1.497841636975755231e-02,-4.974914904664082260e-02,-2.002214299293217804e-03,1.945927081990213581e-01,-1.317509640065529231e-01,7.015900835099888808e-03,-1.974933480758458287e-02,1.862521999001134866e-03
1.870555545142172163e-03,-7.498672527590169445e-02,8.104117132327394793e-03,7.866866847818394792e-02,-8.177786829626389198e-02,7.179502131161389841e-03,6.853795714827135184e-03,-8.351044671122263841e-03
1.331252708846534030e-02,-4.464662591195937835e-02,1.398212177443578820e-02,7.580057279971877393e-02,1.280706688220407952e-01,-6.259487834003757975e-04,-2.285293267993692562e-02,-1.756713753446934641e-03
9.756970020920232786e-03,-7.391478308859383839e-02,8.214164989155205154e-03,2.033467583596391612e-02,-2.839479340381690503e-02,7.970138428847254458e-03,-2.194635153141733658e-02,3.308784602126446650e-02
2.386616108225190006e-02,-5.336227545383492865e-02,-3.545129717379149475e-02,5.454331318577149146e-02,-1.052940781221108242e-02,3.336290785539731355e-03,-6.298078429972857155e-03,7.414482023984422972e-03
-1.609246310458807214e-02,7.080431443177407844e-03,1.886044364829567860e-02,-1.205705965318400706e-02,-1.525633407374140868e-02,-4.144585326377733803e-02,1.531821289119606432e-02,4.781729426456973048e-02
2.386616108225190006e-02,-5.336227545383492865e-02,-3.545129717379149475e-02,5.454331318577149146e-02,-1.052940781221108242e-02,3.336290785539731355e-03,-6.298078429972857155e-03,7.414482023984422972e-03
-2.943386921461830109e-03,1.066586315253689916e-02,1.580636156430311953e-02,-1.669449051160586811e-02,2.700774326589436836e-01,4.831515925948028957e-03,2.747559288533199615e-03,-3.056503181895930954e-02
4.337748476280123971e-02,2.585163157850899475e-04,2.090544458259922800e-02,5.483274845265484129e-03,1.583476790986472135e-02,-1.833251847963918851e-02,-7.623160252778460322e-02,1.225893233807293613e-02
-3.390099334745063416e-03,-4.762293041079020128e-02,-1.892642849519719089e-02,2.023860090333484338e-02,-7.510915125833704520e-02,7.138913060394866394e-02,5.051044629353478033e-02,-1.206612216602028810e-02
-5.801126056973977818e-03,-5.280732882988973392e-05,1.376905925205560398e-02,9.486057433632669178e-02,-1.121017485944742348e-01,-8.870207506021882127e-03,-1.657404833390907148e-02,8.884415355918806254e-03
-1.117755402753522614e-01,2.748171816498485784e-02,1.708985458737959096e-02,-4.667945190647608544e-02,3.520581223782325020e-02,3.426650853545065625e-03,2.295256146221776594e-01,-1.727546203460581797e-01
7.740812754903281072e-03,2.580937448707799550e-02,1.663454509722173819e-02,1.808351039291007933e-01,9.540489550658134629e-03,-3.033286216928026205e-02,-5.006868424841220966e-02,4.618445118514444975e-02
1.262914569077812008e-02,2.200206350548417761e-02,1.804456462918745813e-02,2.912047882415226899e-02,4.058466519562459185e-02,1.197380806864453869e-02,-7.457244712265596875e-02,3.150798040595922250e-02
3.297264505551385227e-02,-7.098561408466605785e-03,-1.480716553866923482e-02,2.348535194148591576e-01,-2.429102735732707186e-01,2.112698050895538485e-02,1.713913395597275319e-02,-2.513153357056589071e-02
-6.380371020657221726e-03,9.879712767914437463e-04,-1.804525457834056656e-03,2.286299560038154155e-01,-1.855438958066897848e-01,1.572400269538715492e-02,-1.003571226319962054e-02,-3.167502963469452648e-02
-2.343131589396003217e-02,-1.758986164392146306e-03,9.427985929926354508e-03,1.414664134488906322e-01,-1.658587713698001509e-01,-1.094713775658545940e-01,-1.343091338477173189e-03,1.103529459616358482e-01
5.557919519905836492e-02,7.277620706300673599e-03,-5.447158660466957722e-03,5.771803407417861603e-02,-7.095881031644719894e-02,-7.424523501704309580e-02,-1.350371055695633038e-02,6.144930517282143345e-02
1.628388113169413828e-02,-3.184294449987977275e-03,-3.119896377995269240e-03,1.292820154258752241e-01,-4.105626426941834384e-02,1.505893420548286635e-02,-1.717362415598940387e-02,-1.130089775742757971e-02
-1.283738657485432311e-01,1.232161353431087542e-02,-7.540357389618755797e-03,3.869151350736264872e-02,-9.322385907347739697e-02,1.899109298335392368e-02,1.645954440422353338e-01,-4.033750734482692557e-02
-6.971155599388904542e-03,-4.917611643211663303e-03,-3.590618273433713453e-03,-4.740731628442878542e-01,1.864657549763567568e-01,-2.221410969213869369e-03,3.346124581386416240e-03,3.298139148517621657e-03
-3.834251177405044540e-03,-6.006244599454103536e-03,1.320348111491636829e-04,-1.239715489018216460e-01,1.915684290915864729e-01,-6.217145359444920319e-03,1.336038371386307974e-02,2.832616604389364984e-03
-9.284419042990018148e-03,8.374381243473347572e-03,-4.087282326200937163e-03,-1.112176339772582567e-01,5.450231543721765354e-02,3.508606565245755201e-03,-8.370375506469721408e-03,1.213287540628051574e-02
-3.007713923727853289e-03,2.208163919013185136e-02,1.018209105869526815e-02,-2.034943106389110884e-02,2.965921908159002696e-02,3.754195809569888659e-02,1.214607264951120431e-03,-3.762984253425534498e-02
1.517224668143788389e-02,-8.277505870038559532e-03,-5.882727079282732210e-03,6.685247561709391217e-02,5.619835912345107556e-03,2.202270596355367788e-02,-6.207194920433521147e-03,-1.040900921758516288e-03
-5.347878694476900646e-02,6.081457179425328943e-03,-4.488943812890699644e-03,4.157586824692573180e-02,1.008352599121854071e-01,-1.957347150252903428e-02,-2.087565552478142655e-02,-1.966137506176118994e-03
-1.559334837852154043e-02,-2.171945634800161867e-02,-6.223316217542509618e-03,3.578256506299912210e-02,-2.862140156383740502e-02,1.092479048463478319e-01,-3.306219866796437923e-02,-5.788451073968866462e-02
-6.032337231622066608e-03,-2.237824825909702151e-02,1.761766133994586286e-02,-7.976356919101704884e-03,3.619678632116282713e-02,-1.178530292174357619e-01,-3.805668847922263898e-02,1.568003556816915389e-01
7.668047945677398947e-02,2.191043096521827493e-02,1.399148005962297034e-02,-5.660142766110709545e-02,-3.874524060250043866e-02,-3.330464603899455089e-02,-2.960753592775853746e-02,3.730498391944236936e-02
-1.343661182585640691e-02,1.801558463943829513e-03,4.510176355384270912e-03,-1.407759179622697712e-02,1.023480799301495769e-01,1.578261087703283494e-01,1.714566871246406971e-02,-1.423253433293912018e-01
-6.156917392042452787e-03,-2.113958951970442909e-02,2.599005999753007962e-03,5.212216791907557656e-02,-3.489948055636275803e-02,1.581517876370059500e-02,-8.526062214626135838e-02,9.433201834916693507e-02
-1.447068729340315364e-02,1.134513178952805887e-02,-6.712557338230631943e-03,6.409861453751074245e-02,-1.380071431911882862e-01,-1.758829074486347246e-02,7.969886756191034427e-02,1.289000310373167833e-02
-4.653708024606181999e-03,2.027775692046406703e-02,3.287841931335461210e-02,4.974535076206717567e-03,1.594909972688268382e-02,1.115049427428313998e-02,-6.453978771854346208e-02,-3.085979579317035294e-03
-1.346428240662557972e-02,1.702937394346339724e-03,1.523785205775685971e-02,1.577875851053245626e-01,-7.265313762616835980e-02,3.401049269944497744e-02,-4.124641284814644510e-02,6.976484815748478993e-03
-4.006702980945991109e-03,7.546084706372344075e-03,4.640521982031981657e-04,2.986798396292793534e-01,6.348852419352893003e-03,-7.994402935338471017e-03,1.849099591510812435e-02,-2.299223166248301996e-03
1.017214971674460823e-02,-2.349911453493898697e-02,-1.798425468512305364e-02,1.925807471296973605e-01,-3.905866644852224595e-03,8.136872938234926411e-02,2.643555044223369014e-03,-9.381950107399016081e-02
7.174230305477109944e-03,8.737549926774966502e-03,6.599215168672942222e-03,3.468734144853503204e-02,4.326076949439319058e-02,1.829870554259933196e-02,-1.542332570927315571e-02,-1.149346119148624348e-02
-1.312947678123175047e-02,7.126761959858582060e-03,-1.754992537008845084e-03,7.068207482044810974e-02,5.432891999682095546e-02,1.070980195238388846e-02,-4.474282841978845238e-02,-4.580450509529678665e-03
8.265149229023513108e-03,-1.918749848141577258e-02,9.608111538817818830e-04,1.453967969592865062e-01,8.036452728822701327e-03,-5.060975651992057067e-02,-2.683307808552199379e-03,6.805102120241750090e-03
4.853642369228447322e-03,-5.631727177527828809e-03,-1.971036780970134711e-02,-1.065440449242916789e-02,-4.448170862376325807e-02,6.072752446226929376e-03,5.830524075213868243e-03,1.891900232448059894e-03
3.916467186688229324e-02,3.592635320275344712e-03,-5.067250686218162728e-03,1.318694996641623339e-02,-2.379784784736257292e-02,-4.473691755498232503e-02,1.260626891028704096e-03,2.980070196468459498e-02
3.301952918987287322e-02,-4.880100058826870521e-03,-6.669750295025781860e-05,1.785940296759538914e-02,-5.159096244653071928e-02,3.123502877604010953e-03,5.419705500129665468e-03,-6.875536414761261594e-03
4.798554043703500034e-03,9.314258993387119698e-03,1.320794512414715774e-04,8.323625793729884370e-02,-9.322103026547820526e-02,-3.461671844837958811e-02,2.039271325018440079e-02,-1.546144412400992426e-03
2.038871970431949815e-02,-1.096498347795270886e-03,-1.309762352788914523e-03,-3.971823350633086995e-03,-8.250824168850987017e-02,-6.876826897718585178e-03,8.466130713323355775e-03,1.207966308605460878e-02
-1.816961664844466973e-01,4.378940305217975115e-02,4.345592059176310237e-03,9.763048859007732866e-03,1.914839358013348258e-01,6.455359939080869414e-03,-2.318055999643475404e-02,-8.962780872207792154e-03
1.884417070744027339e-02,9.426957707323897068e-03,1.687481931995470780e-02,1.070199847394083664e-01,-1.553273534310473381e-01,5.747529751345271942e-02,-1.365585249958395364e-02,-9.132480009439084001e-02
2.763268153717398333e-03,1.577211651052869493e-02,-6.316329309615809420e-03,-5.713427075018454211e-03,-2.501598502028973270e-02,2.021433720102422740e-02,2.431378096239450795e-02,-1.577948988990419618e-02
-6.943227724328602905e-03,1.544616441911349225e-02,-3.546575061911875961e-03,-5.963847037346232949e-02,6.342616677412094006e-02,-2.174843498151452295e-02,1.365031828121761846e-02,2.322498702382912519e-02
4.256518878784280521e-03,-1.477020470022962721e-03,1.392503448747836083e-02,1.986553502059873553e-03,-1.184379431190984988e-03,-1.023396850052603595e-03,-2.852933214908062905e-03,-2.016037617418815764e-03
-3.425931252135761603e-03,-3.652547833482650214e-04,1.787414056331732698e-02,-1.040694848520143725e-02,-8.077185519729083302e-03,1.391465626373487342e-02,6.958310198625018879e-03,1.315724104340931268e-02
7.728408473811052871e-04,7.924934946079974576e-03,-1.729736238524290370e-02,2.294956656838116962e-02,-1.765934060024292387e-02,5.109274168856874250e-03,1.854131497938620639e-03,-7.264449424736958358e-03
1.630241331823480740e-03,-3.607957494983428381e-02,3.280822653608798565e-04,2.180423611670223930e-02,-3.670731646802915388e-02,-8.467301403988857986e-03,2.138930599341845595e-02,-2.149151125298041573e-02
1.517218487169631480e-01,2.482492219867598292e-03,9.320546413657480531e-03,-3.553348092578804962e-02,2.744062590761978115e-02,-7.005835748735360358e-03,-1.540810896531347729e-01,-1.981640311266258218e-03
4.424483397945595635e-03,7.708116526293708366e-03,5.288692839913676155e-03,3.991883060240903475e-02,-2.141482679861933872e-02,7.701033596446626387e-04,-4.007461629013027438e-02,-6.541594675939461923e-03
6.025212718909899769e-03,-6.131407769533461435e-03,-7.747208029775317847e-03,5.931120252074807871e-03,-4.145656162955639601e-02,9.443591412305614441e-03,-8.950358174035210126e-03,2.849593273992972282e-04
2.074190088238172039e-02,-6.904383856266968836e-03,3.769667970301434452e-04,2.509436639074985598e-01,-2.869621759476170264e-01,8.669694011208530990e-03,6.237786461545303217e-03,-9.936166783365098232e-03
-4.273054188411973611e-03,9.113308512169205353e-04,-4.745859273205938318e-05,3.109911040279669803e-01,-3.046740336819359629e-01,-1.309517854086521401e-03,-6.833435319580619029e-04,1.547760097696832633e-03
1.728579843996060159e-03,-3.998641650435993261e-02,9.142934813168088334e-04,1.271186362007470719e-02,-2.365669103642669552e-02,-1.660051459531335788e-02,2.108606404450353092e-02,-1.493542412961213449e-02
-1.157343837854545639e-03,2.060083262571781385e-02,-4.464314561970775946e-03,5.115744467547343743e-02,-7.040981998134435149e-02,4.169901680656788734e-02,1.565378064037756299e-03,-3.012692992455747593e-02
4.483506061059803214e-04,1.259409608638086507e-02,-6.901217434946912976e-04,-4.923212968047596672e-02,1.560840633728813841e-02,5.142419717719516267e-03,-4.892916547023286886e-04,-6.850220561509763129e-04
-9.619343168560232082e-02,5.135558633658859895e-02,3.826370141620990487e-03,-4.251241480809274387e-02,6.799698888299783410e-03,-8.660289055357331183e-04,6.745075338439879276e-02,-2.144898348930899374e-04
1.251631454134052857e-02,3.030754046295723939e-02,3.159958629702486893e-02,-1.552022624420801820e-02,-2.619042189862389944e-02,1.506826671844376745e-03,-5.538612172987259982e-03,-4.510364121335831006e-02
-1.849155612843891502e-02,7.750684296111400029e-03,5.454970023151239564e-03,3.128082470681326638e-02,-3.692807918706762782e-03,-1.007926149847168835e-02,-1.514217647889785912e-02,3.123676728497220374e-04
-1.849155612843891502e-02,7.750684296111400029e-03,5.454970023151239564e-03,3.128082470681326638e-02,-3.692807918706762782e-03,-1.007926149847168835e-02,-1.514217647889785912e-02,3.123676728497220374e-04
-1.614711771086618092e-02,-4.693552427030141423e-03,1.444816953814032946e-02,-1.016599110715099390e-02,-6.411060823030397199e-04,1.869775789796229021e-02,1.812726166482044321e-01,-2.022684183124964785e-01
-2.258315300622109993e-03,-5.016225483072665053e-02,1.487152407374548770e-02,-2.038558304838587309e-03,-2.428122476040909042e-02,-8.751356251719633050e-03,-4.378151070888161925e-03,1.555961436128913689e-02
2.373668297284430018e-02,-1.423904431408595274e-02,-5.396287171609452649e-02,-1.147949398711350065e-02,-2.108208624531778159e-03,1.372178852837555030e-02,6.088545521905484870e-02,-3.372145107899311711e-02
-1.072174179659605509e-03,2.266321997436834476e-03,3.016499083917793464e-02,-4.264602969572868496e-02,3.773212160429345596e-02,-2.704831548212344172e-02,-1.774671679697248719e-02,2.351566502851393584e-02
-1.192747472233343826e-02,3.487069716627919785e-02,1.311413551786633214e-02,1.332349996803885439e-01,-1.236762271243692507e-01,-4.859334105385185870e-02,-6.284393303765177519e-02,-7.328351622762680276e-03
-1.743470300715679877e-02,1.473142952908193873e-02,-3.211399091072941921e-03,6.454443125588490808e-03,-5.173041896460576355e-02,9.127821346632489577e-03,-3.806968969514620826e-02,6.190366076101778969e-02
-1.454054724217043390e-02,-2.597213658501911285e-02,-1.720837327273819217e-02,1.134796590913153824e-01,-2.610131554194171713e-02,3.105192346539370485e-02,-1.361703812147014581e-01,1.957056350930073407e-01
-2.042219860057288214e-02,4.815008254234916935e-03,-5.366394564281307122e-02,-5.543677594063023926e-03,-6.726850680994385379e-03,-1.029195521615512351e-02,3.689240783977103949e-02,-3.186956001076359825e-03
6.729707785494046246e-02,-2.639403369996505891e-02,-4.790609366575899336e-03,2.593161113104099427e-02,-4.424314820732261344e-02,4.126542861050426503e-02,-7.570406295706338766e-03,-6.615805498833091103e-02
3.038077685550621965e-02,-3.815484127611020598e-02,-8.263179924830527101e-03,-1.500131763323371038e-02,-1.340545086937361685e-01,-2.787850129883920891e-01,1.152013323809440576e-01,2.755842240487982320e-01
-2.743361693298509291e-02,3.063953791105620758e-02,-1.602877671751601774e-03,2.820285837854148540e-03,-3.284847054567017338e-02,1.126161857173451318e-02,1.143684978859401714e-02,-3.727960770137855179e-02
1.988457613774294030e-01,-1.046196900800016108e-02,-3.059630916631058632e-03,-1.576615427871166930e-02,-1.069059135800584787e-01,-4.035368037002336900e-02,-2.612878266780893632e-02,3.096941094580643594e-02
-5.149911960805719779e-03,5.511859693879131265e-03,2.544389474997493360e-03,-2.015603715287001690e-02,5.506218899769985825e-02,-8.674880443048458428e-03,-2.941730516666706333e-02,1.800543976004864320e-03
2.167732194305619087e-01,-3.231909534278198937e-02,-9.335262857623795318e-04,6.980468441983956685e-04,-1.649429594444266067e-01,-4.485738625627014135e-03,-9.958259763718814439e-03,-3.713625962206822811e-03
-1.525399660826253292e-02,3.321087956974908082e-03,2.077271152771845413e-03,8.311673375767958741e-03,6.451654704803947218e-03,2.526710383993185927e-02,-1.502304085282822610e-02,1.384859622077104502e-02
-1.190580774432048045e-01,6.150043492036719964e-04,-3.148701286291347243e-03,-6.165519938310036821e-03,6.427736068373843259e-02,-2.071261475251995679e-02,6.337768688154524210e-02,3.667758572835935066e-02
2.045935368312286617e-01,1.027098117347588144e-02,1.069761918158101954e-02,-4.896696371537746784e-02,4.278819009085743641e-02,-7.212061689148516544e-03,-2.121010261416279852e-01,3.307367591686995699e-03
-2.854727365268636130e-02,2.185960124629477419e-01,7.569040023114714973e-03,-1.826957896616498295e-02,-2.912299859731658919e-02,1.313536245843846019e-02,-1.357448230032623770e-01,-9.268457011008968821e-03
-7.395374868068736729e-02,-6.102027518496368902e-02,-3.134580678545556640e-03,4.428891018406780344e-03,2.218923430660452722e-01,-6.446992713475300889e-03,-1.149820873500668056e-01,2.734114242337001757e-03
2.930059409492086209e-01,-1.548969603043036901e-02,-5.691249678132696485e-03,-1.711922545725359096e-02,-1.604590213318095593e-01,-1.086095403637420131e-02,-8.877909050429896864e-02,1.115643091491966624e-02
4.006572754440175521e-02,-5.055305254633783024e-02,-1.305798327035478934e-02,4.077863772460234813e-03,-1.273088486905532904e-02,-8.436600790523284682e-03,3.905938730547623555e-02,2.712304751636735595e-02
4.006572754440175521e-02,-5.055305254633783024e-02,-1.305798327035478934e-02,4.077863772460234813e-03,-1.273088486905532904e-02,-8.436600790523284682e-03,3.905938730547623555e-02,2.712304751636735595e-02
1.539738930268008676e-01,-4.565619720166231438e-02,-7.364892509065956543e-03,-9.912653442099749607e-03,-2.194605655509391726e-02,3.601133518948221920e-03,-5.373560474273610110e-02,-7.753994235987167472e-03
-2.845996352054400713e-01,5.168045836248184866e-02,1.553307199628842228e-02,-6.291650262465099674e-02,-1.030523419583142114e-01,1.294016255545084593e-01,2.467717127423570689e-01,-1.071787943805149884e-01
4.113893916066130307e-02,-7.273389225678929650e-04,-4.277228993135656285e-03,-6.613202764683316984e-03,6.196864366145042949e-03,-5.342319270372971468e-02,3.012599732893019629e-03,4.342115796649539949e-02
-1.412133198088981120e-02,-3.878102810293345033e-03,-1.909831971455488997e-02,-3.743926424199518245e-03,9.750306660236782164e-02,-4.323193228904853753e-03,1.987490392753174517e-02,6.159759297488459975e-03
-2.145428664146444703e-02,2.221830629864875260e-03,-1.381927324945743905e-02,-7.743544282452814384e-03,-2.863785666513412598e-01,3.662875063056458130e-02,-8.883736929345941932e-03,-3.337585192236560555e-02
-2.111378761640248999e-02,-6.329765782301159834e-03,-4.252201478249264567e-03,-2.549514670772783445e-02,-1.965126068730751463e-01,1.953365936758687249e-01,9.365304308606967748e-03,6.411927180086063327e-02
-3.352746987355257648e-03,4.874199620961464606e-03,2.326162234407551203e-03,4.132697403047850410e-02,2.630833042256561227e-02,-5.694687603926852637e-02,-3.082856577607256000e-04,1.160522541667715311e-02
8.621679468734388691e-04,-2.772131658268566640e-02,2.438680338492827532e-02,9.341699147052398219e-03,4.764819991043545838e-03,-2.938414688332288607e-03,-3.412851589271262594e-03,3.414870521603846458e-03
-1.583795682525269977e-02,2.144355484791097589e-03,9.353779184931299007e-03,-9.210483608079235180e-04,1.944143637095724700e-02,5.725929237886446047e-03,-1.097963767330465204e-02,-1.342911215581563036e-03
-9.584048190327234401e-03,5.974620617105544547e-03,2.824981281839779659e-02,1.724206224955229239e-01,-5.085143585488320628e-02,-1.538415637215056510e-02,-1.135826545132158083e-01,1.013270229302420770e-02
-9.750153596371286457e-04,9.562306338876041395e-03,1.149037478102691613e-02,-1.199307962844839946e-02,2.645616158645803379e-02,-2.208535862155035570e-02,2.309854388706448353e-02,3.749178411419562540e-02
3.940355394685773893e-02,-2.031714040598209953e-02,-2.089354156761682665e-02,-2.576166932521838926e-01,3.230602510931006310e-02,1.601287192866751585e-02,1.859212481039747844e-01,-1.658519639014300467e-02
4.767175626766215896e-02,-2.356897613759706758e-02,-2.421977402879461200e-02,1.090704962775927885e-02,8.486286447105284569e-02,1.511222569026851245e-02,-7.869245448915936081e-02,-1.295459974051803818e-02
4.693091404814837830e-02,-2.689244580220364125e-02,-1.926688284725681238e-02,6.675279622798549820e-03,4.199860304625955415e-02,-7.548004135543266366e-03,-6.279618633293353180e-02,-8.163195772298565203e-03
-7.105042021893849362e-03,-7.825548960327822351e-04,4.211978403173549136e-03,-1.984115870432681394e-01,-4.072517353455723521e-02,1.184722850924325131e-02,2.068465026643055149e-01,-2.043604293086765875e-02
-1.977801078010756400e-02,1.577850660036559868e-02,2.155701971221577438e-03,-2.546003796443457867e-01,-5.057111928764886771e-02,3.411290515938881877e-03,2.547908480281621535e-01,-2.965688949035449797e-03
7.846764497218541509e-04,1.681455923497730126e-02,-2.394560483849139665e-02,-1.980984733905583051e-01,2.429817265610535182e-01,4.019130539485375742e-02,2.144785154529690041e-01,-6.266639180093080963e-02
-1.839556180522167531e-02,-1.416010585397559736e-03,-1.047399228354447924e-02,4.065911919480453413e-02,1.172109694608748295e-02,-2.687648411118142514e-03,-3.227516509936687733e-02,6.277640584926099006e-03
5.566665396580794400e-02,5.232228080378400342e-02,-7.178619190464962177e-03,4.283212939823359544e-02,-6.707091637434978160e-02,-3.385062195308790288e-03,-6.468389323475651209e-02,6.909556079052686997e-03
-6.148294501678476520e-02,-2.487638663658285273e-02,-7.164932075812914698e-03,3.895688482500487410e-02,1.473228337968748858e-02,-9.079333368987398123e-03,4.486392333938856586e-02,3.078722064088421084e-02
-3.402930441599181371e-02,-3.803496162462949737e-04,1.998927138890271848e-03,-1.422003474456190811e-02,5.050452931933659129e-02,2.827341877933888803e-01,6.441985754337657341e-03,-2.852931399868268159e-01
-3.984176225199497802e-03,2.866811394587216039e-02,3.861555527642486583e-03,-2.587228513867260715e-01,2.438219174821247281e-01,8.757977452987240896e-02,-1.123834578303970280e-02,-5.217550278149004489e-02
1.127034303440266859e-02,2.516796934395488898e-03,1.027071624668913878e-02,-3.808158603099087020e-02,-7.888339694667315712e-04,-3.059563178896019392e-02,1.808233716795362017e-02,-1.563662766338939220e-02
9.413861296574876567e-04,1.164659189586936434e-02,-1.495469114667452061e-02,-4.365959617677553362e-02,3.434124391403366866e-02,1.801828889490220131e-02,9.424390554334102429e-03,-3.530864333397953220e-02
-2.759751098847466194e-02,2.459374024107442019e-02,1.338390057202190273e-02,4.118430439822248768e-02,-4.725628426082113809e-02,-1.064944577247706886e-01,3.642382601191583580e-02,6.948148119673991374e-02
-1.510856171266937789e-02,3.820555310086299304e-03,1.284067539836116628e-03,2.283843745890640556e-02,-1.953684668475064862e-02,-1.200067053169654244e-02,7.046796500695216847e-02,-6.985178887780654766e-02
-1.579559824148080854e-02,9.215002996781877440e-03,-2.647793115569620909e-02,6.082997744292810427e-02,2.048128008682160994e-01,6.958804017936279229e-02,-1.288628369213567181e-02,-9.577134487414305786e-02
-3.062497360060271318e-02,-2.181368692394009250e-03,-3.848693203065615357e-03,9.562492262412656402e-03,1.809495548415327934e-02,2.666137053310723565e-02,-2.901645710415863277e-01,2.756580851450112779e-01
7.424134784993463229e-03,5.399502473890505213e-04,-6.297008708093852856e-04,-1.107453001591934263e-03,2.206342841888900633e-03,-1.045844088998760732e-02,-1.140894880826043766e-03,8.610753717410553343e-03
2.208541572247905982e-02,6.064510171267340974e-03,-2.754145687953944363e-02,5.107684855240679500e-02,2.521192825587164066e-01,3.627642460183583967e-02,-3.864103374326736950e-02,-6.076104070067648438e-02
2.233318761953944631e-01,3.461839764059407298e-02,-4.357612257369407327e-03,4.719939496161744646e-04,-2.374519991362931681e-01,-2.231439596090257355e-02,2.472457547648864232e-02,1.871130790216335091e-02
2.834137169737304118e-01,9.874455715698456960e-04,9.657025719574118677e-03,-3.103607997168609384e-03,-2.653845579057846904e-01,1.523867817998066088e-02,-3.196887025810910693e-02,-1.632451096582149264e-02
-2.523382832330158670e-02,-3.529508980346483891e-03,9.437585981691294298e-03,-1.172135072499006295e-02,7.552630205000573915e-02,2.798403297512889326e-02,-3.758872299058717281e-02,-2.330349227383893967e-02
5.436125614943672357e-02,3.138142695125349657e-02,-1.759579980430957605e-03,1.086045035462837767e-02,-8.512651774028655305e-02,3.440811430814301464e-02,-2.522337493176607381e-02,-2.943072079515928266e-02
8.945169261091991120e-02,-4.331944567651754147e-02,1.340977722131552613e-03,3.266856906155565787e-02,-1.716723503090853975e-01,8.944084388569918664e-02,-7.813872085089650088e-02,4.255934161140507987e-02
-1.424953076426882514e-01,-6.179352538535387226e-03,1.416580205033565396e-02,5.353467432249301881e-04,-6.697403519668872381e-03,-2.225336541760993686e-02,1.499023545467352558e-01,2.385250598170144537e-02
-1.424953076426882514e-01,-6.179352538535387226e-03,1.416580205033565396e-02,5.353467432249301881e-04,-6.697403519668872381e-03,-2.225336541760993686e-02,1.499023545467352558e-01,2.385250598170144537e-02
-1.424953076426882514e-01,-6.179352538535387226e-03,1.416580205033565396e-02,5.353467432249301881e-04,-6.697403519668872381e-03,-2.225336541760993686e-02,1.499023545467352558e-01,2.385250598170144537e-02
-1.991223628395188128e-01,3.081077417612236927e-02,1.462563893212359689e-02,2.333874640991481092e-02,5.105665924043930465e-02,-2.569671327327914187e-02,1.160581422018606562e-01,4.290145364606588740e-02
9.395110454133565742e-03,-9.261047735420756960e-03,-2.738702089680468323e-03,5.606149337122963601e-03,-1.083147148819533362e-02,-6.715845207814376402e-04,-8.006968967089152841e-04,2.693441224582331876e-03
-3.145181427623955361e-02,-5.940289277099217342e-03,-5.256413569404912688e-03,2.726267255704290654e-02,8.819283293609046781e-02,1.493039493978636223e-01,2.678547567209158681e-02,-1.457328205140548394e-01
-2.055783977297713852e-02,2.770862787386059803e-03,8.913268397902640323e-04,-7.320299626805907688e-04,4.104466609335390148e-02,2.048647599900606936e-02,8.559159566471411656e-03,-1.524934290647367643e-02
6.976606835614120213e-03,-1.219604835615435137e-03,7.938292472770832470e-03,-8.993952849969140406e-02,6.649995912623334060e-02,1.004185395811952285e-02,-7.039574806535539575e-02,4.251185620953877586e-02
-4.660668150465794961e-03,-1.107690239008107813e-02,-1.132045752808946704e-02,-3.357954098023189842e-04,1.813603174188860578e-01,-3.462899261642262139e-01,1.453805806086636747e-03,-5.010117678027362249e-03
-1.950090810582937040e-02,-3.636688252327255344e-02,-7.706613201433750934e-04,2.583041699827092613e-02,4.347082979989142296e-03,4.852605933693526427e-03,7.341294192202796158e-03,-4.971764035736537905e-03
-1.638106907430689901e-02,-1.129715850902998989e-02,1.172768149709103522e-02,3.178431408557307741e-02,-2.142458865058912421e-01,-1.694798201199721995e-03,-1.197873625818986348e-01,2.780782301428091907e-01
1.749000616800540017e-02,7.067128743076333749e-03,-1.641029816049661971e-02,7.195574526555599190e-03,1.350813873796838024e-02,8.941970957705196871e-03,1.011422957454439706e-02,-3.773290669072620895e-02
-8.075917207159454686e-03,2.310138015610731579e-02,1.359131204171154343e-03,-2.618687221407546215e-02,1.684642059078036297e-02,-3.608976948157721631e-02,-2.348559957862242711e-02,8.078438421541621339e-02
-3.794363128582022016e-02,-5.984890716596645392e-03,1.730039730911661286e-02,1.628270587636477390e-02,-4.482458291798903545e-03,-1.296150909821103779e-02,7.315275580110487848e-03,3.190927147144678039e-02
2.627494312952896420e-03,2.001686260281429833e-02,2.009900770447039728e-02,-4.430956532892861566e-02,2.418553329539940150e-02,1.135485980991757585e-02,-7.515907812764606108e-03,-3.216814706292454775e-03
4.755737834500552152e-02,-8.202585685583772129e-03,-1.667031278597073170e-03,-1.754893994225204673e-02,-1.307716008600827429e-01,1.307192618780758653e-01,-5.346336678904430734e-02,-1.060170079301717277e-01
2.398198813936960677e-04,9.296237915585213929e-04,-3.005064686440074703e-05,4.240254930430602254e-02,-5.315323467840497168e-02,8.222905497019784241e-04,-1.601168770685962349e-03,-4.050921562939823850e-04
-1.884904069659826265e-03,-1.857750269611543837e-03,6.148032857788378845e-03,8.333143320658566860e-03,-1.784167139179305625e-02,-3.303027497600872359e-02,-1.036208642783428748e-03,4.381493946442943654e-02
2.049828618910421937e-02,5.800780395283903004e-03,-1.058223146673298656e-02,-3.784454570902135492e-03,-8.457441087371567884e-03,-1.833108136800262701e-03,1.661130686296368938e-03,3.679835603818629002e-03
-3.285349021173072231e-02,9.745046753788840638e-03,1.874629725487005072e-02,2.090293449513846730e-03,1.703476669863828591e-02,4.224550702098666191e-03,-7.242512774477174661e-03,7.376677327846867596e-03
4.884393951796066335e-02,-1.339284791494168084e-02,-2.743489415177922421e-03,1.440085031533469007e-01,-2.769615166156516040e-01,1.386906451079946978e-01,-4.575118401985968364e-02,-1.470172581721303495e-01
5.197816690073130130e-02,6.636584619677141257e-03,4.669062339705403429e-03,-3.305754068434788029e-02,-2.049707044465004790e-01,2.193292148479704662e-01,-4.342981403827502612e-02,-2.266836690502498919e-01
-3.789020589441224711e-03,-3.653020969270447116e-02,-2.018878735525794776e-03,4.949159132623194568e-02,-1.726754862306504115e-02,5.055477219351841439e-02,2.929917611436628697e-02,-8.267160478304878823e-02
-3.375425202562221810e-02,-1.249519082566380446e-02,-4.605468773276920336e-02,5.500273135021728141e-03,-4.360429345028560277e-02,2.194870648020604276e-01,9.528413061245487314e-02,-2.276061745186524765e-01
-5.009368426896109762e-03,8.124638681753107092e-03,2.697176711398485173e-03,5.929429563650256627e-03,-2.669797700921481831e-01,3.023453963432391478e-01,8.011911546239463850e-04,-5.016219041225007669e-02
2.480729526959124000e-04,1.849259133299078692e-02,1.055820935957112660e-03,5.083902719200789067e-02,-2.700414559321136568e-02,-2.291467227772683510e-02,-3.671202134756738900e-02,1.050875992986177905e-02
5.844808807273344474e-03,3.403881337571084548e-02,1.053060938629563808e-03,1.828805939936463121e-01,-1.659016856365161940e-01,-6.792662276355497519e-02,-2.195784293979156226e-02,1.051462662006659270e-02
1.197904681351049695e-02,-9.129387935434074910e-03,-7.943532881098962564e-03,8.274148490681673684e-02,-5.673423654896869728e-02,-2.060806793976010035e-02,-1.247870697106890844e-02,-3.731295502970221386e-03
1.229112613005559594e-02,-2.745161945251111627e-03,1.418488462965493413e-02,1.121227368809360747e-01,-1.080581604508122212e-01,-3.551612075526233009e-02,-6.555752422639107499e-03,-3.619719563283463250e-03
-1.761635674714887717e-02,3.293551627601982133e-03,1.758295946770191322e-03,2.321858342024408703e-02,4.009184881415346624e-02,-3.252954436038388297e-02,-8.384824098222141281e-03,4.673267107934245962e-02
9.967277307879026174e-03,-9.837521190696410164e-03,-7.537554863479470346e-03,1.993721221544975802e-02,-7.319006154223609006e-02,3.792912288699154533e-02,-9.546912361276981701e-03,-1.813838876091144331e-02
7.464194757011261352e-03,4.356075036090325224e-03,-6.310240042924912703e-03,-5.116876329518412619e-02,-1.784163710790015456e-02,6.543008032682322284e-02,-2.808907344898336003e-02,-5.480342406265859001e-02
-2.503082550867763521e-03,1.419359622678673973e-02,1.227314820554555475e-03,-7.110597551063389810e-02,5.534842443433594938e-02,2.750095743983169139e-02,-1.854216108770639221e-02,-3.666503530174711895e-02
-3.287781693285839191e-02,8.611423164119835988e-04,1.455817664166038708e-02,2.362108224393737882e-02,-3.055123953499199255e-02,4.712484020514186994e-03,1.826003013133209452e-02,-4.324345170102779465e-04
-3.287781693285839191e-02,8.611423164119835988e-04,1.455817664166038708e-02,2.362108224393737882e-02,-3.055123953499199255e-02,4.712484020514186994e-03,1.826003013133209452e-02,-4.324345170102779465e-04
1.419573209276749591e-02,2.881751731266906508e-02,5.909535590211881587e-03,-4.145325963313472445e-02,5.601293703961568102e-03,1.770280715942862404e-02,1.731261372800710699e-02,-1.153965649354884168e-03
4.511706525261805628e-02,-1.298233915695867248e-02,-1.511611374375223041e-02,3.439511376700001011e-02,5.375357372706537386e-03,9.437071729149777016e-05,-4.834799682310733648e-02,3.314984007096910719e-03
4.511706525261805628e-02,-1.298233915695867248e-02,-1.511611374375223041e-02,3.439511376700001011e-02,5.375357372706537386e-03,9.437071729149777016e-05,-4.834799682310733648e-02,3.314984007096910719e-03
-1.150980845930314224e-02,1.252667086875063063e-02,-1.170530489956215711e-03,1.392336323559726155e-02,1.985720074093908372e-03,2.510644277539871537e-03,-9.822854564971936209e-03,6.649077005895181027e-04
-1.150980845930314224e-02,1.252667086875063063e-02,-1.170530489956215711e-03,1.392336323559726155e-02,1.985720074093908372e-03,2.510644277539871537e-03,-9.822854564971936209e-03,6.649077005895181027e-04
-4.824022604495759037e-02,9.278031201474190581e-03,1.421441286725126131e-02,8.414989705329873823e-03,1.949991072604654457e-02,-4.294717994831878313e-03,7.849054832883502891e-03,1.810575347965623014e-02
-6.978643628359801343e-03,2.570938594328204749e-02,-1.275143666733171127e-03,-1.019975244429788437e-02,3.602970288193452914e-02,9.739305138130774364e-03,-2.392717374433309119e-02,2.431252297375879542e-02
