3.217339512045467309e-01,4.169109439119197263e-02,6.150536307040249673e-01,-1.600365396571654109e-02,4.228701569519655590e-01,2.307422274111090299e-01,4.511212211077213555e-03,-2.647635752210376892e-02
-1.272660224321876463e-02,9.991781381337015711e-02,-7.168769576028218016e-02,2.016789700145116618e-02,-1.377320223009738109e-01,1.569096534077121241e-01,5.333233132530420390e-02,-2.135939879314418047e-02
-2.320874145909737531e-03,1.025696005954883222e-01,-4.352132861366335426e-02,4.581713164206466411e-03,-1.877641451252320612e-02,-3.692905291922658068e-02,-1.828451205694165901e-02,-7.205138567063377845e-03
-6.695296552394808254e-02,2.054151252758805168e-01,-4.086225333520180497e-02,-8.476353485857067091e-03,-9.977101344228589408e-02,-2.703161897367116137e-02,1.411088533640895704e-01,3.070988467915437142e-02
-6.715907889840190548e-02,-3.969385624464356194e-02,-6.074362565967376254e-02,1.880529518961069485e-02,1.345242965036453631e-01,-9.908530667918611506e-03,-1.228434303765343384e-02,9.799818665289605768e-02
4.694118137662354334e-02,5.091702603319313292e-02,-5.101167769441491279e-02,-4.055399318859105140e-04,-1.785795420712870188e-02,-5.725287240255622079e-02,-8.667940492291328208e-03,-1.285470370290227662e-02
8.474557007779845094e-03,-1.747211494526836745e-02,4.027114497367248989e-03,-5.893418587264717852e-03,4.347893730516463537e-03,-1.845354570329783839e-02,-1.199369022228398071e-02,6.880227956155664237e-02
4.730293310863135925e-02,5.374818033693883057e-02,-4.823538088236072052e-02,-2.121045314903020982e-03,-2.092751615458910558e-02,-8.533147957209395729e-02,-9.537549336218998156e-03,-6.939241425205283816e-03
3.277802348757478425e-03,9.854728378955746049e-02,6.320378658113565140e-02,-5.233853460878400664e-03,-3.946376075697795999e-02,-1.634147004243887216e-03,-3.880304514948017171e-03,-1.749629974983861816e-02
3.859404303352606536e-02,4.201376381555398803e-02,-3.969793919543038868e-02,-1.059137777475972634e-03,-1.583120146313800672e-02,-3.108874232999854145e-02,-1.047215097021104817e-02,-1.551118267051646883e-02
-1.089428020439964576e-02,6.549619895022745775e-02,-5.119736582275298542e-02,-1.326260007926646431e-02,-1.565901221552196132e-02,-3.670799793688989121e-02,5.241858574145569043e-03,-3.670869336902654601e-02
-3.356748539064275394e-01,2.435380305858939332e-01,-2.890649827969950930e-02,-9.809281855223889526e-03,6.714237211518596371e-02,-1.352688476614408164e-02,-1.155775837652445875e-01,-1.448978596779078830e-02
4.694118137662354334e-02,5.091702603319313292e-02,-5.101167769441491279e-02,-4.055399318859105140e-04,-1.785795420712870188e-02,-5.725287240255622079e-02,-8.667940492291328208e-03,-1.285470370290227662e-02
4.694118137662354334e-02,5.091702603319313292e-02,-5.101167769441491279e-02,-4.055399318859105140e-04,-1.785795420712870188e-02,-5.725287240255622079e-02,-8.667940492291328208e-03,-1.285470370290227662e-02
-8.539855130816551010e-02,2.204837247084929786e-01,5.799634529230364433e-02,-6.621350014058306407e-03,-5.435848048551379999e-03,-5.899735175789131564e-02,7.462995485331758334e-03,9.288022263663589170e-03
-3.391578735841477982e-02,2.994167749084396535e-01,1.355254565141278955e-01,9.332576492955799857e-03,-1.103120487237913352e-02,-9.403977275019451132e-02,1.161960619714759446e-02,4.036011836659128549e-02
-8.588598314167148265e-03,1.739559868063731696e-01,7.624871426322840651e-02,-3.656946434523394851e-02,2.970441115653378941e-02,1.231269262434501674e-02,-1.747416466615178687e-02,-5.144470327390039677e-02
-1.100780410183267166e-01,2.632682248377703482e-01,5.989667940982670163e-02,-7.382984699558873057e-03,2.766589765633671767e-03,-8.326950031346321002e-02,2.301654301780012638e-03,1.586392230950593035e-02
-2.574043744666664607e-02,6.344255544163521221e-02,-5.070846778640847319e-02,-1.441564710080307267e-03,-1.066969483360014851e-03,-2.774614866293477131e-02,1.782745830839259707e-02,5.461585523799539904e-03
-5.293773643362911091e-02,1.492638828981909804e-01,-3.722872691691867658e-02,-3.216325720326650237e-03,2.679254237408210115e-03,-4.437622249356829723e-02,-1.278883579852335348e-02,2.181890883379774410e-02
2.218230208377038569e-03,2.510462501421480974e-01,-1.128377830334577892e-01,-1.828973039434810682e-02,-3.629848631099653194e-02,-2.967322089315092490e-02,-2.498401642983996002e-02,1.718143691614960888e-02
-3.080280610994857483e-03,4.097054392313682208e-02,-4.179096754402111119e-02,-8.711283993896852193e-03,8.079992529934498444e-03,-5.189101756347314076e-02,5.390703146743832525e-03,1.459885426215329352e-02
-2.646559022154446744e-02,1.631918661499322243e-01,-3.784067370140568876e-02,-3.276259077341591580e-03,-1.729555150361932608e-02,-1.730033407879501273e-02,2.576780440500651016e-03,-4.139937311785503449e-02
-1.448974959224835247e-02,-7.857774509414347519e-02,-5.545676710589579617e-02,3.059552254687271725e-02,7.884536344835371691e-02,2.336121160819814094e-02,-2.089423010643923564e-02,-5.932776943428226535e-02
-2.513077525235530435e-02,8.478496530479548432e-02,-5.399479849748757554e-02,-2.485379962949897138e-03,-6.222102024625652617e-04,-1.635697325022623591e-02,1.242772348909855148e-02,7.451925019258685660e-03
-2.513077525235530435e-02,8.478496530479548432e-02,-5.399479849748757554e-02,-2.485379962949897138e-03,-6.222102024625652617e-04,-1.635697325022623591e-02,1.242772348909855148e-02,7.451925019258685660e-03
2.198773645024183071e-02,6.361634292821972958e-02,-4.728198965295811462e-02,-3.299486178975446354e-03,5.912685273036665965e-04,-1.135339011664357814e-02,3.214759091028527706e-06,7.022502093574402478e-03
-2.513077525235530435e-02,8.478496530479548432e-02,-5.399479849748757554e-02,-2.485379962949897138e-03,-6.222102024625652617e-04,-1.635697325022623591e-02,1.242772348909855148e-02,7.451925019258685660e-03
-1.166255784881680205e-02,-1.980145134918826280e-02,-2.283878160262940368e-02,-1.416043324395612662e-03,8.123962780747869331e-03,-2.887717874742138507e-02,7.915103895140115919e-02,4.073503754259076006e-04
-1.166255784881680205e-02,-1.980145134918826280e-02,-2.283878160262940368e-02,-1.416043324395612662e-03,8.123962780747869331e-03,-2.887717874742138507e-02,7.915103895140115919e-02,4.073503754259076006e-04
-1.166255784881680205e-02,-1.980145134918826280e-02,-2.283878160262940368e-02,-1.416043324395612662e-03,8.123962780747869331e-03,-2.887717874742138507e-02,7.915103895140115919e-02,4.073503754259076006e-04
-1.166255784881680205e-02,-1.980145134918826280e-02,-2.283878160262940368e-02,-1.416043324395612662e-03,8.123962780747869331e-03,-2.887717874742138507e-02,7.915103895140115919e-02,4.073503754259076006e-04
-1.166255784881680205e-02,-1.980145134918826280e-02,-2.283878160262940368e-02,-1.416043324395612662e-03,8.123962780747869331e-03,-2.887717874742138507e-02,7.915103895140115919e-02,4.073503754259076006e-04
-1.166255784881680205e-02,-1.980145134918826280e-02,-2.283878160262940368e-02,-1.416043324395612662e-03,8.123962780747869331e-03,-2.887717874742138507e-02,7.915103895140115919e-02,4.073503754259076006e-04
-1.166255784881680205e-02,-1.980145134918826280e-02,-2.283878160262940368e-02,-1.416043324395612662e-03,8.123962780747869331e-03,-2.887717874742138507e-02,7.915103895140115919e-02,4.073503754259076006e-04
-1.166255784881680205e-02,-1.980145134918826280e-02,-2.283878160262940368e-02,-1.416043324395612662e-03,8.123962780747869331e-03,-2.887717874742138507e-02,7.915103895140115919e-02,4.073503754259076006e-04
-1.166255784881680205e-02,-1.980145134918826280e-02,-2.283878160262940368e-02,-1.416043324395612662e-03,8.123962780747869331e-03,-2.887717874742138507e-02,7.915103895140115919e-02,4.073503754259076006e-04
-1.166255784881680205e-02,-1.980145134918826280e-02,-2.283878160262940368e-02,-1.416043324395612662e-03,8.123962780747869331e-03,-2.887717874742138507e-02,7.915103895140115919e-02,4.073503754259076006e-04
-1.166255784881680205e-02,-1.980145134918826280e-02,-2.283878160262940368e-02,-1.416043324395612662e-03,8.123962780747869331e-03,-2.887717874742138507e-02,7.915103895140115919e-02,4.073503754259076006e-04
-1.166255784881680205e-02,-1.980145134918826280e-02,-2.283878160262940368e-02,-1.416043324395612662e-03,8.123962780747869331e-03,-2.887717874742138507e-02,7.915103895140115919e-02,4.073503754259076006e-04
-1.980878951333096133e-02,-3.125892447805121710e-02,6.383797536753048341e-02,-1.477007332090320211e-04,-4.249027335298875309e-03,-2.783214849387559073e-02,6.164736167352285112e-04,3.925512456263159991e-03
-1.441979409624187178e-02,-1.295895301411551792e-01,6.741264807210067822e-02,2.280298425508962314e-03,-4.201558847033499099e-03,-3.164012083879374354e-02,-8.431705439973921287e-03,1.409395796028511082e-02
-2.600403077917038536e-02,-2.552667899090878961e-02,6.049641459962823431e-02,1.294042786769450826e-03,-5.585484872855696510e-03,8.480407113512614115e-02,8.651722564506376251e-03,-7.821198774965049116e-02
-1.663723133488968081e-02,-3.450946835608445507e-02,6.458841056571409944e-02,1.540374951895590516e-03,-2.745770334311892647e-03,-3.778136274763167768e-02,-1.459467840726149388e-03,1.635852515918489319e-02
-1.663723133488968081e-02,-3.450946835608445507e-02,6.458841056571409944e-02,1.540374951895590516e-03,-2.745770334311892647e-03,-3.778136274763167768e-02,-1.459467840726149388e-03,1.635852515918489319e-02
-1.663723133488968081e-02,-3.450946835608445507e-02,6.458841056571409944e-02,1.540374951895590516e-03,-2.745770334311892647e-03,-3.778136274763167768e-02,-1.459467840726149388e-03,1.635852515918489319e-02
2.196238202784828088e-03,-3.737402207333768295e-02,6.233769625828838867e-02,-4.037112306265504963e-03,-1.317659415345919655e-03,-3.209592403003170419e-02,3.612965907018232756e-03,2.628078885299935195e-03
-1.215023081457626206e-02,-1.621307477614876702e-01,-7.378556522007165275e-02,-2.179393185915496007e-04,1.044077825273810323e-01,-8.521487994429290114e-03,-1.703600154526685104e-02,-1.374498792948755654e-02
-1.215023081457626206e-02,-1.621307477614876702e-01,-7.378556522007165275e-02,-2.179393185915496007e-04,1.044077825273810323e-01,-8.521487994429290114e-03,-1.703600154526685104e-02,-1.374498792948755654e-02
3.099328674529621130e-01,-1.979869759601740609e-02,-4.251916593987150814e-03,1.799921291921835779e-03,-1.030550556978721416e-01,6.728632008188638151e-03,-1.101205389518261808e-02,-1.782109153188922088e-02
2.561999347577308406e-01,-7.676303544636857087e-03,-4.520376792118608114e-03,8.033548476077897321e-03,-9.701160420138051077e-02,-1.614930920101858083e-03,4.161869283291359236e-04,8.634655587029364116e-03
9.498023355319744343e-02,-2.004291337574337466e-04,-3.308937390534902453e-04,1.086754637909510910e-03,-1.090084439585574036e-02,-2.897607161148702849e-03,3.274942127039103500e-03,3.375293699532345374e-03
9.498023355319744343e-02,-2.004291337574337466e-04,-3.308937390534902453e-04,1.086754637909510910e-03,-1.090084439585574036e-02,-2.897607161148702849e-03,3.274942127039103500e-03,3.375293699532345374e-03
8.940685364615987007e-02,-1.526269714061054619e-02,-1.310458757355029190e-03,-7.481518053648233794e-03,-3.661290766117338176e-03,1.229168514350960188e-02,-2.508643382192780186e-02,-1.875696330052884983e-02
-1.196370070285804610e-01,1.258012649742770439e-01,2.789303139400059126e-03,-6.597435227685083045e-03,-1.079311766864217426e-03,2.374773144299510003e-02,1.057277885191460626e-02,-5.200576698469418918e-02
-1.196370070285804610e-01,1.258012649742770439e-01,2.789303139400059126e-03,-6.597435227685083045e-03,-1.079311766864217426e-03,2.374773144299510003e-02,1.057277885191460626e-02,-5.200576698469418918e-02
-1.196370070285804610e-01,1.258012649742770439e-01,2.789303139400059126e-03,-6.597435227685083045e-03,-1.079311766864217426e-03,2.374773144299510003e-02,1.057277885191460626e-02,-5.200576698469418918e-02
-1.414539750833405107e-01,3.803987083828386240e-01,1.062551470090419142e-02,-7.810016151870197328e-03,-6.175282718418292210e-02,-6.371120085687147216e-02,-1.484228926326422449e-02,1.469589044462383566e-02
-9.157707519588257142e-03,-2.190463282395139523e-03,3.160033139616509786e-03,6.105453145385014713e-02,-9.224918447982949354e-02,-6.004182484324066538e-02,-1.154547596309935323e-02,1.777653496720801862e-01
-9.809490416954948222e-02,1.206262252637872734e-01,1.465929915567449129e-02,-8.872912546349595933e-03,7.721189643704914722e-03,3.408511502697654516e-02,-3.601509652445880616e-02,-6.035441403189997084e-02
-1.079750864102883845e-01,1.796731998032354283e-01,2.009787007673505266e-02,-2.752719959264944213e-02,4.389924491160423874e-03,3.319400282722764772e-02,1.633873635637992511e-02,-5.055216852273732714e-02
-2.302072321845284597e-01,2.926685026011133783e-01,-2.230434408474320229e-03,5.032749503322329551e-03,-3.110515797574022780e-03,-7.591210607588968866e-03,3.502978485972818752e-03,1.877264709863803865e-02
-2.302072321845284597e-01,2.926685026011133783e-01,-2.230434408474320229e-03,5.032749503322329551e-03,-3.110515797574022780e-03,-7.591210607588968866e-03,3.502978485972818752e-03,1.877264709863803865e-02
9.867902379634167775e-02,2.919006210144577396e-01,-8.313759073559605015e-03,-4.645973540378909444e-03,4.754776840724456860e-02,-2.879869256277727951e-03,-8.609263884171986306e-03,1.038495402988836962e-02
-3.349106119638424472e-02,3.364470813443687369e-02,6.255137585131027855e-03,3.388474738177838126e-04,9.236773646885392680e-03,1.217902465432393368e-02,4.049013042701294501e-03,-5.229449222772546667e-03
-3.349106119638424472e-02,3.364470813443687369e-02,6.255137585131027855e-03,3.388474738177838126e-04,9.236773646885392680e-03,1.217902465432393368e-02,4.049013042701294501e-03,-5.229449222772546667e-03
-3.349106119638424472e-02,3.364470813443687369e-02,6.255137585131027855e-03,3.388474738177838126e-04,9.236773646885392680e-03,1.217902465432393368e-02,4.049013042701294501e-03,-5.229449222772546667e-03
-5.040842476075480926e-04,-3.306606448809644438e-02,-4.166382201893002735e-02,4.255792476389833046e-02,2.258686632119808607e-02,-3.116666464334091197e-02,9.629998006914126246e-03,9.441071305973321864e-03
6.579852276477606010e-02,1.979032132380096898e-01,4.868260385185410599e-02,-1.224208270974593352e-02,-1.254307921182138130e-01,-5.614631107544196947e-02,1.251559721722226778e-02,-9.781539739524814335e-04
-3.349106119638424472e-02,3.364470813443687369e-02,6.255137585131027855e-03,3.388474738177838126e-04,9.236773646885392680e-03,1.217902465432393368e-02,4.049013042701294501e-03,-5.229449222772546667e-03
-3.349106119638424472e-02,3.364470813443687369e-02,6.255137585131027855e-03,3.388474738177838126e-04,9.236773646885392680e-03,1.217902465432393368e-02,4.049013042701294501e-03,-5.229449222772546667e-03
-3.349106119638424472e-02,3.364470813443687369e-02,6.255137585131027855e-03,3.388474738177838126e-04,9.236773646885392680e-03,1.217902465432393368e-02,4.049013042701294501e-03,-5.229449222772546667e-03
-3.174148985495987840e-02,1.629216927474035903e-01,1.328483196756207949e-02,-1.092722805041994620e-03,-5.628527421486190924e-03,8.949435391081311808e-03,-1.254451877701367665e-02,6.862554033193949202e-03
-3.349106119638424472e-02,3.364470813443687369e-02,6.255137585131027855e-03,3.388474738177838126e-04,9.236773646885392680e-03,1.217902465432393368e-02,4.049013042701294501e-03,-5.229449222772546667e-03
-3.349106119638424472e-02,3.364470813443687369e-02,6.255137585131027855e-03,3.388474738177838126e-04,9.236773646885392680e-03,1.217902465432393368e-02,4.049013042701294501e-03,-5.229449222772546667e-03
-3.349106119638424472e-02,3.364470813443687369e-02,6.255137585131027855e-03,3.388474738177838126e-04,9.236773646885392680e-03,1.217902465432393368e-02,4.049013042701294501e-03,-5.229449222772546667e-03
-1.793299811550591594e-02,-8.217285873112274708e-03,-3.156510084882487716e-03,7.867222827135598182e-04,5.118451855816327951e-03,-1.590909918982276071e-03,5.065541984219262828e-02,3.126868322838891132e-03
-1.793299811550591594e-02,-8.217285873112274708e-03,-3.156510084882487716e-03,7.867222827135598182e-04,5.118451855816327951e-03,-1.590909918982276071e-03,5.065541984219262828e-02,3.126868322838891132e-03
-1.793299811550591594e-02,-8.217285873112274708e-03,-3.156510084882487716e-03,7.867222827135598182e-04,5.118451855816327951e-03,-1.590909918982276071e-03,5.065541984219262828e-02,3.126868322838891132e-03
-1.793299811550591594e-02,-8.217285873112274708e-03,-3.156510084882487716e-03,7.867222827135598182e-04,5.118451855816327951e-03,-1.590909918982276071e-03,5.065541984219262828e-02,3.126868322838891132e-03
-1.793299811550591594e-02,-8.217285873112274708e-03,-3.156510084882487716e-03,7.867222827135598182e-04,5.118451855816327951e-03,-1.590909918982276071e-03,5.065541984219262828e-02,3.126868322838891132e-03
5.456673481249287028e-02,-3.046861477224433942e-02,3.323027488240703174e-03,-1.918870372792784440e-02,-1.583333444178551264e-01,-2.474477005043263650e-03,2.127037277209602451e-01,7.894304652789271848e-04
-1.793299811550591594e-02,-8.217285873112274708e-03,-3.156510084882487716e-03,7.867222827135598182e-04,5.118451855816327951e-03,-1.590909918982276071e-03,5.065541984219262828e-02,3.126868322838891132e-03
-1.793299811550591594e-02,-8.217285873112274708e-03,-3.156510084882487716e-03,7.867222827135598182e-04,5.118451855816327951e-03,-1.590909918982276071e-03,5.065541984219262828e-02,3.126868322838891132e-03
1.228446971710900858e-02,-2.388704666184563244e-02,-2.361360540146248323e-03,8.591144775916199558e-03,-4.185532179013742166e-02,4.829904383236848821e-03,4.099405775661856682e-02,9.469207812671090463e-03
-1.793299811550591594e-02,-8.217285873112274708e-03,-3.156510084882487716e-03,7.867222827135598182e-04,5.118451855816327951e-03,-1.590909918982276071e-03,5.065541984219262828e-02,3.126868322838891132e-03
-1.793299811550591594e-02,-8.217285873112274708e-03,-3.156510084882487716e-03,7.867222827135598182e-04,5.118451855816327951e-03,-1.590909918982276071e-03,5.065541984219262828e-02,3.126868322838891132e-03
-1.793299811550591594e-02,-8.217285873112274708e-03,-3.156510084882487716e-03,7.867222827135598182e-04,5.118451855816327951e-03,-1.590909918982276071e-03,5.065541984219262828e-02,3.126868322838891132e-03
-1.793299811550591594e-02,-8.217285873112274708e-03,-3.156510084882487716e-03,7.867222827135598182e-04,5.118451855816327951e-03,-1.590909918982276071e-03,5.065541984219262828e-02,3.126868322838891132e-03
-1.793299811550591594e-02,-8.217285873112274708e-03,-3.156510084882487716e-03,7.867222827135598182e-04,5.118451855816327951e-03,-1.590909918982276071e-03,5.065541984219262828e-02,3.126868322838891132e-03
-1.793299811550591594e-02,-8.217285873112274708e-03,-3.156510084882487716e-03,7.867222827135598182e-04,5.118451855816327951e-03,-1.590909918982276071e-03,5.065541984219262828e-02,3.126868322838891132e-03
-1.793299811550591594e-02,-8.217285873112274708e-03,-3.156510084882487716e-03,7.867222827135598182e-04,5.118451855816327951e-03,-1.590909918982276071e-03,5.065541984219262828e-02,3.126868322838891132e-03
-1.793299811550591594e-02,-8.217285873112274708e-03,-3.156510084882487716e-03,7.867222827135598182e-04,5.118451855816327951e-03,-1.590909918982276071e-03,5.065541984219262828e-02,3.126868322838891132e-03
3.567543472330601817e-02,-2.265398543344183946e-02,2.213852006451336955e-04,-3.135124654929640018e-03,3.299488319118118376e-03,-9.011347344435068421e-03,5.247550437098871118e-02,-6.378002830686399505e-02
3.593798680524683958e-02,-2.077369630635432160e-02,-3.299133167045714736e-05,-4.281962216531013873e-03,4.659444996848267559e-03,-6.051306989392036401e-03,-4.905942713781733314e-03,7.804491536193012072e-03
3.593798680524683958e-02,-2.077369630635432160e-02,-3.299133167045714736e-05,-4.281962216531013873e-03,4.659444996848267559e-03,-6.051306989392036401e-03,-4.905942713781733314e-03,7.804491536193012072e-03
3.593798680524683958e-02,-2.077369630635432160e-02,-3.299133167045714736e-05,-4.281962216531013873e-03,4.659444996848267559e-03,-6.051306989392036401e-03,-4.905942713781733314e-03,7.804491536193012072e-03
3.593798680524683958e-02,-2.077369630635432160e-02,-3.299133167045714736e-05,-4.281962216531013873e-03,4.659444996848267559e-03,-6.051306989392036401e-03,-4.905942713781733314e-03,7.804491536193012072e-03
3.593798680524683958e-02,-2.077369630635432160e-02,-3.299133167045714736e-05,-4.281962216531013873e-03,4.659444996848267559e-03,-6.051306989392036401e-03,-4.905942713781733314e-03,7.804491536193012072e-03
3.593798680524683958e-02,-2.077369630635432160e-02,-3.299133167045714736e-05,-4.281962216531013873e-03,4.659444996848267559e-03,-6.051306989392036401e-03,-4.905942713781733314e-03,7.804491536193012072e-03
7.967046448862918906e-02,-1.952725590607631498e-02,-8.172574144891116624e-03,-6.898096099921586025e-03,-4.598795257278383633e-03,-1.002071428864186736e-02,-1.411073405915356225e-04,5.826431955801341690e-03
3.593798680524683958e-02,-2.077369630635432160e-02,-3.299133167045714736e-05,-4.281962216531013873e-03,4.659444996848267559e-03,-6.051306989392036401e-03,-4.905942713781733314e-03,7.804491536193012072e-03
2.424255691618965036e-02,-2.132484687134261758e-02,-1.836915981579917119e-04,-2.882521360988091717e-03,4.894371312447228471e-03,8.790705195968722806e-04,-5.866843237545000655e-04,1.723224953854374242e-02
3.593798680524683958e-02,-2.077369630635432160e-02,-3.299133167045714736e-05,-4.281962216531013873e-03,4.659444996848267559e-03,-6.051306989392036401e-03,-4.905942713781733314e-03,7.804491536193012072e-03
1.401503547517414169e-02,-8.368031242782103529e-02,-4.604258701619730158e-03,8.727158575202181856e-02,6.601167563107711300e-03,-2.630942669787143980e-03,-5.681848801342623528e-04,-6.996166953665403435e-03
3.593798680524683958e-02,-2.077369630635432160e-02,-3.299133167045714736e-05,-4.281962216531013873e-03,4.659444996848267559e-03,-6.051306989392036401e-03,-4.905942713781733314e-03,7.804491536193012072e-03
3.593798680524683958e-02,-2.077369630635432160e-02,-3.299133167045714736e-05,-4.281962216531013873e-03,4.659444996848267559e-03,-6.051306989392036401e-03,-4.905942713781733314e-03,7.804491536193012072e-03
3.593798680524683958e-02,-2.077369630635432160e-02,-3.299133167045714736e-05,-4.281962216531013873e-03,4.659444996848267559e-03,-6.051306989392036401e-03,-4.905942713781733314e-03,7.804491536193012072e-03
3.593798680524683958e-02,-2.077369630635432160e-02,-3.299133167045714736e-05,-4.281962216531013873e-03,4.659444996848267559e-03,-6.051306989392036401e-03,-4.905942713781733314e-03,7.804491536193012072e-03
3.593798680524683958e-02,-2.077369630635432160e-02,-3.299133167045714736e-05,-4.281962216531013873e-03,4.659444996848267559e-03,-6.051306989392036401e-03,-4.905942713781733314e-03,7.804491536193012072e-03
3.593798680524683958e-02,-2.077369630635432160e-02,-3.299133167045714736e-05,-4.281962216531013873e-03,4.659444996848267559e-03,-6.051306989392036401e-03,-4.905942713781733314e-03,7.804491536193012072e-03
2.385731927999010585e-02,-6.499730419743214582e-04,3.869444243831563542e-03,3.751879095296247087e-04,-5.009883971355322263e-03,-4.109237772811476989e-04,-1.702254641741026212e-02,-5.797291770465112272e-03
3.593798680524683958e-02,-2.077369630635432160e-02,-3.299133167045714736e-05,-4.281962216531013873e-03,4.659444996848267559e-03,-6.051306989392036401e-03,-4.905942713781733314e-03,7.804491536193012072e-03
3.593798680524683958e-02,-2.077369630635432160e-02,-3.299133167045714736e-05,-4.281962216531013873e-03,4.659444996848267559e-03,-6.051306989392036401e-03,-4.905942713781733314e-03,7.804491536193012072e-03
3.593798680524683958e-02,-2.077369630635432160e-02,-3.299133167045714736e-05,-4.281962216531013873e-03,4.659444996848267559e-03,-6.051306989392036401e-03,-4.905942713781733314e-03,7.804491536193012072e-03
-1.107044071250266534e-02,-6.763139006924620555e-02,-3.178120505407496660e-03,-2.259149776801471464e-03,-1.123493602103260020e-02,1.740533693741983801e-01,1.248969231957085084e-02,-5.489554547645816504e-03
-1.077910171953033042e-02,-2.561415411411870416e-02,-2.778216835932693311e-03,-3.087319514125894462e-03,-5.328108897951180228e-03,1.178263953445518181e-01,-4.388572910256664100e-02,1.087193748827839116e-03
-1.107044071250266534e-02,-6.763139006924620555e-02,-3.178120505407496660e-03,-2.259149776801471464e-03,-1.123493602103260020e-02,1.740533693741983801e-01,1.248969231957085084e-02,-5.489554547645816504e-03
-2.503894537007499664e-03,-2.976386261836641567e-02,2.528984820504265839e-03,-4.104958507647484510e-03,-1.573816905005979289e-02,1.413701096637102750e-01,1.451524497301750691e-02,-3.442894636051369722e-02
-6.446287070893268016e-03,-3.857077419942930158e-02,5.381462428767819044e-03,-9.491939219133500860e-03,-1.025635378722952566e-02,4.439223260777742930e-02,1.553555380971458413e-02,7.088794558586079819e-02
-2.074227858964258417e-02,-1.953398868088287305e-02,-6.332609011565226535e-03,7.645325897314750319e-02,-3.303563097387109126e-02,9.799677859901366472e-02,-1.024545141165369815e-02,3.314841227570035354e-02
-1.107044071250266534e-02,-6.763139006924620555e-02,-3.178120505407496660e-03,-2.259149776801471464e-03,-1.123493602103260020e-02,1.740533693741983801e-01,1.248969231957085084e-02,-5.489554547645816504e-03
-3.254474488577355912e-03,3.474540636460597687e-02,7.526590411559114235e-02,4.631423893242841636e-03,-1.950312111553380735e-03,-4.966446416406545758e-03,-8.055236927906720985e-04,3.308205858700082221e-03
-3.254474488577355912e-03,3.474540636460597687e-02,7.526590411559114235e-02,4.631423893242841636e-03,-1.950312111553380735e-03,-4.966446416406545758e-03,-8.055236927906720985e-04,3.308205858700082221e-03
-3.254474488577355912e-03,3.474540636460597687e-02,7.526590411559114235e-02,4.631423893242841636e-03,-1.950312111553380735e-03,-4.966446416406545758e-03,-8.055236927906720985e-04,3.308205858700082221e-03
-3.671120871869522264e-03,3.974294848819252823e-02,7.028148506103534809e-02,1.123792442906823607e-03,1.962480717997700744e-03,-1.348397942272802630e-02,1.217416938202446966e-03,1.858864350318641806e-02
-3.254474488577355912e-03,3.474540636460597687e-02,7.526590411559114235e-02,4.631423893242841636e-03,-1.950312111553380735e-03,-4.966446416406545758e-03,-8.055236927906720985e-04,3.308205858700082221e-03
-3.254474488577355912e-03,3.474540636460597687e-02,7.526590411559114235e-02,4.631423893242841636e-03,-1.950312111553380735e-03,-4.966446416406545758e-03,-8.055236927906720985e-04,3.308205858700082221e-03
-3.681949707576977898e-02,2.208286793571900830e-01,3.579636766310405338e-02,1.158621348925010066e-03,-6.987143632367691544e-03,-9.046695591277249815e-02,-8.934081075364811581e-03,-1.530988015229299906e-02
-1.415702583743200585e-02,1.542298161366982903e-02,-2.731972616609348696e-03,2.346415330786343761e-02,-1.606653731485230274e-02,-8.540008162486258103e-02,-2.322057077153852692e-02,4.978756165729965322e-02
1.857086761454506546e-02,-9.283689525495953526e-03,8.686640825183876771e-03,-1.488506042812003452e-02,1.532482876764414137e-02,-4.196089847733722872e-02,-3.096733231503347519e-02,1.987821645847408919e-02
-3.479627026815384442e-03,3.453073185616275381e-02,-3.517190128282593649e-03,-8.659156397173076863e-03,6.622626035247080808e-03,-6.426854164090304786e-03,-2.393031197267873542e-02,1.273128721557947353e-02
-2.698551996712899095e-02,5.613433291183130697e-02,3.949261303369686060e-03,-7.779193239276881514e-03,6.207730553728960966e-03,-6.025326184433009782e-03,-1.412073848419042807e-02,1.387907885511037442e-02
-9.086264225678708506e-02,8.252437380012901669e-02,6.313276279106351530e-02,7.628998115447477649e-03,1.574555063343285877e-02,-4.369497336464314707e-03,9.916619126354016766e-05,-2.346258497171346824e-02
-2.222287528183601764e-03,7.817388451203949318e-02,2.372227287079627100e-02,1.134660434341282081e-01,-1.172377736833041528e-01,-3.346707918499158135e-02,4.841309711857093301e-02,-1.221078688518808207e-02
2.990662778226239795e-03,2.499514354086999554e-02,-1.272759082726224785e-03,-4.824276353673936230e-03,7.343914545380535001e-03,5.532979297713865215e-03,-5.183315025659810185e-03,-3.787683028563108931e-03
6.775283481712053926e-03,3.209955592675788061e-02,3.046432446298962590e-03,-1.721335249674342885e-02,1.083183852804125644e-02,-1.252998170511027132e-02,-1.966705777190017740e-02,-3.871697012144991075e-03
8.266695732990046730e-02,2.888103327216324373e-02,-8.082247157195812659e-02,1.141006151503028490e-02,-7.747457721537223327e-03,-3.684968265094704706e-03,4.369748941774530271e-02,7.020823388336222375e-03
-2.065303454181499805e-03,6.355981748660180508e-02,-6.729940738979878819e-04,1.390672387789918495e-02,-2.402020428667727553e-03,-1.841547014190477935e-02,-4.108249712412648247e-02,3.461704713241278014e-03
-2.065303454181499805e-03,6.355981748660180508e-02,-6.729940738979878819e-04,1.390672387789918495e-02,-2.402020428667727553e-03,-1.841547014190477935e-02,-4.108249712412648247e-02,3.461704713241278014e-03
1.639673358871461886e-02,-2.228761712857526001e-01,5.341764109159250623e-02,1.271088015336230281e-02,-5.172577944901442237e-02,-1.549239106494298621e-02,-1.308899295788089612e-01,6.071433254725476601e-04
-2.065303454181499805e-03,6.355981748660180508e-02,-6.729940738979878819e-04,1.390672387789918495e-02,-2.402020428667727553e-03,-1.841547014190477935e-02,-4.108249712412648247e-02,3.461704713241278014e-03
-2.065303454181499805e-03,6.355981748660180508e-02,-6.729940738979878819e-04,1.390672387789918495e-02,-2.402020428667727553e-03,-1.841547014190477935e-02,-4.108249712412648247e-02,3.461704713241278014e-03
-2.065303454181499805e-03,6.355981748660180508e-02,-6.729940738979878819e-04,1.390672387789918495e-02,-2.402020428667727553e-03,-1.841547014190477935e-02,-4.108249712412648247e-02,3.461704713241278014e-03
-1.703044645184470377e-04,2.167770612501694269e-02,-1.163315636184881693e-02,1.624743855694375794e-02,-6.086299197536570310e-03,-1.128708946961047392e-02,-3.597166962565645498e-02,1.715069791497653845e-02
-2.065303454181499805e-03,6.355981748660180508e-02,-6.729940738979878819e-04,1.390672387789918495e-02,-2.402020428667727553e-03,-1.841547014190477935e-02,-4.108249712412648247e-02,3.461704713241278014e-03
-2.065303454181499805e-03,6.355981748660180508e-02,-6.729940738979878819e-04,1.390672387789918495e-02,-2.402020428667727553e-03,-1.841547014190477935e-02,-4.108249712412648247e-02,3.461704713241278014e-03
-5.186308832057950034e-03,5.923947299406367994e-02,-2.378893629419575467e-04,-1.221594627585163018e-01,-2.752570636836899811e-03,-3.375140355147573934e-02,4.325796695294102934e-01,3.372387954954644829e-02
2.205049464136044426e-02,-4.381442138165869693e-02,1.220383095346646955e-02,-6.225904030946955922e-03,8.702202732397062296e-03,-3.553404431324691526e-02,-7.037020342354713756e-03,7.146929242894610457e-03
1.870206201151308756e-02,-2.185211538383395255e-02,1.198292784428161596e-02,3.822118895409455652e-02,-4.952865530509904801e-02,-4.576135052479353427e-02,-1.119785468270113361e-02,-1.147016723971945595e-03
2.205049464136044426e-02,-4.381442138165869693e-02,1.220383095346646955e-02,-6.225904030946955922e-03,8.702202732397062296e-03,-3.553404431324691526e-02,-7.037020342354713756e-03,7.146929242894610457e-03
-5.601862898592202544e-02,2.116405777384191556e-01,1.618910999232501050e-02,1.171063090236228524e-02,-2.140131074445037612e-02,4.422606535348589177e-03,2.429023659619447377e-03,1.670170743975544353e-02
2.205049464136044426e-02,-4.381442138165869693e-02,1.220383095346646955e-02,-6.225904030946955922e-03,8.702202732397062296e-03,-3.553404431324691526e-02,-7.037020342354713756e-03,7.146929242894610457e-03
2.205049464136044426e-02,-4.381442138165869693e-02,1.220383095346646955e-02,-6.225904030946955922e-03,8.702202732397062296e-03,-3.553404431324691526e-02,-7.037020342354713756e-03,7.146929242894610457e-03
-5.706598752318286019e-03,5.605662569681738733e-02,-9.134359199911757168e-03,3.771475513128087591e-03,-1.098995712275168540e-02,-2.746769292935668030e-02,-1.470062555680022066e-02,2.635566348773908316e-02
9.393517831093633249e-04,1.297504892369898966e-01,-1.911039833204412550e-02,4.576256604596547098e-04,-1.687643592415230542e-02,-1.825627571348077682e-02,-1.411771352632544075e-03,4.310752975874367586e-03
1.768052744064028958e-02,-3.504813034271977296e-02,-9.262061508317107408e-03,-2.438037030834924387e-02,8.460250963113305489e-02,8.242490827173407780e-03,1.038938894754704717e-02,-1.036041078251509544e-04
1.894998989663055451e-03,-4.188211136158488668e-02,-1.096016228795082884e-02,2.340714679044573858e-03,-3.684278768868842757e-03,7.128380672294298490e-03,5.110827498469997128e-03,1.368899320173526911e-02
1.894998989663055451e-03,-4.188211136158488668e-02,-1.096016228795082884e-02,2.340714679044573858e-03,-3.684278768868842757e-03,7.128380672294298490e-03,5.110827498469997128e-03,1.368899320173526911e-02
2.036988782770088758e-03,1.116511559796787116e-02,-1.375255804381456115e-02,9.627019808964682249e-03,-9.054542507852415129e-03,1.104136143008693262e-02,7.138690213826475242e-03,-2.007582041980159049e-02
1.894998989663055451e-03,-4.188211136158488668e-02,-1.096016228795082884e-02,2.340714679044573858e-03,-3.684278768868842757e-03,7.128380672294298490e-03,5.110827498469997128e-03,1.368899320173526911e-02
1.894998989663055451e-03,-4.188211136158488668e-02,-1.096016228795082884e-02,2.340714679044573858e-03,-3.684278768868842757e-03,7.128380672294298490e-03,5.110827498469997128e-03,1.368899320173526911e-02
1.894998989663055451e-03,-4.188211136158488668e-02,-1.096016228795082884e-02,2.340714679044573858e-03,-3.684278768868842757e-03,7.128380672294298490e-03,5.110827498469997128e-03,1.368899320173526911e-02
1.894998989663055451e-03,-4.188211136158488668e-02,-1.096016228795082884e-02,2.340714679044573858e-03,-3.684278768868842757e-03,7.128380672294298490e-03,5.110827498469997128e-03,1.368899320173526911e-02
1.894998989663055451e-03,-4.188211136158488668e-02,-1.096016228795082884e-02,2.340714679044573858e-03,-3.684278768868842757e-03,7.128380672294298490e-03,5.110827498469997128e-03,1.368899320173526911e-02
1.269818072830644282e-02,-4.225610309392943686e-02,1.127643535690217927e-02,-6.554225027087053415e-03,6.819242718696603414e-04,4.145238637981459202e-03,-7.348196961572869487e-03,-1.538557172208431315e-02
-8.291849994882119490e-02,1.116176945179151031e-01,-4.174424338645644876e-03,-4.350170523355572846e-03,-3.630212263006939860e-02,3.769902313974832914e-02,9.678276737995972212e-02,-2.128270253413343249e-02
1.269818072830644282e-02,-4.225610309392943686e-02,1.127643535690217927e-02,-6.554225027087053415e-03,6.819242718696603414e-04,4.145238637981459202e-03,-7.348196961572869487e-03,-1.538557172208431315e-02
1.269818072830644282e-02,-4.225610309392943686e-02,1.127643535690217927e-02,-6.554225027087053415e-03,6.819242718696603414e-04,4.145238637981459202e-03,-7.348196961572869487e-03,-1.538557172208431315e-02
-1.000246577705531104e-02,7.164613148794783670e-02,1.736450178579329335e-03,1.525907819548898646e-04,-1.711361111778135491e-02,2.170868557018750845e-03,-1.333088600707204099e-02,-9.467381008331911957e-03
1.919697594221019821e-01,-1.256199960954884620e-01,6.143158618585030546e-03,2.950006697096933458e-02,-3.276024357845089968e-02,6.530274885462908699e-03,-2.211482576402568762e-02,-7.142120577275225084e-03
5.171273594683613306e-02,-3.291026458365198248e-02,4.096740753219901138e-03,-7.425841034917439465e-03,3.841862637091352471e-03,8.500983045187291559e-03,-1.060579316073493802e-02,-1.209327128280126423e-02
1.269818072830644282e-02,-4.225610309392943686e-02,1.127643535690217927e-02,-6.554225027087053415e-03,6.819242718696603414e-04,4.145238637981459202e-03,-7.348196961572869487e-03,-1.538557172208431315e-02
6.470289805041625972e-03,-9.535588315292761741e-03,2.244431045556367563e-03,3.834880043499140634e-03,7.212885101334557108e-04,1.195983346180416393e-02,1.874699694701895472e-02,-1.651897024414258203e-02
6.470289805041625972e-03,-9.535588315292761741e-03,2.244431045556367563e-03,3.834880043499140634e-03,7.212885101334557108e-04,1.195983346180416393e-02,1.874699694701895472e-02,-1.651897024414258203e-02
5.672153345086933078e-03,1.663873621997080318e-02,7.408362398293776366e-03,2.875360677542825212e-03,3.415820955756457885e-03,7.589444935106270940e-03,1.079519778539265659e-02,-2.232791490805687701e-02
-1.255401898324664568e-02,5.140199420332821484e-02,4.738174697867672015e-03,4.142691787598991662e-03,-5.909251877158084795e-03,6.022073049407199001e-03,7.542388643807444552e-05,-6.054605845497576695e-03
-1.068784938566630198e-02,-5.673586243602817165e-03,-5.217723695573513350e-03,2.095455769121567190e-03,1.096731192676068944e-02,-1.856612603665867833e-02,-3.774533825128693725e-03,2.982913027123542532e-02
-8.374274232248133179e-03,1.075585340444530635e-02,2.197100058915395226e-02,1.088624102625498739e-02,-4.118102656282287416e-02,1.405574910525188813e-02,-1.314062928324532566e-02,-2.956553060617665360e-02
-1.092514009138404775e-02,-2.100631948451172487e-02,-9.802824948416059142e-03,1.824623272862462269e-03,8.321093132729976208e-03,6.091146257751335613e-02,1.040476100762435449e-02,-1.779802796778185564e-02
-1.068784938566630198e-02,-5.673586243602817165e-03,-5.217723695573513350e-03,2.095455769121567190e-03,1.096731192676068944e-02,-1.856612603665867833e-02,-3.774533825128693725e-03,2.982913027123542532e-02
-1.068784938566630198e-02,-5.673586243602817165e-03,-5.217723695573513350e-03,2.095455769121567190e-03,1.096731192676068944e-02,-1.856612603665867833e-02,-3.774533825128693725e-03,2.982913027123542532e-02
-1.068784938566630198e-02,-5.673586243602817165e-03,-5.217723695573513350e-03,2.095455769121567190e-03,1.096731192676068944e-02,-1.856612603665867833e-02,-3.774533825128693725e-03,2.982913027123542532e-02
-7.547387857162349278e-02,3.514485788816483405e-03,-5.698759146255959196e-02,1.875959880774433555e-02,1.079004528842363586e-01,-1.596600014484268401e-02,-2.882540456592302958e-02,3.480619006539197036e-02
-4.858421823784957877e-02,1.863574028924953330e-01,3.908154665699358106e-03,-1.588933330387534357e-02,8.895315277842546706e-03,7.073732048943651325e-03,-7.171764354320449460e-03,4.292966505417836545e-03
-1.571710696506651433e-02,5.004464437346346772e-02,2.966171522369826733e-03,2.584919216203494428e-04,2.530538916210990467e-04,9.539457904017039280e-04,3.091833421056942345e-03,4.706955440116906107e-03
-1.571710696506651433e-02,5.004464437346346772e-02,2.966171522369826733e-03,2.584919216203494428e-04,2.530538916210990467e-04,9.539457904017039280e-04,3.091833421056942345e-03,4.706955440116906107e-03
-2.040417298035141630e-02,4.350764493508827435e-01,6.162359918468722150e-03,3.536498147123089218e-03,-1.035706043454508174e-01,-8.098940462609510380e-03,3.866149285806288940e-03,1.216419310146864621e-02
-1.571710696506651433e-02,5.004464437346346772e-02,2.966171522369826733e-03,2.584919216203494428e-04,2.530538916210990467e-04,9.539457904017039280e-04,3.091833421056942345e-03,4.706955440116906107e-03
-1.571710696506651433e-02,5.004464437346346772e-02,2.966171522369826733e-03,2.584919216203494428e-04,2.530538916210990467e-04,9.539457904017039280e-04,3.091833421056942345e-03,4.706955440116906107e-03
2.274107932257432019e-01,2.669248167390576507e-02,4.978995990805580758e-03,-3.250848915137842000e-03,-5.838887372898965422e-02,-2.295491229434282535e-03,-1.147360705446556772e-02,1.403520096506495618e-03
-1.571710696506651433e-02,5.004464437346346772e-02,2.966171522369826733e-03,2.584919216203494428e-04,2.530538916210990467e-04,9.539457904017039280e-04,3.091833421056942345e-03,4.706955440116906107e-03
-1.571710696506651433e-02,5.004464437346346772e-02,2.966171522369826733e-03,2.584919216203494428e-04,2.530538916210990467e-04,9.539457904017039280e-04,3.091833421056942345e-03,4.706955440116906107e-03
-1.571710696506651433e-02,5.004464437346346772e-02,2.966171522369826733e-03,2.584919216203494428e-04,2.530538916210990467e-04,9.539457904017039280e-04,3.091833421056942345e-03,4.706955440116906107e-03
-1.255390724869272223e-02,-8.545043421624477081e-03,3.588101982792154632e-04,2.974224648771909597e-03,-8.770971529402857292e-02,2.331756428864845479e-02,2.078976161151297464e-01,-4.585896744805524616e-02
-1.209712387832162159e-02,-2.002187355165322563e-02,-2.120407316581392979e-03,1.442137346212067628e-02,-1.192288755673816675e-01,-1.160283387128495380e-01,7.585853711048826109e-02,3.359471180287672554e-01
7.225951843679037645e-02,-1.106657328552583704e-02,-7.573041662739588009e-03,4.230001958633202927e-03,-7.398604264828295696e-02,1.880235679912607705e-02,1.693521345540447698e-01,-3.928259137521938199e-02
-1.255390724869272223e-02,-8.545043421624477081e-03,3.588101982792154632e-04,2.974224648771909597e-03,-8.770971529402857292e-02,2.331756428864845479e-02,2.078976161151297464e-01,-4.585896744805524616e-02
-7.376354483530317245e-03,6.936414128885400043e-02,-3.607564291050603666e-02,-3.372089908618920717e-02,-7.466870301917627635e-03,-1.786509402762284388e-03,9.153763178228061306e-03,-6.451919466773944553e-03
8.964290878067644394e-03,2.001939357201133057e-02,-4.848707688660835666e-03,1.306170815865265178e-02,-7.101598277584772467e-02,-3.249969168684122001e-02,6.675676647055348023e-02,-1.617874545853562399e-02
-1.255390724869272223e-02,-8.545043421624477081e-03,3.588101982792154632e-04,2.974224648771909597e-03,-8.770971529402857292e-02,2.331756428864845479e-02,2.078976161151297464e-01,-4.585896744805524616e-02
8.595428708259401224e-03,1.524148798375397906e-02,-3.581707324421172598e-03,7.741235013182441727e-02,-1.841253784426769013e-02,-1.588392690296752674e-02,-8.957402997621143406e-03,-5.009704077048758239e-04
-1.959000056131132532e-03,8.374985141221088364e-03,-1.476217921832663526e-03,5.889709419454166456e-02,-4.247047573800534319e-03,7.823608394152678502e-02,-7.627310214581801973e-03,-7.007362174296093149e-02
8.595428708259401224e-03,1.524148798375397906e-02,-3.581707324421172598e-03,7.741235013182441727e-02,-1.841253784426769013e-02,-1.588392690296752674e-02,-8.957402997621143406e-03,-5.009704077048758239e-04
-6.289620154675527701e-03,-3.018041428847418814e-02,3.946267737297445150e-03,6.223178590541631611e-02,-3.578332956657742647e-02,-1.592772197220500979e-02,2.397625383114200884e-02,1.467075642482463041e-02
6.653394381000293789e-03,-4.059438165789093673e-03,1.309314290105032669e-04,8.039726205849853646e-02,-2.017973491148202306e-02,-5.437418111585801128e-02,-1.594383532501989290e-02,4.441044537626472055e-02
8.595428708259401224e-03,1.524148798375397906e-02,-3.581707324421172598e-03,7.741235013182441727e-02,-1.841253784426769013e-02,-1.588392690296752674e-02,-8.957402997621143406e-03,-5.009704077048758239e-04
4.207614237178508576e-02,1.894850048937779183e-02,1.065386399618076588e-02,7.789275720086694110e-02,-1.724388396609415411e-02,-3.754425862444950301e-02,8.179955852530420429e-03,-3.677324036283106251e-02
8.595428708259401224e-03,1.524148798375397906e-02,-3.581707324421172598e-03,7.741235013182441727e-02,-1.841253784426769013e-02,-1.588392690296752674e-02,-8.957402997621143406e-03,-5.009704077048758239e-04
8.595428708259401224e-03,1.524148798375397906e-02,-3.581707324421172598e-03,7.741235013182441727e-02,-1.841253784426769013e-02,-1.588392690296752674e-02,-8.957402997621143406e-03,-5.009704077048758239e-04
1.729672906490416912e-02,1.258763478350790645e-02,3.015005913485217445e-03,5.458904137924930344e-02,-1.053463008775145857e-02,-1.014998091078094314e-02,-6.096262167803511399e-03,2.305577362874711503e-02
-5.138074964228169818e-03,9.805212652218063193e-03,-5.569501256306852021e-05,3.439557212774498052e-02,-7.125286750725825027e-03,4.445041798206697189e-03,-5.473656746820404484e-03,2.152010648505787993e-02
7.839466672241079872e-04,5.984962230345093614e-03,6.672782267869459619e-03,3.179912723861640089e-02,-9.111524012962717023e-03,-7.730449514916723323e-03,-5.406037028072864167e-03,2.103734567268898334e-02
6.723016250623323198e-02,-3.614756268263579625e-02,-9.909708893355302205e-04,1.317324957222473260e-02,-4.264571578641273425e-02,7.183734886582178458e-02,1.317969294598593175e-02,-5.561534539482425321e-02
7.839466672241079872e-04,5.984962230345093614e-03,6.672782267869459619e-03,3.179912723861640089e-02,-9.111524012962717023e-03,-7.730449514916723323e-03,-5.406037028072864167e-03,2.103734567268898334e-02
7.839466672241079872e-04,5.984962230345093614e-03,6.672782267869459619e-03,3.179912723861640089e-02,-9.111524012962717023e-03,-7.730449514916723323e-03,-5.406037028072864167e-03,2.103734567268898334e-02
7.839466672241079872e-04,5.984962230345093614e-03,6.672782267869459619e-03,3.179912723861640089e-02,-9.111524012962717023e-03,-7.730449514916723323e-03,-5.406037028072864167e-03,2.103734567268898334e-02
7.839466672241079872e-04,5.984962230345093614e-03,6.672782267869459619e-03,3.179912723861640089e-02,-9.111524012962717023e-03,-7.730449514916723323e-03,-5.406037028072864167e-03,2.103734567268898334e-02
7.839466672241079872e-04,5.984962230345093614e-03,6.672782267869459619e-03,3.179912723861640089e-02,-9.111524012962717023e-03,-7.730449514916723323e-03,-5.406037028072864167e-03,2.103734567268898334e-02
7.839466672241079872e-04,5.984962230345093614e-03,6.672782267869459619e-03,3.179912723861640089e-02,-9.111524012962717023e-03,-7.730449514916723323e-03,-5.406037028072864167e-03,2.103734567268898334e-02
7.839466672241079872e-04,5.984962230345093614e-03,6.672782267869459619e-03,3.179912723861640089e-02,-9.111524012962717023e-03,-7.730449514916723323e-03,-5.406037028072864167e-03,2.103734567268898334e-02
7.048806257001956517e-03,9.965866563002089701e-03,9.585701641621672750e-03,7.917837972235791666e-02,-6.297629326251656667e-02,-3.638213569869531983e-02,3.227287276832682770e-03,-2.323640648518142914e-03
7.839466672241079872e-04,5.984962230345093614e-03,6.672782267869459619e-03,3.179912723861640089e-02,-9.111524012962717023e-03,-7.730449514916723323e-03,-5.406037028072864167e-03,2.103734567268898334e-02
-7.183362484064680260e-03,2.305523436810086313e-02,9.338915316801341820e-03,1.558960685912822997e-01,-1.851840622880734574e-02,-1.667085938248532434e-02,-1.643493132933860831e-02,3.185733907574743451e-02
1.247975803826270255e-02,6.544062061288018076e-04,7.748028077166332146e-05,2.305509169317616555e-02,-7.828858548449075389e-03,1.762833570703529681e-03,-1.236056806091846618e-03,3.978971920251381592e-03
1.247975803826270255e-02,6.544062061288018076e-04,7.748028077166332146e-05,2.305509169317616555e-02,-7.828858548449075389e-03,1.762833570703529681e-03,-1.236056806091846618e-03,3.978971920251381592e-03
1.247975803826270255e-02,6.544062061288018076e-04,7.748028077166332146e-05,2.305509169317616555e-02,-7.828858548449075389e-03,1.762833570703529681e-03,-1.236056806091846618e-03,3.978971920251381592e-03
1.247975803826270255e-02,6.544062061288018076e-04,7.748028077166332146e-05,2.305509169317616555e-02,-7.828858548449075389e-03,1.762833570703529681e-03,-1.236056806091846618e-03,3.978971920251381592e-03
1.247975803826270255e-02,6.544062061288018076e-04,7.748028077166332146e-05,2.305509169317616555e-02,-7.828858548449075389e-03,1.762833570703529681e-03,-1.236056806091846618e-03,3.978971920251381592e-03
1.247975803826270255e-02,6.544062061288018076e-04,7.748028077166332146e-05,2.305509169317616555e-02,-7.828858548449075389e-03,1.762833570703529681e-03,-1.236056806091846618e-03,3.978971920251381592e-03
1.247975803826270255e-02,6.544062061288018076e-04,7.748028077166332146e-05,2.305509169317616555e-02,-7.828858548449075389e-03,1.762833570703529681e-03,-1.236056806091846618e-03,3.978971920251381592e-03
1.874461762804055520e-02,4.635310538785789546e-03,2.990399654523878160e-03,7.043434417691769867e-02,-6.169362779800293545e-02,-2.688885261307504340e-02,7.397267498813695982e-03,-1.938201440095574726e-02
1.247975803826270255e-02,6.544062061288018076e-04,7.748028077166332146e-05,2.305509169317616555e-02,-7.828858548449075389e-03,1.762833570703529681e-03,-1.236056806091846618e-03,3.978971920251381592e-03
1.247975803826270255e-02,6.544062061288018076e-04,7.748028077166332146e-05,2.305509169317616555e-02,-7.828858548449075389e-03,1.762833570703529681e-03,-1.236056806091846618e-03,3.978971920251381592e-03
-8.195284624063350898e-02,4.576062271454246766e-02,-2.273899320129525985e-03,2.327367703737854079e-02,2.395094478254548333e-03,-4.583158452695985929e-02,-4.761722556262175388e-02,1.025802073539779959e-02
1.247975803826270255e-02,6.544062061288018076e-04,7.748028077166332146e-05,2.305509169317616555e-02,-7.828858548449075389e-03,1.762833570703529681e-03,-1.236056806091846618e-03,3.978971920251381592e-03
1.247975803826270255e-02,6.544062061288018076e-04,7.748028077166332146e-05,2.305509169317616555e-02,-7.828858548449075389e-03,1.762833570703529681e-03,-1.236056806091846618e-03,3.978971920251381592e-03
1.247975803826270255e-02,6.544062061288018076e-04,7.748028077166332146e-05,2.305509169317616555e-02,-7.828858548449075389e-03,1.762833570703529681e-03,-1.236056806091846618e-03,3.978971920251381592e-03
1.247975803826270255e-02,6.544062061288018076e-04,7.748028077166332146e-05,2.305509169317616555e-02,-7.828858548449075389e-03,1.762833570703529681e-03,-1.236056806091846618e-03,3.978971920251381592e-03
1.247975803826270255e-02,6.544062061288018076e-04,7.748028077166332146e-05,2.305509169317616555e-02,-7.828858548449075389e-03,1.762833570703529681e-03,-1.236056806091846618e-03,3.978971920251381592e-03
-8.663477192585649841e-03,1.140003731374592127e-01,-2.607649697196096940e-03,-6.970936954446189937e-02,8.219142241914599578e-02,-2.465463071119529306e-03,-9.348412351653498376e-03,1.964706787854761036e-02
-8.663477192585649841e-03,1.140003731374592127e-01,-2.607649697196096940e-03,-6.970936954446189937e-02,8.219142241914599578e-02,-2.465463071119529306e-03,-9.348412351653498376e-03,1.964706787854761036e-02
-2.346224981117657656e-03,1.000517383347422767e-01,-3.353174250551929463e-03,-7.522849582972664095e-02,7.697121712990806497e-02,-1.336844305044818104e-02,-1.014833013100014010e-02,4.707279044207994881e-03
-8.663477192585649841e-03,1.140003731374592127e-01,-2.607649697196096940e-03,-6.970936954446189937e-02,8.219142241914599578e-02,-2.465463071119529306e-03,-9.348412351653498376e-03,1.964706787854761036e-02
-8.663477192585649841e-03,1.140003731374592127e-01,-2.607649697196096940e-03,-6.970936954446189937e-02,8.219142241914599578e-02,-2.465463071119529306e-03,-9.348412351653498376e-03,1.964706787854761036e-02
9.419942767055447530e-02,1.149800747290234681e-01,-2.969771204820041092e-03,-7.026726812406405842e-02,6.805056241104885661e-02,-1.185406418557796368e-02,-2.449303780043513359e-02,-2.451826496363235502e-03
-8.663477192585649841e-03,1.140003731374592127e-01,-2.607649697196096940e-03,-6.970936954446189937e-02,8.219142241914599578e-02,-2.465463071119529306e-03,-9.348412351653498376e-03,1.964706787854761036e-02
-8.663477192585649841e-03,1.140003731374592127e-01,-2.607649697196096940e-03,-6.970936954446189937e-02,8.219142241914599578e-02,-2.465463071119529306e-03,-9.348412351653498376e-03,1.964706787854761036e-02
9.183677023304134129e-03,1.272736582352142209e-01,-6.783886714304496017e-03,-4.477219485218308925e-02,3.382350866867952360e-02,-3.037755911512670520e-03,-2.188485955707082306e-02,2.197843982456400974e-02
9.183677023304134129e-03,1.272736582352142209e-01,-6.783886714304496017e-03,-4.477219485218308925e-02,3.382350866867952360e-02,-3.037755911512670520e-03,-2.188485955707082306e-02,2.197843982456400974e-02
9.183677023304134129e-03,1.272736582352142209e-01,-6.783886714304496017e-03,-4.477219485218308925e-02,3.382350866867952360e-02,-3.037755911512670520e-03,-2.188485955707082306e-02,2.197843982456400974e-02
9.183677023304134129e-03,1.272736582352142209e-01,-6.783886714304496017e-03,-4.477219485218308925e-02,3.382350866867952360e-02,-3.037755911512670520e-03,-2.188485955707082306e-02,2.197843982456400974e-02
-1.733401612360600808e-02,1.557813327869434217e-01,-5.360675149940733082e-03,-3.385125075199383465e-02,2.777816245420372532e-02,-8.816197426349274904e-03,-1.171937615126788720e-02,2.397795508463480135e-02
5.232452271189119708e-02,6.660388780138125353e-02,-5.772984082668133291e-04,-3.116921880047470242e-02,2.083488308537777278e-02,4.036721923857369138e-03,-2.100505436027629014e-02,9.564651123156841031e-03
-3.286711127278307831e-02,1.363127585190319624e-01,9.419831433295312645e-04,-1.614782522549568916e-02,8.642261386221447225e-03,6.119786258541948590e-03,-1.026359777537740221e-02,-4.139889346990708631e-04
6.013989847831328200e-02,7.346124536732147325e-02,9.236186204892717772e-03,-1.431481018899683454e-02,3.231710845668937706e-03,-1.075462426270766200e-02,-3.259577034520082239e-02,-1.492710627016833160e-03
-3.162585286400216439e-02,8.407479996490306584e-02,-4.124629761898990395e-04,2.595732438013502799e-02,-1.430126997095031507e-02,-3.757761599730480295e-02,-4.237407365763831701e-02,5.892604501880296247e-02
5.930605912206645541e-02,1.193720277522236917e-01,1.160930751325437056e-02,-1.369676339400205389e-02,-5.443286820024260259e-02,5.814605607265093713e-03,-2.623653255728028259e-03,-2.857969643861336256e-02
-3.286711127278307831e-02,1.363127585190319624e-01,9.419831433295312645e-04,-1.614782522549568916e-02,8.642261386221447225e-03,6.119786258541948590e-03,-1.026359777537740221e-02,-4.139889346990708631e-04
-6.184831392442582780e-03,-5.543023233220839563e-02,5.805519103481011911e-02,3.203931422252960515e-02,-6.164020390943349137e-02,-2.658984644762803565e-03,1.806889082924013467e-03,9.227284489276814036e-03
4.396058328216548121e-03,-3.099292616564108122e-02,6.547515830345010390e-02,-2.958778766110938159e-03,-7.184421015610711891e-02,-2.251864063509864157e-03,-7.304559877921878823e-03,7.319741056097148028e-03
4.396058328216548121e-03,-3.099292616564108122e-02,6.547515830345010390e-02,-2.958778766110938159e-03,-7.184421015610711891e-02,-2.251864063509864157e-03,-7.304559877921878823e-03,7.319741056097148028e-03
4.396058328216548121e-03,-3.099292616564108122e-02,6.547515830345010390e-02,-2.958778766110938159e-03,-7.184421015610711891e-02,-2.251864063509864157e-03,-7.304559877921878823e-03,7.319741056097148028e-03
4.396058328216548121e-03,-3.099292616564108122e-02,6.547515830345010390e-02,-2.958778766110938159e-03,-7.184421015610711891e-02,-2.251864063509864157e-03,-7.304559877921878823e-03,7.319741056097148028e-03
4.396058328216548121e-03,-3.099292616564108122e-02,6.547515830345010390e-02,-2.958778766110938159e-03,-7.184421015610711891e-02,-2.251864063509864157e-03,-7.304559877921878823e-03,7.319741056097148028e-03
1.771704270444584076e-02,-7.660657967105448385e-02,6.535380940460105981e-02,-4.257688036789025743e-03,-7.519837191505888974e-02,-5.209770743167646198e-03,-5.991508574350003224e-02,1.250864956202821969e-03
4.396058328216548121e-03,-3.099292616564108122e-02,6.547515830345010390e-02,-2.958778766110938159e-03,-7.184421015610711891e-02,-2.251864063509864157e-03,-7.304559877921878823e-03,7.319741056097148028e-03
4.396058328216548121e-03,-3.099292616564108122e-02,6.547515830345010390e-02,-2.958778766110938159e-03,-7.184421015610711891e-02,-2.251864063509864157e-03,-7.304559877921878823e-03,7.319741056097148028e-03
4.396058328216548121e-03,-3.099292616564108122e-02,6.547515830345010390e-02,-2.958778766110938159e-03,-7.184421015610711891e-02,-2.251864063509864157e-03,-7.304559877921878823e-03,7.319741056097148028e-03
4.396058328216548121e-03,-3.099292616564108122e-02,6.547515830345010390e-02,-2.958778766110938159e-03,-7.184421015610711891e-02,-2.251864063509864157e-03,-7.304559877921878823e-03,7.319741056097148028e-03
1.332098437622929524e-02,-4.561365350541333324e-02,-1.213488988490673382e-04,-1.298909270678085632e-03,-3.354161758951771689e-03,-2.957906679657777271e-03,-5.261052586557812827e-02,-6.068876099894323674e-03
1.332098437622929524e-02,-4.561365350541333324e-02,-1.213488988490673382e-04,-1.298909270678085632e-03,-3.354161758951771689e-03,-2.957906679657777271e-03,-5.261052586557812827e-02,-6.068876099894323674e-03
5.025808630814485381e-03,-3.634900481687479423e-02,1.959018683882645696e-03,-1.049077253544788632e-02,-6.517014769789505890e-02,-1.953772724162042979e-02,4.446644403450270705e-02,-4.489217721992054891e-03
4.129337477201885931e-03,-1.045801948803671243e-02,-3.020325151709539382e-03,-1.019161696351056703e-02,-4.285018080158302552e-03,4.432134081122252739e-02,-1.576542861241246943e-02,-2.946435591661740114e-02
1.332098437622929524e-02,-4.561365350541333324e-02,-1.213488988490673382e-04,-1.298909270678085632e-03,-3.354161758951771689e-03,-2.957906679657777271e-03,-5.261052586557812827e-02,-6.068876099894323674e-03
2.055585256009630560e-02,-3.958610724495772309e-02,-3.701282357382103261e-03,1.833939758356215640e-03,-4.873130076337887917e-02,3.125599426362167532e-02,9.230349170038953943e-02,-3.292368189508704246e-02
3.098223142695121120e-03,-5.876681675237517555e-02,-2.077518977895085207e-03,1.534557533609290630e-03,1.446102720667632232e-03,9.531100110230297795e-03,-1.887193347104344082e-02,-3.909900578103350788e-03
4.294959185943945934e-02,-1.008449567730333590e-01,-5.560741705006411878e-03,-4.466694779055035980e-03,5.724085568103158550e-03,1.676633348290698655e-02,-1.568623427404760434e-02,-2.337530675734159069e-02
3.098223142695121120e-03,-5.876681675237517555e-02,-2.077518977895085207e-03,1.534557533609290630e-03,1.446102720667632232e-03,9.531100110230297795e-03,-1.887193347104344082e-02,-3.909900578103350788e-03
3.098223142695121120e-03,-5.876681675237517555e-02,-2.077518977895085207e-03,1.534557533609290630e-03,1.446102720667632232e-03,9.531100110230297795e-03,-1.887193347104344082e-02,-3.909900578103350788e-03
3.098223142695121120e-03,-5.876681675237517555e-02,-2.077518977895085207e-03,1.534557533609290630e-03,1.446102720667632232e-03,9.531100110230297795e-03,-1.887193347104344082e-02,-3.909900578103350788e-03
9.137653742160186526e-03,-2.331579018056810157e-02,2.269893749455503991e-03,7.896043797177862075e-03,-1.362919889427710064e-02,-3.226718376217768691e-03,-1.832114575612475357e-02,1.657612998065423685e-02
1.020827066517514259e-01,-3.040960819063057846e-02,-7.469053379317389108e-02,-1.847290619132077316e-01,1.443236519078597013e-01,-6.747427090098420330e-03,-5.148945383603263648e-02,3.744278836819250802e-03
1.997714883339822556e-01,-1.602536767185604866e-02,-9.310342566243290374e-02,1.141699309793633640e-02,-1.621251096176179116e-02,9.515046317660466385e-04,-1.676968793072894023e-02,-5.704722054393309913e-03
6.991600500471414903e-02,-1.934774268750777404e-02,3.533138278785527770e-04,7.857208867178515702e-03,-1.986634838893889393e-02,2.404695584433292222e-03,6.599801554962979192e-04,-9.248678736026149511e-03
1.492160730027640159e-01,-2.359049469139528829e-02,-7.673180498425111185e-02,7.429309426600081041e-03,-9.414290071816312083e-03,-2.350406087980030923e-02,-1.945332125828606873e-02,8.226499090303939637e-03
1.475962887563089798e-01,-1.252463835733825040e-02,-8.189256408651633679e-02,1.401199886581899236e-02,-8.119537018260580136e-03,6.836644807245481625e-03,-2.055409192837354820e-02,-2.554960989300082366e-05
1.560390106505998020e-01,-1.727180807213404487e-02,-8.496384284921226770e-02,1.403312698132690682e-02,-6.954270707635141699e-03,4.920911931015879877e-03,-2.153452330391912584e-02,-3.726662474001636062e-03
4.373247768338233560e-02,1.246440400277995780e-03,-8.139582813220660323e-03,-2.616133883390573452e-03,-9.258240254126651192e-03,-3.969407299249832696e-03,4.764835373190182133e-03,-1.978059580391672550e-03
6.407475955720579042e-02,2.919775212706250331e-02,-1.551542421312052979e-02,-3.700028432158743164e-02,1.286472499624911198e-03,3.370928683071663240e-02,-1.594634736570039665e-02,-5.208363282624962898e-02
7.028911271065803323e-02,1.341495333362661621e-02,-5.359686714521137360e-03,4.632206246070804181e-03,-1.995148499703255224e-02,-3.426442691743901339e-03,-5.169853636753174789e-03,-1.660909818342360539e-02
4.373247768338233560e-02,1.246440400277995780e-03,-8.139582813220660323e-03,-2.616133883390573452e-03,-9.258240254126651192e-03,-3.969407299249832696e-03,4.764835373190182133e-03,-1.978059580391672550e-03
4.632825847291226207e-02,4.046242694573534346e-03,-6.708381038096049125e-03,-2.675229738402284735e-04,-1.318827763101908766e-02,1.558737973813998767e-03,9.447799669146734330e-03,-2.161999518569646811e-02
4.373247768338233560e-02,1.246440400277995780e-03,-8.139582813220660323e-03,-2.616133883390573452e-03,-9.258240254126651192e-03,-3.969407299249832696e-03,4.764835373190182133e-03,-1.978059580391672550e-03
5.022325726808315322e-02,4.167949992079806980e-03,-1.787793547393129456e-02,4.904289806424854542e-02,2.807511559571113785e-03,-1.138720279170289500e-03,-5.061859910323293459e-03,-2.389215157718147225e-03
1.077993002060752686e-01,1.919373984333516648e-03,-2.515824932311778658e-02,-1.084885528762100787e-02,2.234109621996598072e-03,-8.743199517591053460e-03,1.377562361085155843e-03,2.270577932316834597e-03
2.505226730416326708e-02,-8.672904926221934596e-03,-9.838971906214851598e-03,-7.361105396400044465e-03,8.332411510901558543e-03,-9.129536625547055723e-03,-1.296768129429734192e-04,9.563370734254452235e-04
6.244203251878269884e-02,-4.976594533031159992e-03,-1.731910685529602228e-02,-3.521352716682859922e-03,1.529816157862357896e-02,-1.212225941595661965e-02,-2.004073157828179658e-02,2.630653334318376526e-03
7.746695728905443439e-03,-8.470866543554509201e-03,-9.685427219992643819e-03,-1.593017084426050526e-03,1.490698571429919725e-02,-2.356960575975169427e-03,-4.766476742922462441e-04,-4.444059394645118112e-04
6.244203251878269884e-02,-4.976594533031159992e-03,-1.731910685529602228e-02,-3.521352716682859922e-03,1.529816157862357896e-02,-1.212225941595661965e-02,-2.004073157828179658e-02,2.630653334318376526e-03
2.505226730416326708e-02,-8.672904926221934596e-03,-9.838971906214851598e-03,-7.361105396400044465e-03,8.332411510901558543e-03,-9.129536625547055723e-03,-1.296768129429734192e-04,9.563370734254452235e-04
6.406682252269292610e-02,6.729335840555244466e-04,-1.701866650989712279e-02,-8.232721404230432249e-03,1.149234987612324753e-02,-4.773792218341225101e-03,-3.387273012105044504e-03,4.248637512708505412e-03
1.764543228606468839e-02,5.993377362820773244e-04,-9.602628444425855697e-03,-8.122778139080716331e-03,1.274037511663926245e-02,-1.593359518414007303e-02,-4.764721019854187972e-02,1.755587663952026811e-02
2.505226730416326708e-02,-8.672904926221934596e-03,-9.838971906214851598e-03,-7.361105396400044465e-03,8.332411510901558543e-03,-9.129536625547055723e-03,-1.296768129429734192e-04,9.563370734254452235e-04
6.225823230097586591e-02,8.256040443645997623e-03,-1.316820947225072133e-02,-1.727715857561159130e-03,-2.173820675959273890e-02,1.139566512305314749e-01,5.355962147064911166e-02,-4.914299985803032011e-02
2.505226730416326708e-02,-8.672904926221934596e-03,-9.838971906214851598e-03,-7.361105396400044465e-03,8.332411510901558543e-03,-9.129536625547055723e-03,-1.296768129429734192e-04,9.563370734254452235e-04
2.505226730416326708e-02,-8.672904926221934596e-03,-9.838971906214851598e-03,-7.361105396400044465e-03,8.332411510901558543e-03,-9.129536625547055723e-03,-1.296768129429734192e-04,9.563370734254452235e-04
2.505226730416326708e-02,-8.672904926221934596e-03,-9.838971906214851598e-03,-7.361105396400044465e-03,8.332411510901558543e-03,-9.129536625547055723e-03,-1.296768129429734192e-04,9.563370734254452235e-04
6.406682252269292610e-02,6.729335840555244466e-04,-1.701866650989712279e-02,-8.232721404230432249e-03,1.149234987612324753e-02,-4.773792218341225101e-03,-3.387273012105044504e-03,4.248637512708505412e-03
6.406682252269292610e-02,6.729335840555244466e-04,-1.701866650989712279e-02,-8.232721404230432249e-03,1.149234987612324753e-02,-4.773792218341225101e-03,-3.387273012105044504e-03,4.248637512708505412e-03
2.505226730416326708e-02,-8.672904926221934596e-03,-9.838971906214851598e-03,-7.361105396400044465e-03,8.332411510901558543e-03,-9.129536625547055723e-03,-1.296768129429734192e-04,9.563370734254452235e-04
2.505226730416326708e-02,-8.672904926221934596e-03,-9.838971906214851598e-03,-7.361105396400044465e-03,8.332411510901558543e-03,-9.129536625547055723e-03,-1.296768129429734192e-04,9.563370734254452235e-04
3.966735326072597795e-02,-9.247126735250547555e-03,-8.502497645851775842e-04,6.303275061531625392e-04,5.094913324632546064e-03,9.105931200736936890e-03,-4.456073973733376548e-03,-1.663682004033413542e-02
3.901455521852965208e-02,9.345838510277452646e-03,-7.179694603682275529e-03,-8.716160078303884350e-04,3.159938365221691588e-03,4.355744407205831489e-03,-3.257596199162071139e-03,3.292300439283056719e-03
5.820058508604582237e-02,-3.230938254035749246e-02,-8.607515489384888127e-03,-7.735617272339014375e-03,1.363594059625503931e-02,5.109726108983215880e-03,-6.132820265720878225e-03,-1.155288395724471916e-02
3.901455521852965208e-02,9.345838510277452646e-03,-7.179694603682275529e-03,-8.716160078303884350e-04,3.159938365221691588e-03,4.355744407205831489e-03,-3.257596199162071139e-03,3.292300439283056719e-03
3.901455521852965208e-02,9.345838510277452646e-03,-7.179694603682275529e-03,-8.716160078303884350e-04,3.159938365221691588e-03,4.355744407205831489e-03,-3.257596199162071139e-03,3.292300439283056719e-03
3.901455521852965208e-02,9.345838510277452646e-03,-7.179694603682275529e-03,-8.716160078303884350e-04,3.159938365221691588e-03,4.355744407205831489e-03,-3.257596199162071139e-03,3.292300439283056719e-03
3.901455521852965208e-02,9.345838510277452646e-03,-7.179694603682275529e-03,-8.716160078303884350e-04,3.159938365221691588e-03,4.355744407205831489e-03,-3.257596199162071139e-03,3.292300439283056719e-03
5.059590429428527381e-02,5.362537020157038918e-03,-7.609101903958458493e-03,2.239621971742209068e-03,2.113594882469144089e-03,-1.385684805669200673e-02,-1.341225329696260626e-02,1.382629297537807389e-02
2.764241923123534825e-02,2.849791108555011290e-03,-5.584593912104257249e-03,-8.911465586506890722e-04,1.472258509323835264e-02,-8.046646645642209147e-03,-8.933999617680347602e-03,-9.660672393840479899e-04
6.798225164237028939e-02,-3.172604301108388619e-02,-8.816829273868405370e-03,-8.302167636138049409e-03,1.250220308809461833e-02,-1.719645610975763586e-02,-3.905360699330812091e-03,1.261514391228033515e-02
4.742366047086364611e-02,-6.217840257092105069e-03,-4.517169119376312136e-04,-2.583975369855890779e-03,6.757922578023592072e-03,-1.522484699112814461e-03,-1.863442679574608615e-02,4.902059811942935906e-03
8.481342568548308480e-02,-2.521529863901312250e-03,-7.931851861018805044e-03,1.255777309861292896e-03,1.372367264574561249e-02,-4.515207489522379478e-03,-3.854548156108490720e-02,6.576376072835858969e-03
8.481342568548308480e-02,-2.521529863901312250e-03,-7.931851861018805044e-03,1.255777309861292896e-03,1.372367264574561249e-02,-4.515207489522379478e-03,-3.854548156108490720e-02,6.576376072835858969e-03
8.481342568548308480e-02,-2.521529863901312250e-03,-7.931851861018805044e-03,1.255777309861292896e-03,1.372367264574561249e-02,-4.515207489522379478e-03,-3.854548156108490720e-02,6.576376072835858969e-03
4.742366047086364611e-02,-6.217840257092105069e-03,-4.517169119376312136e-04,-2.583975369855890779e-03,6.757922578023592072e-03,-1.522484699112814461e-03,-1.863442679574608615e-02,4.902059811942935906e-03
4.742366047086364611e-02,-6.217840257092105069e-03,-4.517169119376312136e-04,-2.583975369855890779e-03,6.757922578023592072e-03,-1.522484699112814461e-03,-1.863442679574608615e-02,4.902059811942935906e-03
4.742366047086364611e-02,-6.217840257092105069e-03,-4.517169119376312136e-04,-2.583975369855890779e-03,6.757922578023592072e-03,-1.522484699112814461e-03,-1.863442679574608615e-02,4.902059811942935906e-03
4.742366047086364611e-02,-6.217840257092105069e-03,-4.517169119376312136e-04,-2.583975369855890779e-03,6.757922578023592072e-03,-1.522484699112814461e-03,-1.863442679574608615e-02,4.902059811942935906e-03
4.742366047086364611e-02,-6.217840257092105069e-03,-4.517169119376312136e-04,-2.583975369855890779e-03,6.757922578023592072e-03,-1.522484699112814461e-03,-1.863442679574608615e-02,4.902059811942935906e-03
8.982119606119620681e-02,-1.028769460754976467e-01,-7.039351756351288139e-03,-3.805642309745576549e-03,2.501591080036351736e-02,6.526960621651621726e-03,1.648966779798811001e-03,-2.047671879289390470e-02
-1.430137042225909779e-03,2.521059532518458643e-02,-2.740473945687815164e-03,8.753889978442005526e-04,-9.216383694386101610e-02,1.503378628692621233e-02,-5.340011466396495619e-03,3.373694917700626426e-03
-1.430137042225909779e-03,2.521059532518458643e-02,-2.740473945687815164e-03,8.753889978442005526e-04,-9.216383694386101610e-02,1.503378628692621233e-02,-5.340011466396495619e-03,3.373694917700626426e-03
-1.430137042225909779e-03,2.521059532518458643e-02,-2.740473945687815164e-03,8.753889978442005526e-04,-9.216383694386101610e-02,1.503378628692621233e-02,-5.340011466396495619e-03,3.373694917700626426e-03
-5.132460697367498964e-02,-7.604745401762300072e-03,2.912920819359351900e-03,2.598312224355705862e-04,-9.770688798312497300e-03,7.934056711990098917e-03,4.869075971910579413e-03,-5.978411354592437325e-03
8.175576572208018145e-02,-2.229480459893149955e-02,3.345948856471648442e-03,7.506355136036049758e-03,-7.088532245236341123e-02,4.966269899750788350e-03,-1.993691156244511292e-02,-2.173496623967108993e-02
-3.941173541995778018e-02,9.905807725885963297e-03,3.744387219472760341e-03,1.035123775416547150e-03,-6.915317905222622373e-04,-8.015714878242114622e-03,-4.829118962709653962e-02,-1.172941395585903705e-02
-3.941173541995778018e-02,9.905807725885963297e-03,3.744387219472760341e-03,1.035123775416547150e-03,-6.915317905222622373e-04,-8.015714878242114622e-03,-4.829118962709653962e-02,-1.172941395585903705e-02
-3.941173541995778018e-02,9.905807725885963297e-03,3.744387219472760341e-03,1.035123775416547150e-03,-6.915317905222622373e-04,-8.015714878242114622e-03,-4.829118962709653962e-02,-1.172941395585903705e-02
2.550240221918465694e-02,2.203852744986817269e-02,2.854593722702073420e-03,1.357750307794927582e-03,-5.547023063374818819e-02,-1.294335019814422602e-02,-4.189362680661022631e-02,-7.162384313518415160e-03
-6.153916248470301525e-02,1.149293796414231073e-01,6.221956368858930220e-03,-3.807962951840331185e-04,-6.114488416645349686e-03,-1.935926079016398599e-02,1.517669982270099596e-03,5.587893166654055166e-03
-3.508690259213196466e-02,4.466328285957909400e-02,3.474711431045328456e-03,-6.124988495720211021e-03,-1.979358038343668157e-03,-1.918386725770642939e-02,-9.288112800128520141e-03,-1.078298451125040899e-02
-4.701041655871886216e-02,9.387085283059735941e-02,6.270537010787039303e-03,-1.812132065478460913e-03,-5.770562505487182407e-03,-2.181106045974985294e-02,-3.589156311982467235e-03,1.142612659437939899e-03
-4.701041655871886216e-02,9.387085283059735941e-02,6.270537010787039303e-03,-1.812132065478460913e-03,-5.770562505487182407e-03,-2.181106045974985294e-02,-3.589156311982467235e-03,1.142612659437939899e-03
-4.701041655871886216e-02,9.387085283059735941e-02,6.270537010787039303e-03,-1.812132065478460913e-03,-5.770562505487182407e-03,-2.181106045974985294e-02,-3.589156311982467235e-03,1.142612659437939899e-03
-3.567864243881117836e-02,7.697391278729312503e-02,1.219750833367183769e-02,4.737809191701315356e-03,-9.353120656498358203e-04,-2.631615053824749167e-02,-2.257318766514989500e-02,-7.260443497737635934e-03
-4.756741083529446995e-02,6.131598470923852601e-02,4.969469552771134217e-03,6.573664276233229763e-04,-1.522288725952698416e-02,-1.508893333112000176e-02,3.939387400745770693e-03,9.044497680792792232e-03
-1.062225797407666782e-02,1.454445648524781420e-01,6.940051624817410517e-03,-7.367052234190134101e-03,-6.575087707107897701e-03,-1.385718908444862930e-02,-1.764248853514396517e-02,8.809065992467867909e-03
-1.108327917784412281e-01,9.398623340700228146e-02,4.710150006584785422e-03,-2.488375220603484400e-03,-8.887646041878329711e-03,-2.075537959818443690e-02,9.512624141195205607e-02,1.487398213060685780e-02
-1.141632072086990746e-01,1.324081002073814184e-01,2.132121453207992245e-03,-1.119698191730949220e-02,-3.923084811053001095e-03,1.609983607376697795e-02,-2.301673682584922873e-02,-1.149648503372365839e-04
-4.571740417213375485e-02,4.848046956958586284e-02,-2.641660609583166598e-03,1.055463231906574387e-02,-3.131548375507960721e-03,5.896230171625917171e-02,-2.698305501490660431e-04,-4.208620873546099067e-02
-5.003229176537654643e-02,8.257010521754645782e-02,2.742921464055123049e-03,4.931819205553579846e-03,3.261467617066902665e-04,-2.850973330263844099e-02,1.986622698075213647e-02,-3.002711795936780989e-02
-5.632774562767589588e-02,1.178289272903469687e-01,2.317809581546066179e-03,1.660078230071062189e-03,-6.122026802659744256e-03,-4.445038391899341218e-03,-3.692653589228612337e-02,2.373902481578702220e-02
2.655663502727570457e-02,1.216851293334862867e-02,2.779896098699522096e-03,7.248340129461378067e-03,-1.069324474290590105e-02,5.429646075059361282e-04,-9.934689009943358656e-03,-1.463103860303192894e-02
1.806031718540020148e-01,-1.343528628390595336e-01,1.480151330194698052e-03,-1.419921637707530736e-02,-1.446254225174807909e-02,-8.072318018150646118e-03,-2.192964394852263237e-03,-1.325554488066843853e-02
2.655663502727570457e-02,1.216851293334862867e-02,2.779896098699522096e-03,7.248340129461378067e-03,-1.069324474290590105e-02,5.429646075059361282e-04,-9.934689009943358656e-03,-1.463103860303192894e-02
2.655663502727570457e-02,1.216851293334862867e-02,2.779896098699522096e-03,7.248340129461378067e-03,-1.069324474290590105e-02,5.429646075059361282e-04,-9.934689009943358656e-03,-1.463103860303192894e-02
2.655663502727570457e-02,1.216851293334862867e-02,2.779896098699522096e-03,7.248340129461378067e-03,-1.069324474290590105e-02,5.429646075059361282e-04,-9.934689009943358656e-03,-1.463103860303192894e-02
2.655663502727570457e-02,1.216851293334862867e-02,2.779896098699522096e-03,7.248340129461378067e-03,-1.069324474290590105e-02,5.429646075059361282e-04,-9.934689009943358656e-03,-1.463103860303192894e-02
3.738976521461943869e-02,3.696310393190789349e-03,-7.480134949081171554e-03,3.839752679717184543e-03,6.965750067722017817e-03,-2.992722790409564366e-03,-1.991105476533881410e-02,1.674316260892925665e-03
3.738976521461943869e-02,3.696310393190789349e-03,-7.480134949081171554e-03,3.839752679717184543e-03,6.965750067722017817e-03,-2.992722790409564366e-03,-1.991105476533881410e-02,1.674316260892925665e-03
3.738976521461943869e-02,3.696310393190789349e-03,-7.480134949081171554e-03,3.839752679717184543e-03,6.965750067722017817e-03,-2.992722790409564366e-03,-1.991105476533881410e-02,1.674316260892925665e-03
3.985136871674432868e-02,-4.207814002065816961e-02,-3.483222727111325804e-03,-6.001252312664327043e-03,4.277982847435525884e-03,7.235233372676683553e-03,3.185699196995836480e-03,-1.946540617923822949e-02
3.739686083435827396e-02,-3.292078198673319134e-02,-6.267627432489900237e-03,3.040984460957998209e-02,-1.563481164022811551e-02,-4.899663275072181634e-02,-1.722115541521694257e-02,-9.063123664368843979e-03
3.985136871674432868e-02,-4.207814002065816961e-02,-3.483222727111325804e-03,-6.001252312664327043e-03,4.277982847435525884e-03,7.235233372676683553e-03,3.185699196995836480e-03,-1.946540617923822949e-02
3.985136871674432868e-02,-4.207814002065816961e-02,-3.483222727111325804e-03,-6.001252312664327043e-03,4.277982847435525884e-03,7.235233372676683553e-03,3.185699196995836480e-03,-1.946540617923822949e-02
3.985136871674432868e-02,-4.207814002065816961e-02,-3.483222727111325804e-03,-6.001252312664327043e-03,4.277982847435525884e-03,7.235233372676683553e-03,3.185699196995836480e-03,-1.946540617923822949e-02
3.985136871674432868e-02,-4.207814002065816961e-02,-3.483222727111325804e-03,-6.001252312664327043e-03,4.277982847435525884e-03,7.235233372676683553e-03,3.185699196995836480e-03,-1.946540617923822949e-02
9.002701821143280214e-02,-4.377776440737778108e-02,-3.487545732395315283e-03,-8.605944995143969753e-03,-6.315637660106167457e-03,9.300896474057815042e-03,4.956959342713401426e-03,7.823667702609452684e-03
1.101957179012833243e-01,4.948791994548008832e-02,-3.520226750406012283e-04,-1.143339691909563225e-03,-1.481040658634829492e-03,2.376601326055568716e-03,-6.104906909364073847e-02,3.801216441933279416e-04
-1.452874592598414269e-02,2.105852681082571662e-02,-4.858064192810789082e-05,1.431335770294428012e-03,-3.439259111581660861e-04,2.451799669585864351e-03,5.106826294252573770e-03,4.445280507216109629e-03
-1.452874592598414269e-02,2.105852681082571662e-02,-4.858064192810789082e-05,1.431335770294428012e-03,-3.439259111581660861e-04,2.451799669585864351e-03,5.106826294252573770e-03,4.445280507216109629e-03
-1.452874592598414269e-02,2.105852681082571662e-02,-4.858064192810789082e-05,1.431335770294428012e-03,-3.439259111581660861e-04,2.451799669585864351e-03,5.106826294252573770e-03,4.445280507216109629e-03
-4.495733191084287650e-02,6.984654765586759129e-02,5.191054131397703116e-03,8.411016082257090788e-04,1.657247024133059739e-04,2.846105787051548749e-02,5.626884773466195788e-04,-3.635600630829935280e-03
-1.452874592598414269e-02,2.105852681082571662e-02,-4.858064192810789082e-05,1.431335770294428012e-03,-3.439259111581660861e-04,2.451799669585864351e-03,5.106826294252573770e-03,4.445280507216109629e-03
-1.452874592598414269e-02,2.105852681082571662e-02,-4.858064192810789082e-05,1.431335770294428012e-03,-3.439259111581660861e-04,2.451799669585864351e-03,5.106826294252573770e-03,4.445280507216109629e-03
-4.926205552253326569e-02,5.165257456229517541e-02,7.490349080751560265e-03,4.987253096092377630e-03,-9.184603053945005532e-04,2.032381948332965399e-02,-9.616571564650320397e-03,5.649565135838905718e-03
-1.148574875720038690e-01,1.670653439535554063e-01,-8.432400934472259607e-03,1.405154529939129510e-03,2.065866284253323974e-03,-1.556896047058908307e-02,-3.039991353353974080e-02,1.718344964292938329e-02
-1.148574875720038690e-01,1.670653439535554063e-01,-8.432400934472259607e-03,1.405154529939129510e-03,2.065866284253323974e-03,-1.556896047058908307e-02,-3.039991353353974080e-02,1.718344964292938329e-02
1.830397060925591929e-03,1.446673574042635357e-02,1.941894842200414181e-02,-8.126504066791304798e-03,-4.419483283260543585e-03,2.035364616437257152e-03,9.884600717683432111e-03,-2.084389347410496932e-02
-1.950823311827024455e-03,-3.625130244700709194e-03,2.195484393489963854e-02,-8.770764499026337951e-03,-6.367499565144973776e-03,5.954034574848242117e-04,1.736027699443884464e-02,-3.526724567248582659e-02
-3.725444408289026784e-03,1.411908865935393963e-02,1.911386745764663900e-02,-6.447016064506641206e-03,-4.583965989772013222e-03,4.722929567550873328e-03,1.732227701039737444e-02,-2.271334481762934607e-02
1.830397060925591929e-03,1.446673574042635357e-02,1.941894842200414181e-02,-8.126504066791304798e-03,-4.419483283260543585e-03,2.035364616437257152e-03,9.884600717683432111e-03,-2.084389347410496932e-02
-3.415646748627564067e-02,9.716861323140127404e-02,-5.652626915722740175e-02,6.677631770514403861e-03,-7.329691718461100666e-03,-9.573426933949902989e-03,8.218327324911331444e-03,-2.343883845518814849e-03
1.830397060925591929e-03,1.446673574042635357e-02,1.941894842200414181e-02,-8.126504066791304798e-03,-4.419483283260543585e-03,2.035364616437257152e-03,9.884600717683432111e-03,-2.084389347410496932e-02
-3.415646748627564067e-02,9.716861323140127404e-02,-5.652626915722740175e-02,6.677631770514403861e-03,-7.329691718461100666e-03,-9.573426933949902989e-03,8.218327324911331444e-03,-2.343883845518814849e-03
-3.415646748627564067e-02,9.716861323140127404e-02,-5.652626915722740175e-02,6.677631770514403861e-03,-7.329691718461100666e-03,-9.573426933949902989e-03,8.218327324911331444e-03,-2.343883845518814849e-03
-3.415646748627564067e-02,9.716861323140127404e-02,-5.652626915722740175e-02,6.677631770514403861e-03,-7.329691718461100666e-03,-9.573426933949902989e-03,8.218327324911331444e-03,-2.343883845518814849e-03
-6.668546811904210725e-02,1.746842231400579926e-01,7.980886955814606165e-02,-4.626981029399890137e-03,5.052121418353259716e-03,-3.951613024898190801e-03,-8.223669134522241728e-04,1.256523234574473749e-02
-6.668546811904210725e-02,1.746842231400579926e-01,7.980886955814606165e-02,-4.626981029399890137e-03,5.052121418353259716e-03,-3.951613024898190801e-03,-8.223669134522241728e-04,1.256523234574473749e-02
-6.668546811904210725e-02,1.746842231400579926e-01,7.980886955814606165e-02,-4.626981029399890137e-03,5.052121418353259716e-03,-3.951613024898190801e-03,-8.223669134522241728e-04,1.256523234574473749e-02
-3.598686454720124300e-02,8.270187749097487884e-02,-7.594521757923153316e-02,1.480413583730571039e-02,-2.910208435200557948e-03,-1.160879155038715797e-02,-1.666273392772089175e-03,1.850000962858616010e-02
7.053137976973692172e-03,7.677311430123938234e-03,-1.008574306991171926e-01,2.469551897344777862e-03,7.809419588184182692e-02,8.409166600000582414e-02,1.284452903471550687e-02,-6.539172253949714075e-02
3.613760574648509916e-03,1.753412421166046509e-02,-1.477523171383990884e-02,-7.302933734537502605e-04,-4.011404142034764690e-03,-1.418690172753372600e-02,1.341418452754601989e-02,1.628193596470021987e-02
3.613760574648509916e-03,1.753412421166046509e-02,-1.477523171383990884e-02,-7.302933734537502605e-04,-4.011404142034764690e-03,-1.418690172753372600e-02,1.341418452754601989e-02,1.628193596470021987e-02
3.613760574648509916e-03,1.753412421166046509e-02,-1.477523171383990884e-02,-7.302933734537502605e-04,-4.011404142034764690e-03,-1.418690172753372600e-02,1.341418452754601989e-02,1.628193596470021987e-02
-3.735642862349972636e-03,2.405057987692556243e-02,-1.315269445186247922e-02,-4.958148372563322970e-03,-1.598583571824225766e-03,-8.227513071904394432e-03,-6.552844043514968915e-03,-7.197051711141588641e-03
2.279979044216468714e-02,-2.412109683897446094e-02,-1.620305259954252577e-02,-7.594294637962377068e-03,6.464598088998581293e-03,-1.343292002575634247e-02,1.053896046098721367e-02,1.436751568172446158e-03
-1.303539760304517001e-02,-1.527994813264236217e-02,-1.020437197401859175e-02,7.140918991088485157e-02,-9.708788240990001706e-03,-5.663898670465145058e-02,-1.129540565136688893e-02,1.230982594804904719e-02
-1.058088972065912396e-02,-2.443730616656730054e-02,-7.419967268640019487e-03,3.499809298864053897e-02,1.020400624667364142e-02,-4.071205812529392451e-04,9.111448960845893591e-03,1.907543433179664490e-03
-8.100746149783052963e-02,1.794871515577475428e-03,-7.382368219732019302e-03,6.659691916403598366e-02,-2.980642615391718153e-02,-3.918874059094172579e-02,-5.086539245189677233e-02,1.697231636323116161e-02
9.933519702416647446e-03,-1.437245633439901936e-02,-2.837756767645765836e-03,2.565120725515321332e-02,-5.637309526717835390e-02,9.635635176891221843e-02,-1.485949707917732544e-02,-8.053119024861006559e-02
-3.259792121316937253e-04,-2.686848209597218415e-02,-8.563446940584630313e-04,2.644389688907018351e-02,1.441321873946781532e-02,-6.510248122272912011e-03,1.337470316162447069e-02,-1.469544079454480033e-02
-1.058088972065912396e-02,-2.443730616656730054e-02,-7.419967268640019487e-03,3.499809298864053897e-02,1.020400624667364142e-02,-4.071205812529392451e-04,9.111448960845893591e-03,1.907543433179664490e-03
-1.058088972065912396e-02,-2.443730616656730054e-02,-7.419967268640019487e-03,3.499809298864053897e-02,1.020400624667364142e-02,-4.071205812529392451e-04,9.111448960845893591e-03,1.907543433179664490e-03
-1.058088972065912396e-02,-2.443730616656730054e-02,-7.419967268640019487e-03,3.499809298864053897e-02,1.020400624667364142e-02,-4.071205812529392451e-04,9.111448960845893591e-03,1.907543433179664490e-03
-1.058088972065912396e-02,-2.443730616656730054e-02,-7.419967268640019487e-03,3.499809298864053897e-02,1.020400624667364142e-02,-4.071205812529392451e-04,9.111448960845893591e-03,1.907543433179664490e-03
-7.577460183498657513e-03,-9.123038701455090174e-03,-2.589647310215644448e-03,6.308472984329774325e-02,5.359766833217947946e-03,3.739592972293435784e-03,-2.295030733030240661e-02,-2.174818394199569058e-03
-9.189735440457993954e-03,-2.236476049781201125e-02,6.724330396991035248e-03,4.891201940288638500e-02,-4.939957083295431345e-03,3.064006225529985333e-02,-7.205835531815299108e-03,-6.059006850671880967e-02
-1.058088972065912396e-02,-2.443730616656730054e-02,-7.419967268640019487e-03,3.499809298864053897e-02,1.020400624667364142e-02,-4.071205812529392451e-04,9.111448960845893591e-03,1.907543433179664490e-03
-1.058088972065912396e-02,-2.443730616656730054e-02,-7.419967268640019487e-03,3.499809298864053897e-02,1.020400624667364142e-02,-4.071205812529392451e-04,9.111448960845893591e-03,1.907543433179664490e-03
-1.058088972065912396e-02,-2.443730616656730054e-02,-7.419967268640019487e-03,3.499809298864053897e-02,1.020400624667364142e-02,-4.071205812529392451e-04,9.111448960845893591e-03,1.907543433179664490e-03
-1.058088972065912396e-02,-2.443730616656730054e-02,-7.419967268640019487e-03,3.499809298864053897e-02,1.020400624667364142e-02,-4.071205812529392451e-04,9.111448960845893591e-03,1.907543433179664490e-03
-1.058088972065912396e-02,-2.443730616656730054e-02,-7.419967268640019487e-03,3.499809298864053897e-02,1.020400624667364142e-02,-4.071205812529392451e-04,9.111448960845893591e-03,1.907543433179664490e-03
1.540465368267261992e-01,-1.465213757724081189e-01,-1.299744768504824260e-03,-2.144755650653669757e-02,-3.769297508842180209e-03,-8.615282625656580512e-03,7.741724615091097154e-03,1.375493722363495611e-03
1.272737071118235919e-01,-2.911798057532076142e-02,1.056602210691154890e-04,-8.876904868517724451e-03,-1.131109572227436723e-02,1.415215933366663695e-02,1.502976062451256631e-02,-9.200908043514987450e-03
2.092141573082320627e-01,-1.707844055872446143e-01,-5.437975066128223831e-04,-2.818688561287455152e-02,-2.511949166538860368e-04,1.606009343578804552e-03,1.703941068653084742e-02,-2.362200259011676060e-02
1.842640046593411740e-01,-1.621911365611415079e-01,-5.045952237685850852e-04,-1.364313401333404688e-02,-5.074307115479594066e-02,-2.194468323437457138e-03,-1.919637470482981429e-03,7.717833212195691905e-03
5.033664598205912777e-02,-9.875462028028079986e-02,1.375292597755661556e-03,-1.405720770447510017e-02,8.452619681138921065e-03,5.282872828011922137e-03,7.185548881852093454e-04,-2.031563215088585603e-02
3.115061611454294360e-02,-5.709939922964585302e-02,2.803113483458275889e-03,-7.193206439966476178e-03,-2.023382549894422316e-03,4.528891126234536012e-03,3.593778954744016214e-03,-5.470447754358084488e-03
3.115061611454294360e-02,-5.709939922964585302e-02,2.803113483458275889e-03,-7.193206439966476178e-03,-2.023382549894422316e-03,4.528891126234536012e-03,3.593778954744016214e-03,-5.470447754358084488e-03
1.818568744721202612e-01,-6.146586098876573312e-02,1.882731851780024236e-03,-1.612461892558260737e-02,-7.451893324435712729e-02,-3.111969048777199313e-03,-1.613587383672056286e-02,7.301601213485023507e-03
4.098213967190940388e-02,-1.769420014111366957e-02,6.927319987891252234e-04,-1.999646673813953307e-02,7.865336991390761701e-03,1.193979789402981918e-02,-5.248642584740860961e-04,1.682704418170377983e-02
1.062367847011897182e-01,-4.061122519718168844e-02,2.092136757607806867e-03,-3.604982153165565365e-03,-1.975134961631196118e-02,-1.344067520548651584e-02,1.132127389608407649e-02,9.525459934639556731e-03
3.115061611454294360e-02,-5.709939922964585302e-02,2.803113483458275889e-03,-7.193206439966476178e-03,-2.023382549894422316e-03,4.528891126234536012e-03,3.593778954744016214e-03,-5.470447754358084488e-03
1.918602986751617029e-02,-4.165522105063493991e-02,-1.427820885702613899e-03,-6.864001264508626590e-03,1.047600223103334512e-02,7.539817017773842818e-04,-2.875224066558810555e-03,-1.484518439652776980e-02
1.020904842465396485e-02,-3.559310735161983624e-02,2.055259794237239597e-03,2.303065012655155597e-04,7.352529818110864653e-03,3.424969618282775602e-03,-9.905550846138525239e-05,-6.055855768953068499e-03
8.410016750665860741e-02,-2.952250132665272184e-02,-2.317614382473300819e-03,-6.541374732130243556e-03,-4.430269661219256305e-02,-4.173653618124731346e-03,3.522338753927496680e-03,-1.027815475418715312e-02
5.687175272622284339e-02,-3.123037232742014845e-04,-1.263577301355999069e-03,1.205678713729705937e-03,5.888570749904088568e-03,-1.654637259662178339e-02,4.693140217272512640e-03,-1.786532748426659239e-02
8.410016750665860741e-02,-2.952250132665272184e-02,-2.317614382473300819e-03,-6.541374732130243556e-03,-4.430269661219256305e-02,-4.173653618124731346e-03,3.522338753927496680e-03,-1.027815475418715312e-02
1.918602986751617029e-02,-4.165522105063493991e-02,-1.427820885702613899e-03,-6.864001264508626590e-03,1.047600223103334512e-02,7.539817017773842818e-04,-2.875224066558810555e-03,-1.484518439652776980e-02
1.918602986751617029e-02,-4.165522105063493991e-02,-1.427820885702613899e-03,-6.864001264508626590e-03,1.047600223103334512e-02,7.539817017773842818e-04,-2.875224066558810555e-03,-1.484518439652776980e-02
-1.227313886966076469e-02,2.292069208201242582e-03,1.747165295666105707e-03,4.480611651528970674e-02,-1.360491098190716799e-02,3.893768590596290765e-03,2.034205409851227043e-03,-1.082296944129122404e-02
-1.134206160941358607e-02,-3.846930995489923621e-02,2.848699898690746062e-03,5.655545497991228826e-02,-8.262283680414195947e-03,3.827484900857830528e-03,-4.773691127198416775e-03,-1.670820192303807891e-02
-1.134206160941358607e-02,-3.846930995489923621e-02,2.848699898690746062e-03,5.655545497991228826e-02,-8.262283680414195947e-03,3.827484900857830528e-03,-4.773691127198416775e-03,-1.670820192303807891e-02
-1.134206160941358607e-02,-3.846930995489923621e-02,2.848699898690746062e-03,5.655545497991228826e-02,-8.262283680414195947e-03,3.827484900857830528e-03,-4.773691127198416775e-03,-1.670820192303807891e-02
-6.025532401857785006e-03,-6.455209803979587713e-02,6.775290748040234574e-03,5.930856387373126953e-02,-9.304858514622832422e-02,-2.452168307854879839e-02,1.251128555789391972e-01,-2.217016762040475639e-02
-5.238384595469004756e-02,-4.210693557669968091e-03,9.449674239415277238e-04,8.051800075671924906e-02,-7.651294717214382479e-02,3.723288352037457398e-04,-1.802315367864748899e-02,9.836915656581714240e-02
-1.134206160941358607e-02,-3.846930995489923621e-02,2.848699898690746062e-03,5.655545497991228826e-02,-8.262283680414195947e-03,3.827484900857830528e-03,-4.773691127198416775e-03,-1.670820192303807891e-02
-1.134206160941358607e-02,-3.846930995489923621e-02,2.848699898690746062e-03,5.655545497991228826e-02,-8.262283680414195947e-03,3.827484900857830528e-03,-4.773691127198416775e-03,-1.670820192303807891e-02
-1.134206160941358607e-02,-3.846930995489923621e-02,2.848699898690746062e-03,5.655545497991228826e-02,-8.262283680414195947e-03,3.827484900857830528e-03,-4.773691127198416775e-03,-1.670820192303807891e-02
-1.134206160941358607e-02,-3.846930995489923621e-02,2.848699898690746062e-03,5.655545497991228826e-02,-8.262283680414195947e-03,3.827484900857830528e-03,-4.773691127198416775e-03,-1.670820192303807891e-02
-1.134206160941358607e-02,-3.846930995489923621e-02,2.848699898690746062e-03,5.655545497991228826e-02,-8.262283680414195947e-03,3.827484900857830528e-03,-4.773691127198416775e-03,-1.670820192303807891e-02
-1.134206160941358607e-02,-3.846930995489923621e-02,2.848699898690746062e-03,5.655545497991228826e-02,-8.262283680414195947e-03,3.827484900857830528e-03,-4.773691127198416775e-03,-1.670820192303807891e-02
-1.134206160941358607e-02,-3.846930995489923621e-02,2.848699898690746062e-03,5.655545497991228826e-02,-8.262283680414195947e-03,3.827484900857830528e-03,-4.773691127198416775e-03,-1.670820192303807891e-02
-1.134206160941358607e-02,-3.846930995489923621e-02,2.848699898690746062e-03,5.655545497991228826e-02,-8.262283680414195947e-03,3.827484900857830528e-03,-4.773691127198416775e-03,-1.670820192303807891e-02
-2.619568506811762593e-02,-8.082770518879764388e-02,-5.686453282026922816e-03,8.990054498937924410e-02,-1.153600441184124067e-02,1.135789651528566584e-02,-1.549039952593657052e-02,-3.198252966991464025e-02
-6.066495968278847600e-02,-1.137397010215854543e-01,1.107000749434469255e-03,6.946814690192355812e-02,-1.174618716745949240e-02,9.392893890386503492e-03,1.841394936914466859e-02,-4.258090962321542383e-02
-4.226424188285667766e-02,-9.828976769787046985e-02,-5.546706378907655458e-03,4.784449657787499810e-02,6.585651460252810348e-03,1.332627373497718461e-02,1.163372185348610956e-02,-4.040167657881078844e-02
-4.226424188285667766e-02,-9.828976769787046985e-02,-5.546706378907655458e-03,4.784449657787499810e-02,6.585651460252810348e-03,1.332627373497718461e-02,1.163372185348610956e-02,-4.040167657881078844e-02
-4.226424188285667766e-02,-9.828976769787046985e-02,-5.546706378907655458e-03,4.784449657787499810e-02,6.585651460252810348e-03,1.332627373497718461e-02,1.163372185348610956e-02,-4.040167657881078844e-02
-3.530419425377014780e-02,-6.615244436005825179e-02,-7.247156022177772897e-03,3.410527067065878548e-02,9.429982432182097696e-02,1.165699567813273038e-02,-1.827003296757232637e-02,-1.661491915286356785e-02
-5.070696377714763170e-02,-9.354259798307471008e-02,-2.475427616211741018e-03,4.782336846236708017e-02,5.420385149627371044e-03,1.524200661120677681e-02,1.261415322903168545e-02,-3.670056371470216405e-02
-6.094804323689838321e-02,-9.353933463079761035e-02,-1.767503629095357100e-03,4.312227713949293856e-02,-1.365369102905059431e-02,-4.432719083791611565e-03,1.226841049647028545e-02,6.355549113153692413e-03
-3.570628937518958990e-02,-1.524789494104745145e-02,6.807251814564332926e-03,2.739173863602254594e-02,-1.175726442431466144e-02,2.839196204981208217e-03,6.433256654309287351e-03,-3.579976057294588683e-03
-1.915248068234806991e-02,8.102428475425025797e-03,6.665986307756286214e-03,1.365711734441764011e-02,-1.694037791057919837e-02,-3.211504484440735191e-02,1.529717917635901392e-03,2.563129240775520110e-02
-6.929518157999586814e-02,-1.024425968484366789e-01,9.546234869889170041e-03,4.246867929390288343e-02,-1.162693828505989915e-02,2.173141098876610680e-02,1.046420001855057416e-02,3.699070145539516685e-03
-1.840071779993177753e-02,-1.544993332371488205e-02,6.653707128342125146e-03,2.162365032404855308e-02,-1.833183862771230188e-02,-3.933379844590681983e-03,6.780227515658569445e-03,-2.179233044404633220e-03
-1.840071779993177753e-02,-1.544993332371488205e-02,6.653707128342125146e-03,2.162365032404855308e-02,-1.833183862771230188e-02,-3.933379844590681983e-03,6.780227515658569445e-03,-2.179233044404633220e-03
-1.840071779993177753e-02,-1.544993332371488205e-02,6.653707128342125146e-03,2.162365032404855308e-02,-1.833183862771230188e-02,-3.933379844590681983e-03,6.780227515658569445e-03,-2.179233044404633220e-03
-1.415343464253342697e-02,-6.782446341501381995e-03,6.451371656357336986e-04,1.312635504900410257e-03,8.169322730722902715e-02,1.281096910821445667e-02,-5.660933631921784802e-03,-2.134874094309372611e-02
-1.840071779993177753e-02,-1.544993332371488205e-02,6.653707128342125146e-03,2.162365032404855308e-02,-1.833183862771230188e-02,-3.933379844590681983e-03,6.780227515658569445e-03,-2.179233044404633220e-03
4.283619374591281920e-02,-4.222838985498036241e-02,6.878538222754924762e-03,1.578021932970844268e-02,-3.873661099222682619e-02,-5.692504556365704516e-03,-3.030404503394552515e-02,-3.606807392000234425e-03
-1.863800850564951983e-02,-3.078266656462378542e-02,2.068605875499579354e-03,2.135281782778944079e-02,-2.097805742174301685e-02,7.554420876958137243e-02,2.095952234841160639e-02,-4.980639128342193023e-02
-5.899510859619682031e-03,-1.301706390341699285e-02,6.714070731388330042e-03,4.543336740875203450e-02,-3.685135697943177358e-02,-5.840687267197164356e-03,-2.238527103011716396e-02,6.939748861603732728e-03
-1.840071779993177753e-02,-1.544993332371488205e-02,6.653707128342125146e-03,2.162365032404855308e-02,-1.833183862771230188e-02,-3.933379844590681983e-03,6.780227515658569445e-03,-2.179233044404633220e-03
-1.840071779993177753e-02,-1.544993332371488205e-02,6.653707128342125146e-03,2.162365032404855308e-02,-1.833183862771230188e-02,-3.933379844590681983e-03,6.780227515658569445e-03,-2.179233044404633220e-03
-4.254732543696658487e-02,-7.808940130708270921e-02,-8.421210757437480945e-03,2.149862681544438894e-02,4.678147598661709303e-03,-4.993392392009311006e-04,5.488182980811717737e-03,8.534782157558332139e-03
-4.254732543696658487e-02,-7.808940130708270921e-02,-8.421210757437480945e-03,2.149862681544438894e-02,4.678147598661709303e-03,-4.993392392009311006e-04,5.488182980811717737e-03,8.534782157558332139e-03
-4.254732543696658487e-02,-7.808940130708270921e-02,-8.421210757437480945e-03,2.149862681544438894e-02,4.678147598661709303e-03,-4.993392392009311006e-04,5.488182980811717737e-03,8.534782157558332139e-03
-4.254732543696658487e-02,-7.808940130708270921e-02,-8.421210757437480945e-03,2.149862681544438894e-02,4.678147598661709303e-03,-4.993392392009311006e-04,5.488182980811717737e-03,8.534782157558332139e-03
-4.107883216767323903e-02,-7.254137394644859238e-02,-1.842996784028342423e-03,2.130546136258536921e-02,-2.379006865886777668e-04,-4.554185715585495030e-03,2.326712669642037878e-03,9.521136428362140386e-03
-7.506774800623802757e-02,-1.975440840893057798e-02,1.739034551599563314e-03,-6.979112388399958886e-03,-1.780265449537699442e-03,1.942502398620708087e-03,1.432099493943193302e-01,-5.757728186620415800e-02
-1.098282070457480206e-02,-1.798949985824799605e-02,3.045045023486225248e-03,-7.449706794876310989e-03,2.696774764583600298e-03,3.846861892098320159e-03,-1.288689541438541898e-02,2.758685056839304617e-04
-1.098282070457480206e-02,-1.798949985824799605e-02,3.045045023486225248e-03,-7.449706794876310989e-03,2.696774764583600298e-03,3.846861892098320159e-03,-1.288689541438541898e-02,2.758685056839304617e-04
-1.936999963657382723e-02,-2.636790334438785660e-02,-1.947027522359720628e-03,1.188680022152893423e-01,5.514591274137684018e-03,-1.973626369586951521e-02,-1.645429771028079566e-02,4.041306666951296339e-02
-8.821969827999705943e-03,-3.778479176777107401e-02,2.819872786834946334e-03,-1.519527835301589559e-02,8.580037239836160040e-03,8.753600684066187645e-03,-1.843195489602824505e-02,-1.084034982549254497e-02
-1.098282070457480206e-02,-1.798949985824799605e-02,3.045045023486225248e-03,-7.449706794876310989e-03,2.696774764583600298e-03,3.846861892098320159e-03,-1.288689541438541898e-02,2.758685056839304617e-04
-6.953042057867867172e-03,-4.218805603500457718e-02,-2.910156421888107029e-03,-3.515087369296540469e-03,-1.881083876347437083e-03,7.017070102778004241e-03,-3.258896929847180431e-03,7.785802080033623262e-04
-1.098282070457480206e-02,-1.798949985824799605e-02,3.045045023486225248e-03,-7.449706794876310989e-03,2.696774764583600298e-03,3.846861892098320159e-03,-1.288689541438541898e-02,2.758685056839304617e-04
-1.098282070457480206e-02,-1.798949985824799605e-02,3.045045023486225248e-03,-7.449706794876310989e-03,2.696774764583600298e-03,3.846861892098320159e-03,-1.288689541438541898e-02,2.758685056839304617e-04
-1.098282070457480206e-02,-1.798949985824799605e-02,3.045045023486225248e-03,-7.449706794876310989e-03,2.696774764583600298e-03,3.846861892098320159e-03,-1.288689541438541898e-02,2.758685056839304617e-04
-1.098282070457480206e-02,-1.798949985824799605e-02,3.045045023486225248e-03,-7.449706794876310989e-03,2.696774764583600298e-03,3.846861892098320159e-03,-1.288689541438541898e-02,2.758685056839304617e-04
-3.750051385148495120e-02,1.051817469348119947e-02,4.468256587849989483e-03,3.471237305312952718e-03,-3.348571449892187579e-03,-1.931579622738281406e-03,-2.721412008582436287e-03,2.275383765754724567e-03
-1.098282070457480206e-02,-1.798949985824799605e-02,3.045045023486225248e-03,-7.449706794876310989e-03,2.696774764583600298e-03,3.846861892098320159e-03,-1.288689541438541898e-02,2.758685056839304617e-04
-1.098282070457480206e-02,-1.798949985824799605e-02,3.045045023486225248e-03,-7.449706794876310989e-03,2.696774764583600298e-03,3.846861892098320159e-03,-1.288689541438541898e-02,2.758685056839304617e-04
-1.098282070457480206e-02,-1.798949985824799605e-02,3.045045023486225248e-03,-7.449706794876310989e-03,2.696774764583600298e-03,3.846861892098320159e-03,-1.288689541438541898e-02,2.758685056839304617e-04
-1.098282070457480206e-02,-1.798949985824799605e-02,3.045045023486225248e-03,-7.449706794876310989e-03,2.696774764583600298e-03,3.846861892098320159e-03,-1.288689541438541898e-02,2.758685056839304617e-04
